{"format": "simple_vla_js", "num_params": 30116, "num_intents": 2, "lang_dim": 32, "intent_labels": ["always_take_left", "always_take_right"], "weights": {"conv1_weight": [0.45635882019996643, 0.8810360431671143, 0.1509232372045517, 0.7120627164840698, 1.1213748455047607, 0.31611260771751404, 0.5711820721626282, 0.6910140514373779, 0.5015881061553955, 0.11083044111728668, 0.5761563181877136, -0.0485629104077816, 0.6800856590270996, 0.8876844644546509, 0.29086464643478394, 0.33967727422714233, 0.4240233898162842, 0.3618818521499634, -0.21872514486312866, -0.09333280473947525, -0.4017690420150757, 0.09130209684371948, 0.06973879039287567, -0.34858858585357666, -0.19180671870708466, -0.3281645178794861, -0.07105633616447449, -0.40916138887405396, -0.0723312571644783, 0.17160719633102417, -0.3480416238307953, -0.6701666116714478, -0.12927809357643127, -0.3657016158103943, -0.47355860471725464, 0.26736652851104736, 0.07956422865390778, 0.36469846963882446, 0.3555586636066437, 0.05330754444003105, 0.06142405420541763, 0.2911463975906372, 0.16252173483371735, 0.2958822250366211, 0.6309125423431396, -0.1412702053785324, 0.13324323296546936, 0.01566500775516033, -0.34112632274627686, -0.6379973292350769, -0.23643700778484344, -0.3564112186431885, -0.3977493345737457, 0.22619053721427917, -6.022500539975199e-41, 4.936213970430601e-41, -4.938876437512818e-41, -4.911410987612051e-41, 4.91869773962654e-41, -4.92093981716946e-41, -4.91869773962654e-41, 4.949246046148821e-41, -4.947144098452334e-41, 4.923462154405245e-41, 5.301112090540783e-41, -4.942800073212927e-41, -6.252033228431604e-41, 4.930328516880436e-41, -4.923041764865947e-41, 4.908748520529834e-41, 4.911691247304916e-41, 4.949666435688119e-41, 4.935933710737736e-41, 4.911831377151349e-41, 4.909028780222699e-41, 4.935653451044871e-41, 4.932290334730491e-41, 4.94350072244509e-41, 4.950787474459579e-41, 4.917716830701513e-41, 4.925984491641029e-41, 0.11482533812522888, 0.12753111124038696, 0.1864989846944809, 0.19215112924575806, -0.03979846090078354, 0.15492849051952362, 0.2734376788139343, -0.10218749940395355, -0.11036752909421921, 0.295197993516922, 0.1871344894170761, 0.26798537373542786, 0.435853511095047, 0.11430864781141281, 0.1943417340517044, 0.5783957839012146, 0.23509810864925385, 0.15951533615589142, -0.3397141695022583, -0.5011115670204163, -0.3923034965991974, -0.15473730862140656, -0.5048394203186035, -0.37550365924835205, 0.08521510660648346, -0.3208647072315216, -0.4543983042240143, 4.932710724269789e-41, 4.906086053447617e-41, 4.907487351911942e-41, 4.949105916302389e-41, 4.925564102101732e-41, 4.936494230123466e-41, 4.908188001144104e-41, -5.893440951410883e-41, 4.938736307666385e-41, 4.918417479933675e-41, 4.936073840584168e-41, 4.951768383384606e-41, 4.935793580891303e-41, 4.92206085594092e-41, 4.940277735977143e-41, 4.91813722024081e-41, 4.909869559301294e-41, 4.906366313140482e-41, 4.925984491641029e-41, 4.948685526763091e-41, 4.928086439337517e-41, 4.907066962372644e-41, 4.935513321198438e-41, 4.937475139048493e-41, 4.950507214766714e-41, 4.942519813520062e-41, 4.921780596248055e-41, -0.09899578988552094, -0.5301775336265564, -0.13128696382045746, 0.23512208461761475, 0.45065921545028687, -0.11645197868347168, -0.32163408398628235, -0.6129577159881592, -0.2839749753475189, 0.11265955120325089, -0.023376433178782463, -0.08601812273263931, 0.6928746700286865, 0.8846118450164795, -0.007604391314089298, 0.03362187743186951, -0.38322898745536804, -0.30902549624443054, 0.25724297761917114, 0.4268794655799866, 0.006759044714272022, 1.0970114469528198, 1.3660905361175537, 0.3053795397281647, 0.1986818164587021, -0.22632232308387756, -0.3251829445362091, -0.14804187417030334, -0.13529913127422333, 0.04762410372495651, -0.3161643147468567, -0.32113155722618103, 0.28519806265830994, -0.5416708588600159, -0.5886707305908203, -0.4631636142730713, 0.0007314799004234374, 0.13409923017024994, 0.0312055591493845, -0.1576552391052246, -0.05701569840312004, 0.2077026218175888, -0.22207914292812347, -0.269875705242157, -0.378160685300827, 0.4528694152832031, 0.7636470794677734, 0.4601591229438782, 0.4543936550617218, 0.7874056100845337, 0.8686811923980713, 0.3348492980003357, 0.2650616765022278, 0.08646538853645325, 0.32004663348197937, 0.7031214833259583, 0.16994358599185944, 1.2193710803985596, 1.4511858224868774, 0.6212618350982666, 0.5447306036949158, 0.7520483732223511, 0.261145681142807, -0.15665239095687866, 0.023924874141812325, -0.4977927803993225, 0.16907620429992676, 0.04215935245156288, -0.5037161707878113, -0.30305784940719604, -0.27435722947120667, -0.41965147852897644, -0.3092114329338074, -0.14361299574375153, -0.239106222987175, 0.3385777771472931, -0.20762689411640167, -0.48813480138778687, -0.060339462012052536, -0.07924441248178482, 0.0036992267705500126, -0.4100326597690582, 0.6763877868652344, 0.9523138403892517, -0.5496937036514282, -0.3251267373561859, 0.17529486119747162, 0.14032691717147827, -0.16367195546627045, -0.19436118006706238, 0.4219386875629425, 1.144141435623169, 1.1053392887115479, -0.7324467897415161, -0.47467803955078125, -0.2887200713157654, -0.26834818720817566, -0.4797939360141754, -0.2630346119403839, 0.7795500755310059, 1.4353890419006348, 1.211383581161499, -0.9631097316741943, -0.6415994763374329, -0.5859854817390442, -0.35393935441970825, -0.6479102969169617, -0.378987580537796, -0.16487480700016022, 0.16976583003997803, -0.11327045410871506, -0.11204307526350021, -0.040455736219882965, -0.09392716735601425, 0.2297702133655548, -0.027654979377985, 0.3534417152404785, -0.4685656726360321, -0.4010603129863739, -0.5332806706428528, -0.6141259074211121, -0.5427663922309875, -0.7636557221412659, -0.2983340620994568, -0.5734147429466248, -0.29493603110313416, 0.21765097975730896, 0.38043129444122314, 0.16794730722904205, 0.2548080384731293, 0.4950891137123108, 0.1614166647195816, 0.5369571447372437, 0.4258752167224884, 0.4067423343658447, 0.4121982753276825, -0.04202694073319435, 0.12893950939178467, 0.8871625065803528, 0.42956286668777466, 0.10991169512271881, 0.3569653332233429, 0.3088856339454651, 0.39851340651512146, 0.45620110630989075, 0.030382726341485977, -0.12025215476751328, 0.37563082575798035, -0.19917604327201843, -0.4021441340446472, -0.14447304606437683, -0.3512595593929291, -0.20178692042827606, 0.22435317933559418, -0.23007094860076904, -0.3057863116264343, -0.024118581786751747, -0.49032703042030334, -0.6018995046615601, -0.3542692959308624, -0.5396744012832642, -0.3466351628303528, -0.16100382804870605, -0.29024046659469604, 0.1602245718240738, -0.3906831741333008, -0.04999085143208504, 0.12135493755340576, -0.1876317858695984, -0.5140856504440308, 0.5006522536277771, -0.07046346366405487, 0.026336297392845154, 0.09832238405942917, 0.005463867448270321, 0.4836007356643677, 0.3432809114456177, 0.10394096374511719, 0.21398977935314178, 0.8682040572166443, 0.025646695867180824, 0.29753074049949646, 0.2104899287223816, -0.16178809106349945, 0.4906172752380371, 0.05122268572449684, -0.06094006448984146, 0.13341155648231506, 0.7672569155693054, 0.07150501757860184, -0.31199201941490173, -0.4048146903514862, 0.07176768034696579, 0.4115388095378876, 0.3552210032939911, 0.24450083076953888, 0.6133571863174438, 0.33815962076187134, -0.5723596811294556, -1.061977505683899, -0.8717350959777832, -0.3679838478565216, -0.1520199179649353, -0.10001176595687866, -0.44982802867889404, 0.029784709215164185, -0.21831154823303223, -0.07916387915611267, -0.5600662231445312, -0.12469153851270676, 0.1585029512643814, 0.5146214365959167, 0.6831751465797424, 0.1207675114274025, 0.7713102698326111, 0.49770650267601013, 0.34894901514053345, 0.44870635867118835, 0.42055025696754456, 0.27394214272499084, 1.0262701511383057, 0.5968935489654541, 0.46465691924095154, 0.7795293927192688, 0.6768503189086914, -0.03183285892009735, -0.08881097286939621, 0.030199488624930382, -0.5501968264579773, 0.0026957832742482424, -0.41313812136650085, -0.41752466559410095, -0.12082619965076447, -0.015111041255295277, -0.40463247895240784, -0.5113556981086731, -0.1824227273464203, -0.821083128452301, -0.4187188148498535, -0.7349099516868591, -0.5825543999671936, -0.2506071925163269, -0.021235983818769455, -0.10210227966308594, 0.3830758035182953, 0.6785616278648376, -0.3781568706035614, 0.8033882975578308, 1.2077231407165527, 0.10765053331851959, 0.5106056928634644, 0.5760141611099243, -0.47760263085365295, 0.11998874694108963, 0.5099924802780151, -0.8353633284568787, 0.21757330000400543, 0.8602597117424011, -0.24057167768478394, 0.16384531557559967, 0.4826330840587616, -0.43842312693595886, 0.0411517359316349, 0.5960816740989685, -0.9234870672225952, 0.003125720890238881, 0.7007143497467041, -0.2567581236362457, 0.14750845730304718, 0.4427722990512848, -0.035473551601171494, -0.4312138259410858, -0.22746026515960693, 0.43146204948425293, -0.14677907526493073, -0.18364928662776947, 0.29612764716148376, 0.3736191987991333, 0.4283407926559448, 0.013637376949191093, -0.567250669002533, -0.4718291163444519, 0.01660936512053013, -0.855331540107727, -1.0552185773849487, 0.027495725080370903, -0.3415408432483673, -0.6384561061859131, 0.6560408473014832, 0.39225587248802185, 0.23993518948554993, 0.6618072390556335, -0.11390959471464157, -0.34467074275016785, 0.7766942977905273, 0.6032881140708923, 0.19389881193637848], "conv1_bias": [-0.21523000299930573, 0.4410378038883209, -4.921360206708758e-41, 0.46639907360076904, -4.913092545769241e-41, -0.15648747980594635, -0.08471512049436569, 0.02152988873422146, -0.05505786091089249, 0.5414203405380249, 0.0780792236328125, -0.001272074761800468, 0.4051734507083893, 0.20358826220035553, -0.513066828250885, 0.4421965777873993], "conv2_weight": [0.3167904317378998, 0.3415922522544861, -0.18682652711868286, -0.05631016939878464, 0.3589458763599396, 0.09895392507314682, -0.21746166050434113, 0.38655561208724976, 0.23950891196727753, -0.2727892994880676, -0.14469808340072632, -0.04359731823205948, -0.1023639366030693, -0.08041513711214066, 0.2012021541595459, 0.0915735587477684, 0.12147220969200134, 0.20158933103084564, -2.363601228602577e-38, -1.862801680176013e-38, -1.8475942287217744e-38, -2.2755387285597803e-38, -1.551999285982626e-38, -1.254449111496205e-38, -8.008581872939727e-39, -3.605093934497635e-39, -1.3044168923967922e-39, -0.19131611287593842, -0.30378374457359314, -0.230485200881958, -0.18363742530345917, -0.312507301568985, -0.07301604002714157, -0.019773919135332108, 0.055848635733127594, 0.3292531967163086, -4.321828391472335e-38, -3.5141317275426107e-38, -3.220160329204229e-38, -4.2820435662523033e-38, -3.39928242644532e-38, -2.862845475863587e-38, -2.351348274830521e-38, -1.6435037954433436e-38, -1.0476658029588812e-38, 0.00803212821483612, -0.11346905678510666, 0.05700881406664848, -0.2301219254732132, -0.07435023784637451, -0.21373146772384644, -0.5777052044868469, -0.19371607899665833, -0.13410072028636932, -0.1367267668247223, 0.03931649401783943, 0.021914837881922722, -0.19726119935512543, -0.024738600477576256, -0.11371830105781555, -0.38022977113723755, -0.2069147527217865, -0.22551403939723969, 0.15571270883083344, 0.2892690598964691, -0.22066925466060638, -0.13903312385082245, 0.06633184105157852, 0.06578607857227325, -0.3361523747444153, -0.11725681275129318, 0.19071197509765625, -0.023463068529963493, -0.26507821679115295, -0.13876047730445862, 0.4931049942970276, 0.7760159373283386, 0.7598779797554016, -0.2554894685745239, -0.03828704357147217, 0.02827869914472103, -0.046370979398489, 0.2931390404701233, 0.3416871130466461, -0.15415702760219574, 0.06966933608055115, 0.14423716068267822, -0.030640361830592155, -0.058263473212718964, -0.02760162577033043, 0.007091278675943613, 0.06247522309422493, -0.08733891695737839, -0.1783275157213211, -0.23616433143615723, -0.09258871525526047, -0.22947122156620026, -0.17084883153438568, -0.053906381130218506, -0.008462626487016678, 0.20421023666858673, 0.04042017459869385, -0.03505292534828186, -0.07671719044446945, -0.06342371553182602, -0.22273166477680206, 0.16492904722690582, -0.16615571081638336, -0.048759959638118744, 0.2802848815917969, 0.2525179386138916, -0.21665208041667938, 0.13658154010772705, 0.16819322109222412, -0.26826396584510803, -0.12642459571361542, 0.09486254304647446, 0.08530796319246292, -0.0262055154889822, -0.22422800958156586, -0.15692578256130219, -0.47175151109695435, -0.4261701703071594, -0.2763995826244354, 0.00971967726945877, -0.13415980339050293, 0.07258941978216171, 0.14852118492126465, -0.5621905326843262, 0.4364822804927826, 0.16735340654850006, 0.17187857627868652, -0.058800071477890015, 0.5425628423690796, 0.07255898416042328, 0.09686095267534256, 0.05594807490706444, 0.4207936227321625, -0.2579224109649658, 0.29253119230270386, 0.2436680942773819, -0.19300587475299835, -0.2897011339664459, -0.029523497447371483, 0.04015512019395828, 0.28962162137031555, 0.25057467818260193, -0.0545712374150753, -0.1522037535905838, -0.16093659400939941, 0.1499679684638977, -0.13901172578334808, -0.2948979437351227, -0.006243446841835976, 0.14639966189861298, 0.033978499472141266, -0.02884431928396225, 0.14263731241226196, 0.07667076587677002, 0.01244854275137186, 0.029779914766550064, 0.06765314191579819, -1.452241128567035e-38, -1.835016594095534e-38, -1.6956822648012496e-38, -1.1648914259919738e-38, -1.3197887161608961e-38, -9.487587942305212e-39, -9.139990253035584e-39, -1.0342102548447414e-38, -9.215660370109124e-39, 0.003498606150969863, -0.06294950842857361, 0.0589628592133522, -0.11690766364336014, -0.06445043534040451, 0.06109087914228439, -0.041899070143699646, -0.07283854484558105, -0.051482465118169785, -3.8147545291717566e-38, -4.4601303841879514e-38, -4.4793693713240525e-38, -2.7730401809207094e-38, -2.9384878472275333e-38, -2.881493115047743e-38, -2.40062661688666e-38, -2.597023080816869e-38, -2.978902976496818e-38, -0.0016567814163863659, 0.23998746275901794, 0.10514674335718155, 0.1618858426809311, 0.03278697654604912, -0.1784137338399887, 0.19496475160121918, -0.013408775441348553, -0.12276241183280945, -0.0753234326839447, 0.160843163728714, 0.027049165219068527, 0.09269848465919495, 0.13619355857372284, 0.017928514629602432, 0.04054883494973183, -0.13436345756053925, -0.08841659873723984, -0.1155284121632576, -0.09183917939662933, -0.06275362521409988, -0.25519946217536926, -0.14551950991153717, -0.05766812339425087, -0.004199501592665911, -0.12525708973407745, -0.26504337787628174, -0.4448661804199219, -0.1981152892112732, -0.4387626647949219, 0.04816299304366112, 0.8278547525405884, 0.8711287379264832, -0.05136394128203392, -0.13326768577098846, -0.02103079855442047, -0.07088036090135574, -0.146282359957695, -0.10234396904706955, -0.06015666201710701, -0.15187117457389832, 0.04429953917860985, 6.234680040506646e-05, 0.061244722455739975, 0.07221950590610504, -0.18984141945838928, -0.010992736555635929, -0.11988223344087601, -0.24204058945178986, -0.04474258050322533, 0.07608868181705475, 0.004878493025898933, -0.16580578684806824, -0.1286679208278656, 0.07563187181949615, 0.30313628911972046, 0.1395159512758255, 0.04818817973136902, 0.04189431294798851, -0.11286508291959763, -0.027699582278728485, -0.19435763359069824, -0.1580469310283661, -0.012749542482197285, -0.026225009933114052, -0.30899572372436523, 0.13684849441051483, -0.058372367173433304, -0.10197404772043228, -0.22309720516204834, 0.013083629310131073, 0.07261978834867477, -0.04006652534008026, 0.02197907865047455, -0.1321166753768921, -0.2757299542427063, 0.03660807013511658, 0.0549340657889843, -0.09696441143751144, -0.002828010590746999, -0.43184927105903625, -0.01667957194149494, -0.041348688304424286, 0.01198162604123354, -0.09917137771844864, -0.08807433396577835, 0.011162073351442814, -0.025040511041879654, -0.2503138780593872, -0.19410352408885956, -0.1218845322728157, -0.26278167963027954, -0.05872825160622597, -0.050068967044353485, 0.03895018994808197, 0.28728488087654114, 0.0320313535630703, 0.02026398666203022, 0.003320991061627865, 0.0465560182929039, -0.05028417333960533, -0.30197545886039734, 0.1527508944272995, 0.23482613265514374, 0.11128272116184235, 0.09511572122573853, 0.0837312713265419, -0.07014339417219162, 0.08269130438566208, -0.06646494567394257, -0.09939313679933548, -0.08415911346673965, -0.08792773634195328, -0.05979374423623085, 0.051473576575517654, -0.009035767056047916, -0.07890260219573975, -4.817466537265251e-39, -4.855572046405636e-39, -4.97121700477097e-39, -2.7862605911525354e-39, -1.272146390061856e-39, -2.5109250610912094e-39, 2.0317734719907674e-39, 2.5715116014947572e-39, 3.5452654965632866e-39, 0.1899670660495758, 0.029008427634835243, -0.10068298131227493, 0.10713082551956177, -0.012891960330307484, 0.04687117412686348, 0.17908695340156555, 0.014846665784716606, 0.0434751994907856, -7.12036183483512e-39, -6.514558087932072e-39, -7.73084171471362e-39, -6.583078780240627e-39, -4.1018122011468526e-39, -4.608329747957094e-39, -1.4989129153496838e-40, 1.9692068968571287e-39, 4.1095473686699256e-39, 0.10823116451501846, -0.01850024051964283, 0.03882988914847374, -0.11195835471153259, 0.01945572718977928, 0.22891072928905487, -0.12524180114269257, -0.3050369322299957, 0.0657515749335289, -0.07193287461996078, -0.20842909812927246, -0.11312159895896912, -0.025860732421278954, -0.3109394609928131, -0.051655787974596024, -0.12892556190490723, -0.015802893787622452, 0.09366097301244736, -0.06638196855783463, -0.10189592093229294, -0.3797018826007843, 0.13448390364646912, 0.2580650746822357, -0.003781406907364726, 0.14743535220623016, 0.12114831805229187, -0.07937511056661606, -0.051736943423748016, 0.03495832905173302, 0.16487228870391846, 0.29483935236930847, 0.08304666727781296, 0.2583656907081604, 0.23941847681999207, 0.34998008608818054, 0.09331083297729492, -0.1128128319978714, -0.12791262567043304, -0.12339882552623749, -0.09155476093292236, -0.21869038045406342, -0.03369196504354477, 0.006464314181357622, -0.05761336162686348, -0.07614993304014206, 0.012911994941532612, -0.09520500898361206, -0.30524542927742004, 0.09663569182157516, 0.04104208946228027, -0.17024867236614227, 0.14997975528240204, 0.07458612322807312, -0.035798341035842896, 0.02639908716082573, -0.18613457679748535, -0.09111610800027847, -0.07769221812486649, -0.024852124974131584, -0.005459990352392197, -0.25478383898735046, -0.085628442466259, 0.0626983568072319, -0.09213679283857346, -0.15663503110408783, 0.05857717618346214, 0.048720598220825195, 0.31348568201065063, 0.0950249582529068, -0.12110497802495956, -0.03785812854766846, -0.058126259595155716, -0.1137116402387619, -0.23246169090270996, -0.19260692596435547, 0.16058333218097687, 0.00827493704855442, -0.04414208605885506, 0.11186108738183975, 0.31041499972343445, 0.06199067831039429, -0.10445840656757355, -0.3561165928840637, 0.10470010340213776, 0.22303806245326996, 0.2428729087114334, 0.019800683483481407, -0.19869299232959747, 0.29470959305763245, 0.06421351432800293, 0.05376235395669937, -0.06401057541370392, -0.149858295917511, 0.10983690619468689, -0.10339502990245819, -0.04802599176764488, 0.18580405414104462, -0.17078687250614166, -0.06729765981435776, 0.022716684266924858, -0.2792847752571106, -0.23441608250141144, 0.3186788856983185, 0.06850120425224304, -0.18288490176200867, 0.4950798749923706, 0.22742044925689697, 0.01771843619644642, -0.11714913696050644, -0.18130694329738617, -0.14741264283657074, 0.05784976854920387, -0.08327183872461319, 0.01231729332357645, 0.21583732962608337, 0.020663902163505554, 0.021430809050798416, -6.81535521109018e-40, 6.895229223556695e-40, -1.0927283385850994e-39, -1.2691209866773787e-39, -1.3817321338674497e-39, -1.2302013231292212e-39, -4.983663337731103e-39, -4.056596503598484e-39, -7.491579811019407e-40, -0.18232721090316772, -0.19414079189300537, -0.06412744522094727, 0.03861332684755325, -0.011826973408460617, 0.08226395398378372, 0.19905734062194824, 0.2604517638683319, 0.00959002785384655, -6.780214849500307e-39, -3.7742194487539255e-39, -4.034121077529178e-39, -3.421202938322753e-39, -2.10318364173276e-39, 1.4471349370928818e-40, -5.251672879420939e-39, -4.8322572425562e-39, -1.3170313811726442e-39, 0.42114391922950745, 0.16460636258125305, -0.10374080389738083, 0.12334001064300537, 0.05636921897530556, -0.3279678225517273, 0.31328585743904114, -0.03652528300881386, 0.048894260078668594, 0.36189740896224976, 0.0731901153922081, -0.11085444688796997, -0.08207014203071594, -0.11443217098712921, -0.2810235619544983, -0.005568341817706823, -0.15846095979213715, -0.1572580188512802, -0.08389806002378464, -0.24655666947364807, 0.0423404797911644, -0.09432152658700943, 0.09126605093479156, 0.029394712299108505, 0.059689901769161224, 0.13332337141036987, 0.1757371425628662, -0.08345448970794678, -0.3630623519420624, 0.05994025617837906, -0.0035323018673807383, -0.063226118683815, -0.45076167583465576, 0.07253756374120712, -0.40690848231315613, -0.32735905051231384, 0.03210986778140068, 0.1468021124601364, 0.01733809895813465, -0.014693995006382465, 0.1094917356967926, 0.10638831555843353, -0.35060346126556396, -0.2557373046875, -0.004463527351617813, -4.816363798454404e-05, -0.231802299618721, -0.015267189592123032, -0.09044095873832703, 0.04902338981628418, -0.0010877008317038417, 0.184833824634552, 0.14181318879127502, 0.19945155084133148, 0.07664413750171661, -0.21306517720222473, -0.4948260486125946, 0.22246748208999634, -0.08088003844022751, -0.33640557527542114, 0.28433868288993835, -0.16565723717212677, -0.1271953135728836, 0.08516813069581985, 0.059846024960279465, 0.14481571316719055, 0.012400380335748196, -0.03133931756019592, 0.022960416972637177, -0.2009497731924057, -0.15789876878261566, 0.2194264829158783, -0.30859556794166565, -0.5288294553756714, -0.09767249971628189, -0.06274131685495377, -0.019906114786863327, 0.08975961804389954, -0.05774853751063347, -0.02917180396616459, 0.21793296933174133, -0.03710716590285301, -0.27355626225471497, 0.0812411978840828, 0.1802843064069748, -0.3370990753173828, -0.27797821164131165, 0.2479485720396042, -0.3543168306350708, 0.06494620442390442, 0.2682363986968994, 0.288699746131897, 0.04578440636396408, 0.2315073162317276, -0.05673482269048691, -0.24649295210838318, 0.0546586699783802, -0.025531446561217308, -0.008879280649125576, 0.23327748477458954, 0.4866190254688263, 0.011945594102144241, -0.012172476388514042, 0.29872092604637146, -0.1862219274044037, -0.4065416753292084, -0.07955250889062881, -0.3156910240650177, -0.19474512338638306, 0.1934768557548523, 0.18500719964504242, -0.17500849068164825, -0.007961392402648926, 0.055825430899858475, -0.1809949427843094, 0.007971656508743763, 0.12536539137363434, 1.856929258701567e-39, 6.466032523410968e-39, 5.5153454023636897e-39, 3.4629994676181696e-39, 6.508641805815693e-39, 7.060415687829769e-39, -2.6169445003050964e-39, 2.6625497588265476e-39, 1.115880591812674e-39, -0.030273063108325005, -0.02993725799024105, 0.19521445035934448, -0.059560295194387436, 0.03320971503853798, 0.046414442360401154, -0.41364842653274536, -0.10959009826183319, -0.055401451885700226, -8.274115320243101e-39, -3.5070338705611127e-39, -6.2507160078751385e-40, 7.175110565836291e-40, 6.507550194311984e-39, 1.0069873697081497e-38, -2.682219785370275e-39, 3.362545985904581e-39, 1.8910382646216974e-39, 0.03879350796341896, -0.04321474954485893, 0.12367498874664307, -0.10127096623182297, 0.024848558008670807, -0.01146878581494093, 0.06024904549121857, 0.206767737865448, -0.35641419887542725, -0.16060490906238556, -0.0678296685218811, 0.15185365080833435, -0.16101107001304626, 0.03095494769513607, 0.0574006661772728, 0.08545811474323273, 0.08706294745206833, -0.21172718703746796, 0.058696627616882324, 0.22271059453487396, -0.051197752356529236, -0.04741433635354042, 0.38700059056282043, 0.023896662518382072, -0.2643596827983856, 0.012728629633784294, -0.2435503602027893, 0.012357423081994057, 0.13817796111106873, -0.036964405328035355, -0.001236113253980875, -0.09516702592372894, 0.40901845693588257, -0.3228379189968109, 0.020031655207276344, 0.0520949587225914, -0.18002013862133026, -0.14989116787910461, -0.09204466640949249, -0.15686985850334167, 0.12868399918079376, 0.2279425412416458, -0.03648462891578674, 0.08318391442298889, 0.3204437494277954, -0.034797828644514084, 0.028963109478354454, -0.10263777524232864, -0.016184667125344276, 0.08374998718500137, 0.039174314588308334, -0.14658036828041077, 0.06956884264945984, 0.002185878111049533, -0.2297423928976059, 0.1731618195772171, 0.19194720685482025, -0.07091796398162842, 0.15082138776779175, 0.018100367859005928, -0.08408438414335251, 0.05006060004234314, 0.19311203062534332, -0.2858583331108093, -0.2175847887992859, 0.10552767664194107, 0.05882597342133522, 0.12349899858236313, 0.2047591358423233, -0.0007249634363688529, -0.13944998383522034, 0.15522079169750214, -0.1403646618127823, -0.06535685807466507, -0.054601237177848816, 0.049382373690605164, 0.0913618877530098, -0.004118784796446562, -0.33540523052215576, 0.007019085809588432, -0.09772170335054398, -0.25682270526885986, -0.285133421421051, 0.1619594544172287, 0.21133358776569366, 0.021655745804309845, -0.12000633031129837, -0.07126297056674957, -0.014228745363652706, -0.16273149847984314, -0.18240661919116974, -0.3597949147224426, -0.21125338971614838, -0.10520340502262115, -0.1300133764743805, 0.2557540833950043, -0.10639339685440063, 0.2223510444164276, 0.2289142906665802, 0.3535962402820587, 0.45002424716949463, 0.08588577806949615, 0.026531212031841278, 0.1076766699552536, 0.2479083091020584, -0.0125481728464365, -0.036885373294353485, 0.11408184468746185, -0.035933323204517365, -0.1655561774969101, -0.027411041781306267, -0.15961456298828125, -0.20156773924827576, -0.15291376411914825, -0.28924787044525146, 0.25119727849960327, 0.17765741050243378, -4.781732025126504e-39, -5.1436790106708184e-39, -1.4416334393219426e-39, -4.7417852098039966e-39, -4.695454078678025e-39, -4.62881252761013e-39, -9.716085071196481e-40, -1.8365782011041777e-39, -1.9142227477139515e-39, 0.19784465432167053, 0.1159808337688446, 0.14435742795467377, 0.04364914819598198, 0.1279996633529663, 0.16046403348445892, 0.2552624046802521, 0.2425084114074707, 0.23382678627967834, 2.3954244364677007e-39, 3.680427739939737e-39, 5.851728500023326e-39, -2.970385604170959e-39, -2.7957389739652285e-39, -4.556249089231998e-39, 2.1497137572406656e-39, 1.7576500651010824e-39, -3.634155463349267e-40, -0.05731260031461716, 0.298452228307724, 0.048601362854242325, 0.20433413982391357, 0.245694100856781, 0.151535302400589, 0.044674843549728394, -0.2054680436849594, -0.36897608637809753, 0.017281271517276764, -0.07426609098911285, -0.07281268388032913, 0.15682539343833923, 0.14276263117790222, -0.0858571007847786, -0.11172843724489212, -0.30082204937934875, -0.2630678713321686, 0.19410963356494904, 0.15218350291252136, -0.15932980179786682, -0.21771176159381866, -0.09175511449575424, 0.14629176259040833, -0.15525707602500916, -0.0917792022228241, -0.015041420236229897, -0.22099557518959045, -0.17615067958831787, -0.038785647600889206, -0.07429741322994232, -0.11935409903526306, -0.12689857184886932, -0.6293767094612122, -0.22446110844612122, -0.13779212534427643, -0.08661425113677979, -0.121482253074646, -0.21395263075828552, -0.25818610191345215, -0.12980687618255615, -0.3913998603820801, -0.11804591119289398, -0.28275352716445923, -0.3362922966480255, 0.19534547626972198, 0.08278923481702805, -0.06489625573158264, 0.03905649855732918, -0.012688989751040936, -0.001670223195105791, -0.10430131107568741, 0.07478098571300507, -0.032992344349622726, 0.0364566370844841, -0.029161177575588226, 0.007309258915483952, -0.03529958799481392, -0.17759980261325836, 0.03159366548061371, -0.12252623587846756, -0.06017123535275459, -0.03436368331313133, -0.17369820177555084, -0.033463068306446075, -0.10300735384225845, -0.2456536889076233, -0.2934585213661194, -0.09357558190822601, -0.28730568289756775, -0.2395956814289093, -0.10629215836524963, 0.13210664689540863, -0.1384555697441101, -0.2986767590045929, -0.18777380883693695, 6.448241765610874e-05, 0.26718592643737793, -0.08968868106603622, -0.10605980455875397, -0.013064054772257805, 0.12478062510490417, -0.1810138076543808, -0.04845808446407318, -0.04802499711513519, -0.3340621888637543, 0.2965840697288513, -0.03338877484202385, -0.22414149343967438, 0.3452170193195343, 0.1419975608587265, -0.10317283868789673, -0.17303845286369324, -0.18784892559051514, -0.1529112160205841, -0.29120489954948425, -0.08507247269153595, -0.13347317278385162, -0.30185067653656006, -4.93957708674498e-41, -4.946303319373739e-41, -4.945322410448712e-41, -4.921360206708758e-41, -4.923882543944542e-41, -4.933971892887681e-41, -4.917436571008648e-41, -4.946023059680874e-41, -4.943220462752225e-41, -4.924022673790975e-41, -4.916175402390756e-41, -4.921220076862325e-41, -4.932850854116221e-41, -4.94462176121655e-41, -4.948825656609524e-41, -4.916455662083621e-41, -4.924022673790975e-41, -4.910149818994159e-41, -4.963399160638502e-41, -6.257778552135336e-41, -5.132395755436075e-41, 5.178778734605226e-41, 5.193772628173502e-41, 5.122306406492936e-41, 5.284716898508183e-41, -5.403967397822225e-41, -5.080127322716759e-41, -4.905945923601185e-41, -4.941538904595035e-41, -4.921640466401623e-41, -4.922761505173082e-41, -4.927666049798219e-41, -4.942800073212927e-41, -4.927105530412489e-41, -4.926685140873192e-41, -4.917016181469351e-41, 4.944481631370117e-41, -4.965641238181422e-41, 4.932010075037626e-41, 5.488886084760308e-41, 4.952749292309633e-41, 5.409012072293794e-41, 5.508364133414423e-41, 4.913092545769241e-41, -5.217734831913456e-41, -4.947003968605902e-41, -4.933691633194816e-41, -4.941538904595035e-41, -4.910430078687024e-41, -4.947144098452334e-41, -4.92037929778373e-41, 4.919958908244433e-41, -5.862332125502872e-41, -4.93957708674498e-41, -4.920239167937298e-41, -4.917156311315783e-41, -4.915054363619296e-41, -4.92262137532665e-41, -4.945882929834442e-41, -4.934112022734113e-41, 4.932990983962654e-41, -4.927525919951787e-41, -4.918557609780108e-41, -4.921079947015893e-41, -4.931869945191194e-41, -5.641067097985984e-41, -4.929627867648274e-41, -4.925283842408867e-41, -6.252033228431604e-41, -5.958321070309122e-41, -6.096208839198684e-41, 4.919398388858703e-41, -4.934672542119843e-41, -4.945182280602279e-41, -4.908188001144104e-41, -4.944481631370117e-41, -4.934392282426978e-41, -4.940417865823575e-41, -4.907487351911942e-41, -4.938315918127088e-41, -4.939717216591413e-41, 4.927946309491084e-41, -4.938175788280655e-41, -4.918417479933675e-41, -4.9254239722553e-41, -4.917296441162216e-41, -4.924723323023137e-41, -4.945602670141577e-41, -4.938315918127088e-41, -4.922481245480217e-41, -4.906506442986914e-41, -4.929627867648274e-41, 4.910430078687024e-41, -4.921360206708758e-41, -4.932290334730491e-41, -6.191076745233474e-41, 4.922200985787352e-41, 4.948265137223794e-41, 4.905385404215455e-41, -4.909028780222699e-41, -4.945182280602279e-41, -4.942519813520062e-41, -4.917156311315783e-41, -4.911691247304916e-41, -4.910149818994159e-41, -4.914213584540701e-41, -4.921920726094487e-41, -4.92262137532665e-41, -4.924583193176705e-41, -6.134043897735454e-41, -5.988729246984971e-41, 4.947424358145199e-41, -4.936213970430601e-41, -4.933831763041248e-41, -4.93845604797352e-41, 4.928366699030382e-41, 4.911130727919186e-41, 4.936213970430601e-41, -4.923602284251677e-41, -5.303494297930135e-41, 4.913653065154971e-41, -4.946443449220172e-41, -4.914213584540701e-41, -4.943640852291522e-41, -4.909589299608429e-41, -4.927806179644652e-41, -4.906926832526212e-41, -4.936354100277033e-41, -4.947984877530929e-41, -4.945742799988009e-41, -4.909729429454862e-41, -4.915755012851458e-41, -4.948265137223794e-41, -4.906646572833347e-41, -4.935233061505573e-41, -4.936354100277033e-41, -4.945182280602279e-41, -4.921220076862325e-41, -4.907347222065509e-41, -4.928366699030382e-41, -4.943080332905792e-41, -4.919118129165838e-41, -4.940838255362873e-41, -4.923322024558812e-41, -0.26996925473213196, 0.1330069750547409, -0.05872591957449913, -0.18377017974853516, 0.10278444737195969, -0.07746844738721848, -0.14905981719493866, 0.08817900717258453, 0.054337069392204285, -0.01999230682849884, -0.10670741647481918, -0.09986698627471924, -0.1053442433476448, -0.09001152962446213, 0.019916797056794167, -0.1778632402420044, -0.09454510360956192, -0.07301102578639984, -3.986722156973391e-40, -3.781146067063083e-39, -5.7301013985137895e-39, 1.4041206794319673e-39, -4.525968430716403e-39, -8.064319920656711e-39, 1.1444782908726149e-39, -3.8942770959834186e-39, -7.700355065323769e-39, -0.10085713118314743, 0.0029831023421138525, 0.056959547102451324, 0.04242348298430443, 0.04781622812151909, 0.01472671702504158, 0.013314398005604744, 0.03773252293467522, 0.132833331823349, -5.98973678058082e-39, -1.0658391026128633e-38, -1.6112461850542792e-38, -4.5655453032443287e-39, -1.196377481446581e-38, -1.819678401494574e-38, -3.2100230558536104e-39, -1.1348838805470757e-38, -1.8698827215759392e-38, -0.1147916167974472, 0.09665283560752869, -0.10950349271297455, -0.18344132602214813, 0.0548388734459877, -0.011748027056455612, -0.11558522284030914, -0.026676513254642487, -0.026133893057703972, 0.10927566140890121, -0.1494332104921341, -0.03964264318346977, -0.07042784243822098, 0.021908972412347794, 0.10881835967302322, -0.018626632168889046, -0.12051451951265335, -0.07758262008428574, -0.07283320277929306, 0.2518627941608429, 0.03678258880972862, 0.014098204672336578, 0.11650273203849792, -0.04254402220249176, -0.02330153062939644, 0.052744098007678986, 0.03069799393415451, 0.1432362049818039, -0.15001598000526428, -0.19891983270645142, -0.22415848076343536, 0.002709405729547143, 0.32465070486068726, -0.257318913936615, -0.23778598010540009, -0.08589781075716019, 0.2720913290977478, 0.1789480745792389, 0.20609711110591888, 0.1983138918876648, 0.12816442549228668, 0.1610824167728424, 0.1616731584072113, 0.1107245683670044, 0.05611201375722885, -0.22544430196285248, -0.11253830790519714, -0.027516761794686317, -0.10094659775495529, -0.10206837952136993, -0.0881001278758049, -0.08447351306676865, -0.12179446220397949, -0.006917539983987808, 0.028316089883446693, -0.021364659070968628, 0.017460325732827187, -0.0979185700416565, 0.032073430716991425, 0.10144443809986115, -0.10258832573890686, 0.030790334567427635, 0.04790767282247543, 0.27077949047088623, 0.18274502456188202, 0.1865098625421524, 0.14908204972743988, 0.16076385974884033, 0.13134312629699707, 0.22862352430820465, 0.21968890726566315, 0.08753042668104172, 0.03249870613217354, 0.10580950230360031, 0.10152792185544968, -0.04481895640492439, 0.049536317586898804, -0.09934213012456894, -0.12441378086805344, -0.038431473076343536, 0.05588257685303688, -0.07761146873235703, -0.2529463768005371, -0.15311340987682343, -0.43870648741722107, -0.10491882264614105, -0.27732017636299133, -0.31394046545028687, -0.23716631531715393, -0.14646519720554352, 0.03127831220626831, 0.17120079696178436, 0.1730048656463623, 0.10880438983440399, 0.01674443669617176, 0.15233400464057922, 0.09548989683389664, 0.04119784012436867, 0.06360462307929993, -0.13521553575992584, -0.1975201815366745, -0.143218994140625, 0.0540771484375, -0.10306993126869202, -0.4264269769191742, 0.28728577494621277, -0.023689478635787964, -0.44002318382263184, -0.11937479674816132, -0.16274051368236542, -0.1222345381975174, -0.15335550904273987, -0.17036721110343933, -0.06514755636453629, -0.16657434403896332, -0.28499341011047363, -0.1837458610534668, -2.803645099900949e-39, 1.3153974671632415e-39, 4.405233956328641e-39, -1.3857636695493121e-39, -6.918672946864849e-40, 4.5743888978526826e-39, 1.8087596239904014e-39, 1.9760438320645694e-39, 7.072007228726664e-39, -0.19710904359817505, -0.1606116145849228, -0.15762415528297424, -0.18256358802318573, -0.21565666794776917, -0.11097217351198196, -0.08212588727474213, -0.1408586949110031, -0.2219657450914383, 9.011750424072899e-41, 3.943248273416178e-39, 8.72075117977735e-39, 1.3143661114934984e-39, 3.2971950307223286e-39, 7.56425675457315e-39, 2.3737491518215244e-39, 3.757691133367214e-39, 8.724023211691548e-39, 0.0649692714214325, -0.001030394691042602, 0.14301200211048126, 0.1850137710571289, 0.08427684009075165, -0.27434590458869934, 0.3414175510406494, 0.07709077000617981, -0.1780395209789276, 0.07135406136512756, 0.08741917461156845, 0.2600805461406708, 0.1010788232088089, 0.04432343691587448, -0.03864454850554466, 0.14877301454544067, -0.06831685453653336, -0.04077199846506119, -0.1520119458436966, -0.05727685987949371, -0.03644762188196182, 0.08986291289329529, 0.10835667699575424, -0.044178202748298645, 0.26727408170700073, 0.2924366891384125, -0.06645777821540833, -0.08845560997724533, 0.019713900983333588, 0.26727530360221863, -0.22232286632061005, 0.11408006399869919, 0.08063726127147675, -0.3203538954257965, -0.32015836238861084, 0.010043040849268436, 0.06196017935872078, 0.07939048111438751, 0.0010036863386631012, 0.1179717630147934, 0.1803402453660965, 0.07543468475341797, 0.0037920086178928614, 0.26438644528388977, 0.25920218229293823, -0.1499267965555191, -0.005900339223444462, 0.1309622973203659, -0.08928508311510086, -0.10470370948314667, -0.021886171773076057, 0.0013688297476619482, 0.1563950777053833, -0.05931532755494118, -0.02922656200826168, -0.02247265726327896, 0.14424383640289307, -0.04410471394658089, -0.2434932440519333, -0.022644823417067528, 0.13678769767284393, -0.28911447525024414, -0.19018685817718506, 0.17593425512313843, 0.0005817387718707323, 0.04139067232608795, 0.06384086608886719, -0.08074572682380676, 0.017953835427761078, 0.27195557951927185, 0.3516096770763397, 0.16327014565467834, -0.19777199625968933, -0.06212828680872917, 0.2236301600933075, -0.18366405367851257, -0.02947612665593624, 0.09162767231464386, -0.005813958123326302, 0.14875014126300812, 0.01854204759001732, -0.08914661407470703, -0.08062993735074997, 0.23290425539016724, -0.10787060856819153, -0.16974090039730072, 0.20321571826934814, 0.18000489473342896, -0.29574358463287354, 0.04252079874277115, -0.08327681571245193, 0.19906851649284363, -0.00820543710142374, 0.12589235603809357, 0.1775355190038681, -0.08124189078807831, -0.011869482696056366, 0.6329729557037354, 0.1924431324005127, -0.025896480306982994, -0.3845300078392029, -0.45451870560646057, 0.5744652152061462, 0.0568963997066021, -0.3930519223213196, 0.4405096471309662, 0.28622767329216003, 0.07143236696720123, -0.06965801864862442, -0.036202289164066315, 0.011971045285463333, 0.0012776452349498868, -0.13212816417217255, 0.06964121758937836, 0.31524837017059326, -0.28643983602523804, -0.05403466150164604, -2.549111845542525e-39, -9.591565689656578e-40, -9.663452300876441e-40, -3.6181133985296766e-39, -3.1887163127035515e-39, -2.9299553408782595e-39, -2.6490496494212423e-39, -4.1079372767344164e-39, -3.571703794689703e-39, 0.07793930172920227, -0.07021788507699966, -0.18539726734161377, 0.1399223953485489, 0.06329023838043213, -0.09198430180549622, 0.216675266623497, 0.14767538011074066, 0.06013401597738266, -2.6640855819434476e-39, 2.495712564962499e-41, 1.5466845812969812e-39, -5.066744922382457e-39, -3.432462371483603e-39, -2.1491700534365076e-39, -3.819324443723613e-39, -5.1249394463074027e-39, -4.4874509398275066e-39, 0.029257332906126976, -0.10048817098140717, -0.27094557881355286, 0.40511128306388855, 0.1586557924747467, -0.22676141560077667, -0.10061033815145493, -0.0833682268857956, -0.1936432421207428, 0.14706547558307648, -0.07242857664823532, -0.08334773778915405, -0.0145102022215724, -0.11753059178590775, -0.11535832285881042, -0.2147538810968399, 0.03375106677412987, -0.2714155614376068, 0.04244976490736008, -0.16428816318511963, -0.22306087613105774, 0.19275298714637756, -0.10908714681863785, -0.5319499373435974, 0.14387856423854828, 0.119139663875103, 0.15437276661396027, 0.11948340386152267, -2.344973836443387e-05, 0.1701117753982544, -0.26672524213790894, -0.196017786860466, 0.005308316554874182, 0.3388475477695465, 0.14818930625915527, 0.04297275096178055, 0.053282659500837326, 0.07455569505691528, 0.03968239575624466, -0.2595938742160797, 0.03052651137113571, 0.11142326891422272, -0.19963660836219788, -0.014704861678183079, 0.01988869346678257, 0.2264353334903717, 0.10264748334884644, -0.2352534979581833, 0.19046418368816376, -0.03677337244153023, -0.26583659648895264, 0.13522426784038544, 0.12170213460922241, 0.16539566218852997, 0.03313552960753441, -0.2331886887550354, -0.1613871306180954, 0.32201194763183594, -0.0030829927418380976, 0.03130951523780823, 0.13215571641921997, -0.08807460218667984, -0.16536706686019897, -0.014842461794614792, 0.21531477570533752, 0.0759173333644867, -0.14044152200222015, -0.2310114949941635, -0.07833817601203918, -0.10841161012649536, 0.13203082978725433, -0.020445508882403374, -0.07694358378648758, -0.2939581871032715, -0.2798287272453308, -0.1216280460357666, -0.17231710255146027, -0.17987215518951416, 0.04140136018395424, 0.09181316941976547, -0.025032514706254005, 0.19521628320217133, -0.2704157829284668, -0.13130490481853485, 0.02697581797838211, -0.43337738513946533, -0.3119891881942749, 0.3270072638988495, 0.12823504209518433, -0.18029636144638062, 0.3191453516483307, 0.27414029836654663, -0.06772483885288239, 0.05450677499175072, 0.053751979023218155, -0.20796309411525726, -0.04723033681511879, 0.16583941876888275, 0.35051849484443665, 0.20288518071174622, -0.13484424352645874, 0.1889578253030777, 0.2214743047952652, -0.21159660816192627, 0.004568525590002537, -0.012360146269202232, -0.199666365981102, 0.08008687943220139, -0.15720345079898834, 0.013791628181934357, -0.1114133968949318, 0.03834342584013939, 0.025744209066033363, 0.08724148571491241, -0.04682747647166252, 0.12529060244560242, 0.05096741020679474, 2.233004135363204e-39, 4.4537441065666374e-39, 1.579652930267151e-39, -6.04901170562176e-39, -3.505586329247465e-39, -3.733546760826898e-39, 9.348804743696947e-40, 1.1408223031791914e-39, 1.0010525904520412e-39, -0.1819889396429062, -0.15067347884178162, 0.026089539751410484, -0.12548428773880005, 0.16173642873764038, 0.1744692027568817, 0.14883258938789368, 0.22028273344039917, 0.28133121132850647, 1.2326720925815187e-38, 9.869751460794341e-39, 4.219917839615541e-39, -7.12334940316106e-39, -6.149198940627127e-39, -8.694094279090499e-39, -1.0860777760734138e-39, -4.155728560860214e-39, -6.773341480532794e-39, 0.2866007685661316, 0.23406030237674713, 0.15138569474220276, 0.4527140259742737, -0.13552692532539368, -0.17954787611961365, -0.035513196140527725, -0.2676626443862915, -0.017438286915421486, 0.16600574553012848, 0.26746755838394165, 0.16183722019195557, 0.21861891448497772, -0.09563327580690384, -0.44558340311050415, -0.43850353360176086, -0.40715306997299194, -0.18675227463245392, 0.17000281810760498, -0.2556082010269165, -0.001230953261256218, -0.07536330074071884, -0.2830314040184021, -0.13803260028362274, -0.018784713000059128, -0.3581177592277527, -0.07116436213254929, 0.12950173020362854, 0.41205891966819763, 0.5129401087760925, 0.5146067142486572, 0.45894142985343933, 0.12300144881010056, -0.06562547385692596, -0.4064266085624695, -0.28356224298477173, 0.23618225753307343, 0.13281044363975525, -0.018751971423625946, 0.07453843206167221, -0.13573285937309265, -0.25047242641448975, 0.005308524705469608, -0.10700743645429611, -0.14358602464199066, 0.08616366237401962, 0.031269632279872894, 0.0007924712845124304, 0.08873344957828522, -0.035006485879421234, 0.11960505694150925, 0.010533604770898819, -0.2414683848619461, -0.07694274187088013, 0.1774773895740509, 0.291942834854126, 0.1251940131187439, 0.15147002041339874, -0.09399139881134033, -0.1431671530008316, -0.2819055914878845, -0.020396094769239426, 0.06823016703128815, 0.4220903813838959, 0.3533279597759247, -0.1031385064125061, 0.0193485040217638, -0.264181524515152, -0.1974552869796753, -0.11751897633075714, -0.14079464972019196, -0.18037132918834686, -0.0021699941717088223, -0.19609756767749786, 0.03915166109800339, 0.013815002515912056, -0.08362294733524323, 0.05130373686552048, 0.05763867869973183, -0.2428901642560959, -0.152577206492424, -0.021861758083105087, 0.05028081685304642, 0.1259392946958542, -0.0981798842549324, -0.3013104796409607, -0.37418660521507263, 0.12682771682739258, 0.02075570449233055, 0.12677015364170074, 0.26764827966690063, 0.16014337539672852, -0.17173534631729126, -0.005902653094381094, -0.17198778688907623, -0.2510818839073181, 0.08533567935228348, -0.2006872594356537, -0.14382120966911316, -5.3253685669582456e-39, -5.763921736950269e-39, -4.733814624138917e-39, -5.8164788371532356e-39, -6.291255572448055e-39, -4.406113971764237e-39, -5.784792676277923e-39, -5.571306256536501e-39, -3.547672927324997e-39, -6.477796424018975e-40, -8.52624254513828e-40, -9.870073759441136e-40, -1.1045286729531787e-39, -1.0904764519529294e-39, -9.078396179036187e-40, -1.0907048636026143e-39, -1.0994994127647169e-39, -1.74666528643924e-39, -5.148230428082945e-41, 5.76676357023592e-41, -5.084751607649031e-41, -5.173734060133657e-41, -5.576327108934177e-41, -5.852102646713301e-41, -5.255429760603794e-41, 5.009361750268356e-41, 5.561753604905199e-41, -8.03417658939062e-40, -7.013807099607861e-40, -4.673918923878281e-40, -1.0115399081590481e-39, -9.842580283571083e-40, -5.910887117291727e-40, -1.2479795967461102e-39, -1.2268017730547692e-39, -1.0604984739056286e-39, 5.38000519408227e-41, 6.085699100716248e-41, -4.924723323023137e-41, 5.071859661777243e-41, -4.912532026383511e-41, -5.107873032310391e-41, -5.884612771085637e-41, 5.996716648231622e-41, -5.362208703585345e-41, -8.039149797640508e-39, -1.186007732680731e-38, -1.3429474153614067e-38, -5.426458238174638e-39, -1.0100007219258337e-38, -1.1917704324854203e-38, -5.268405784383442e-39, -8.47534037842168e-39, -7.424821952178973e-39, -7.940176087105247e-39, -1.1316337088889207e-38, -1.536003744272051e-38, -5.95668715629972e-39, -8.714512599014176e-39, -1.184528662151636e-38, -5.4815180574348886e-39, -7.566393734731245e-39, -8.131671930046019e-39, -2.850784780240836e-39, -2.9565043415833575e-39, -1.0339074342466009e-39, -3.0139169409652095e-39, -3.836313786305087e-39, -1.0497435081919356e-39, -3.728025644877458e-39, -4.9683583559037476e-39, -1.8245284356094486e-39, -1.756849923677953e-39, -2.3254828275163204e-39, -7.334931458289465e-39, -6.857101293640881e-39, -9.306653685890056e-39, -1.4375850880585082e-38, -1.0021502275391468e-38, -9.183324006746365e-39, -2.526410249901077e-38, -1.819970011705e-39, -2.7195055349090298e-39, -2.544599664487399e-39, -1.5359226090909666e-39, -2.565289836313155e-39, -2.636618730744217e-39, -1.3055855753160391e-39, -2.3463677798286175e-39, -2.4593909087672e-39, -9.643792083421964e-40, -9.068629128739843e-40, -1.0903657493742477e-39, -1.5046764559334518e-39, -2.0349740376832853e-39, -1.6106692704765166e-39, -1.8320772304367664e-39, -2.7917915161912255e-39, -1.5833439504221827e-39, -6.147506172082223e-39, -6.415992155249929e-39, -8.374288542263825e-39, -5.498095418267851e-39, -5.1756860688944616e-39, -6.154913435764644e-39, -4.8441808911891396e-39, -4.574192716067677e-39, -4.9777975023594396e-39, -1.2378776361167926e-39, -2.7713353612090118e-39, -2.2105427222785416e-39, -8.167033696793256e-40, -1.7773649331956682e-39, -1.7582554260376707e-39, -1.41358925315541e-39, -2.1390050343762954e-39, -2.176936782507104e-39, -1.1154027490363392e-39, -1.0487121525221925e-39, -9.450440921314426e-40, -9.885600146425855e-41, -1.896628044195889e-39, -1.7531196671659202e-39, -7.316487567902021e-40, -2.029937771002502e-39, -1.7041218650623387e-39, -1.009810285464532e-38, -1.782005052800587e-38, -2.787715979737583e-38, -1.3146327785912594e-38, -1.5394271164203965e-38, -1.8769135964908425e-38, -1.430272972541815e-38, -1.1289900192061255e-38, -1.1702627431355772e-38, -2.444231661980134e-39, -2.7201809607688344e-39, -2.5518780087111022e-39, -2.0855062616053025e-39, -2.8708681898315392e-39, -3.4831977836829475e-39, -1.4026535199398192e-39, -2.741814206461081e-39, -2.9778979652382044e-39, -0.0027338522486388683, -0.0523986741900444, -0.2008184939622879, 0.07005862146615982, 0.07164108008146286, 0.0006107273511588573, 0.1272253394126892, -0.0056570060551166534, -0.04543691501021385, 0.05975368991494179, -0.09682609885931015, -0.05378164350986481, 0.06727728992700577, -0.14241176843643188, -0.09065908938646317, -0.0032369911205023527, -0.06121791526675224, 0.014076647348701954, 2.0014451693273854e-39, 2.2668889335290425e-39, 2.3174239600479884e-39, 8.400770280642635e-40, 7.971846833697452e-41, 5.981862884509779e-41, 1.2275192378685035e-39, 2.646912669263147e-41, -6.052208067418885e-42, 0.1236409917473793, 0.06428372114896774, 0.007597943302243948, 0.11969484388828278, 0.06486409157514572, 0.01077964436262846, 0.13350440561771393, 0.07260297983884811, 0.028375789523124695, 4.443686987488178e-39, 4.3142812782031744e-39, 4.255723817975969e-39, 2.5355935192571835e-39, 2.093881822526572e-39, 2.07901544711855e-39, 3.698201809661233e-39, 1.1896505481685897e-39, 8.942217994273101e-40, 0.1569783091545105, -0.2833561301231384, -0.030727045610547066, -0.12543828785419464, -0.04411345347762108, 0.10309040546417236, -0.0987427607178688, -0.12950487434864044, -0.08923973888158798, -0.20932598412036896, -0.2762657403945923, -0.20603197813034058, -0.223302960395813, -0.20844410359859467, -0.11980752646923065, -0.1048143059015274, -0.14379465579986572, -0.017343640327453613, 0.12542624771595, -0.04337535798549652, -0.18056441843509674, 0.3211096227169037, 0.4227045178413391, 0.270233154296875, 0.23338904976844788, 0.1192997395992279, 0.09224623441696167, -0.005518365651369095, 0.40117117762565613, -0.032493025064468384, 0.06632132083177567, 0.09014877676963806, 0.07311425358057022, 0.067580945789814, 0.11335507780313492, 0.10550663620233536, -0.12053780257701874, -0.19978351891040802, -0.1303776353597641, 0.1452932059764862, 0.00029118385282345116, 0.013216582126915455, 0.09671353548765182, -0.06634299457073212, -0.0029332067351788282, 0.16207149624824524, -0.036545850336551666, -0.05257461965084076, 0.1188918873667717, 0.1277664750814438, -0.004805111326277256, 0.2124706506729126, 0.20441365242004395, 0.05641859769821167, -0.05101507157087326, -0.24895302951335907, -0.10344653576612473, -0.07385002076625824, -0.28182971477508545, -0.035275522619485855, 0.03708364814519882, -0.12765076756477356, 0.06397520750761032, -0.13543306291103363, -0.2408609241247177, -0.016495024785399437, 0.06410779058933258, -0.01932554878294468, 0.1581677347421646, 0.030149143189191818, 0.0224780160933733, -0.006464256905019283, 0.15934975445270538, 0.10244645923376083, 0.053339242935180664, 0.5065280795097351, 0.43630772829055786, 0.4885810613632202, 0.4026153087615967, 0.4211706221103668, 0.4529593586921692, -0.08887916058301926, -0.14070859551429749, -0.1873539537191391, -0.10761953145265579, 0.0767834410071373, 0.19273224472999573, -0.014484237879514694, 0.22169455885887146, 0.1374877393245697, 0.014079956337809563, -0.04230913892388344, -0.14476267993450165, 0.09714458137750626, 0.015560233034193516, -0.07794856280088425, 0.22204457223415375, 0.15532489120960236, -0.050146784633398056, -0.06441444158554077, 0.19203919172286987, -0.017737148329615593, 0.08778245747089386, -0.12157103419303894, -0.10412298887968063, 0.2618490755558014, 0.015540073625743389, 0.004876412451267242, 0.09492040425539017, 0.20997340977191925, -0.1273987889289856, -0.14427857100963593, -0.08423545956611633, -0.09419267624616623, 0.08604877442121506, -0.22320660948753357, -0.08822541683912277, -5.348139667003524e-40, -1.6890565052723826e-39, -5.456656220080838e-41, -4.516317688192598e-39, -5.180760170633782e-39, -2.1690348604667762e-39, -2.3393949186701372e-39, -3.115571335462725e-39, -1.9197368571710696e-39, 0.043667349964380264, -0.13926248252391815, -0.02964974194765091, 0.12316318601369858, 0.09804051369428635, -0.12013392895460129, 0.09500429034233093, 0.014916046522557735, -0.020102906972169876, -2.386465935385272e-39, -3.237079326602794e-39, -9.70253451504646e-40, -7.964923017985223e-39, -8.486927715423182e-39, -6.142053719757535e-39, -7.90336257514897e-39, -9.482529254849e-39, -7.153117186438713e-39, 0.16793306171894073, 0.4350152611732483, 0.23064684867858887, -0.24578790366649628, -0.296027272939682, 0.02577122487127781, 0.30598530173301697, 0.0618121400475502, -0.06590469181537628, 0.35763365030288696, 0.2635306119918823, 0.24822048842906952, -0.18588796257972717, -0.2645186483860016, -0.1725417971611023, 0.04508853331208229, -0.09624062478542328, -0.18637558817863464, -0.2932669520378113, -0.3113478422164917, -0.546380877494812, 0.1230369433760643, 0.12099872529506683, -0.08692622929811478, 0.36398905515670776, 0.1631576269865036, 0.1526266634464264, 0.3757477104663849, 0.336703896522522, -0.18935739994049072, 0.07017678022384644, 0.4166620075702667, 0.22564472258090973, -0.18501892685890198, 0.04650334268808365, -0.08020170778036118, -0.22803260385990143, -0.0265243761241436, -0.12340144068002701, -0.0874476283788681, -0.04166002199053764, 0.12241637706756592, 0.025427481159567833, 0.041856348514556885, 0.08403297513723373, 0.02038337104022503, -0.28632476925849915, -0.540217936038971, -0.04996279627084732, 0.1886797696352005, -0.05569412186741829, 0.39674854278564453, 0.07326485216617584, 0.18054842948913574, 0.16630735993385315, 0.2508876621723175, 0.03427257761359215, -0.1701635867357254, -0.07299976795911789, -0.10534517467021942, -0.1426456719636917, -0.2641489505767822, -0.11885647475719452, -0.1282125562429428, -0.3010661005973816, 0.05411120504140854, -0.2991815209388733, -0.1278856247663498, -0.0551757849752903, 0.1539808213710785, 0.14150947332382202, 0.18668954074382782, -0.3021624684333801, -0.38296040892601013, -0.43822529911994934, -0.03158540278673172, 0.15715964138507843, -0.04643473029136658, 0.1433926820755005, 0.13129115104675293, 0.09803371876478195, 0.05552821233868599, -0.4984358251094818, 0.23110651969909668, -0.1539161503314972, 0.013420043513178825, -0.20942668616771698, -0.046259455382823944, 0.25093966722488403, -0.28504034876823425, -0.16069836914539337, -0.3221512734889984, -0.42318007349967957, 0.006038319319486618, -0.10362063348293304, 0.17002461850643158, 0.0027355903293937445, -0.010478123091161251, 0.09401500970125198, 0.08828289061784744, 0.2582518756389618, 0.14294226467609406, 0.07108969241380692, 0.06358315795660019, -0.04078882560133934, -0.11533982306718826, 0.26831430196762085, 0.25334492325782776, 0.012254811823368073, -0.0953788161277771, -0.03428637608885765, -0.08191051334142685, -0.1511213481426239, 0.037202563136816025, -0.07156244665384293, -0.11613813787698746, -0.14702783524990082, -4.4740461187177754e-39, -5.898330081752912e-39, -4.2131888043898534e-39, -3.7448482329416774e-39, -4.52269499750374e-39, -6.276939907336513e-39, -5.0895972977386664e-39, -4.000583801382492e-39, -7.123940751113006e-39, -0.09409765899181366, -0.08913114666938782, -0.03446904197335243, -0.023778095841407776, -0.14008374512195587, -0.20816923677921295, -0.2507306635379791, -0.25342485308647156, -0.08870591968297958, -1.292629590104431e-38, -1.3803576002037934e-38, -1.3428686623877116e-38, -7.700297612086731e-39, -9.171914634649832e-39, -1.3398868393854748e-38, -9.3916760689145e-39, -9.870452110026503e-39, -1.602043858039058e-38, -0.017917703837156296, -0.05310335010290146, 0.023990048095583916, -0.06048762798309326, -0.3703894019126892, -0.1568942368030548, 0.11276546120643616, 0.13519516587257385, 0.10551699250936508, 0.009282533079385757, -0.13882091641426086, -0.026257475838065147, -0.14329063892364502, -0.21738006174564362, -0.0502355694770813, 0.11217871308326721, -0.1910349428653717, -0.03917684033513069, 0.09559749811887741, 0.01161342766135931, 0.08570472151041031, 0.2534131109714508, 0.15625622868537903, 0.022163866087794304, -0.17710599303245544, 0.2487071305513382, 0.14482459425926208, 0.45435112714767456, -0.13188520073890686, -0.5934088230133057, -0.043561313301324844, 0.11508563160896301, 0.263380229473114, -0.04896196722984314, -0.05914793536067009, -0.10562195628881454, 0.11043952405452728, -0.03087266907095909, 0.11157318204641342, 0.17220348119735718, 0.04289407283067703, 0.07109101861715317, 0.048701558262109756, 0.04529879242181778, 0.02172636240720749, -0.14625908434391022, -0.3682910203933716, -0.24271582067012787, -0.03955164924263954, -0.20099779963493347, -0.2030404806137085, -0.21859893202781677, -0.14573079347610474, -0.13938690721988678, -0.03678710013628006, -0.07683257013559341, 0.08047594130039215, -0.118092842400074, -0.3227970600128174, 0.033772680908441544, 0.030742047354578972, -0.06068716570734978, 0.09804444015026093, 0.004436671733856201, -0.001102728070691228, 0.2843550145626068, 0.028724858537316322, -0.10480760782957077, 0.07338225096464157, 0.15327399969100952, 0.5282263159751892, 0.25855210423469543, -0.2786765396595001, -0.055845655500888824, -0.2872963845729828, -0.11977389454841614, 0.064300037920475, -0.3710087537765503, -0.4055301249027252, 0.02758605405688286, -0.08135423809289932, -0.13142722845077515, -0.024298395961523056, 0.0940730944275856, -0.19986005127429962, 0.09384971857070923, 0.11190888285636902, -0.08131806552410126, 0.11124873906373978, 0.277265727519989, -0.051216792315244675, -0.016435351222753525, -0.11586242914199829, 0.25858813524246216, 0.07727055996656418, -0.049526724964380264, 0.1149774119257927, 0.09547227621078491, -0.16596581041812897, 0.2151915729045868, 0.40873295068740845, 0.3916964828968048, -0.11299005895853043, -0.02053159289062023, -0.30201032757759094, -0.20944815874099731, -0.04104096069931984, -0.23278777301311493, 0.028018947690725327, 0.014101536944508553, -0.001897385693155229, -0.04092031344771385, -0.11118953675031662, 0.06477563083171844, -0.07319863140583038, -0.20420776307582855, -0.11241964995861053, -4.589521519968926e-39, 2.7473255133212704e-39, 1.4183802926049366e-39, -4.98502960373382e-39, -3.990393558949922e-40, 1.4493069497125853e-40, -9.091562779406983e-39, -6.987556575475664e-39, -2.9320488807839607e-39, 0.23838482797145844, 0.08775276690721512, 0.13810841739177704, -0.06765451282262802, -0.10572948306798935, -0.013665325939655304, -0.2906096577644348, -0.27025189995765686, -0.17178606986999512, -8.890811360109345e-39, -2.1076215539692768e-39, -3.2482897143173925e-39, -6.69922540345619e-39, -1.444585975186275e-39, -2.3822788555738696e-39, -1.0772427293856923e-38, -8.743348518813052e-39, -7.607119671999917e-39, -0.05590905621647835, 0.0982406958937645, 0.21032807230949402, 0.0009622752550058067, -0.13336864113807678, -0.1814614236354828, 0.16569450497627258, 0.3284139633178711, 0.02919204719364643, -0.18825919926166534, 0.09234343469142914, 0.06784579902887344, 0.06216834485530853, -0.043475836515426636, -0.16040614247322083, 0.17587222158908844, 0.26936468482017517, -0.04592643305659294, -0.023225026205182076, 0.039904166013002396, 0.24037835001945496, -0.14072145521640778, -0.17603234946727753, -0.12836098670959473, -0.13910634815692902, 0.0592237152159214, -0.10009880363941193, -0.41213780641555786, -0.3632335364818573, 0.10420237481594086, 0.3871658742427826, 0.17012667655944824, 0.18550989031791687, -0.12398064881563187, 0.06297384947538376, -0.003653199877589941, -0.32233431935310364, -0.2479366809129715, -0.1769275665283203, -0.09726618230342865, 0.20533016324043274, 0.14223536849021912, 0.01928805187344551, 0.2612600326538086, 0.21723031997680664, 0.09583315253257751, 0.026022156700491905, 0.18155419826507568, 0.02535141073167324, -0.1612025499343872, 0.020095951855182648, -0.00032283482141792774, -0.0943889394402504, 0.09681544452905655, -0.02100560814142227, 0.16015595197677612, 0.012465122155845165, 0.0470241941511631, -0.06207721307873726, -0.11214854568243027, 0.08446548879146576, -0.008183827623724937, -0.1619393229484558, -0.27004316449165344, -0.08834493905305862, -0.21564358472824097, -0.12933999300003052, 0.07230858504772186, 0.2327391654253006, 0.3195064067840576, 0.3076636493206024, 0.1901625394821167, 0.17904524505138397, 0.07276981323957443, -0.017078761011362076, -0.12720510363578796, -0.039729248732328415, -0.14138782024383545, -0.2113834172487259, -0.02302994765341282, -0.13028299808502197, -0.35707709193229675, 0.18738806247711182, -0.18324881792068481, -0.01774788089096546, -0.06682702153921127, 0.017402995377779007, 0.11752841621637344, -0.3914929926395416, 0.03773414343595505, -0.13846355676651, -0.3717601001262665, -0.16740530729293823, 0.07668722420930862, 0.2702518105506897, 0.2327132672071457, -0.010708609595894814, 0.19393908977508545, 0.4294264316558838, -0.009612109512090683, 0.24456177651882172, -0.12033233046531677, 0.07066671550273895, 0.5102802515029907, -0.25387537479400635, 0.06327423453330994, 0.09609271585941315, -0.02677377313375473, -0.16792403161525726, -0.16209134459495544, -0.224523663520813, 0.009950614534318447, -0.07340460270643234, 0.18127188086509705, -0.06761076301336288, -0.07560303062200546, 0.05719611421227455, -7.060700151418027e-39, -6.379785405528704e-39, -7.442534364768039e-39, -4.973840235496186e-39, -4.0312105806187754e-39, -6.771280170491772e-39, 8.254656889767486e-40, -2.426547275360355e-39, -1.4174232057538027e-39, -0.016818571835756302, -0.05360455438494682, -0.15694202482700348, 0.014425791800022125, 0.1089550033211708, -0.3011050224304199, 0.05844467133283615, 0.08970082551240921, 0.09817259013652802, -1.0362958073491961e-38, -9.617964751425993e-39, -9.059416992635372e-39, -1.0993434482456375e-38, -9.55585359829326e-39, -1.0151007476867439e-38, -5.014602606524931e-40, -3.851401566870472e-39, -2.722124561738853e-39, -0.0583479106426239, -0.15328940749168396, -0.019503731280565262, -0.052780017256736755, 0.06660603731870651, 0.22500115633010864, 0.0682487040758133, -0.21683812141418457, 0.1345890909433365, -0.06295938789844513, -0.23363234102725983, 0.16753561794757843, -0.08525344729423523, -0.3025343120098114, 0.06793604791164398, -0.15428417921066284, -0.15102575719356537, -0.2694827914237976, 0.21447505056858063, 0.16675640642642975, -0.26140719652175903, -0.025528445839881897, 0.42489421367645264, -0.49668949842453003, 0.08716175705194473, -0.14511607587337494, -0.08794619143009186, 0.16450628638267517, 0.19196781516075134, -0.18613678216934204, 0.06729377806186676, 0.3447142541408539, 0.5998212695121765, -0.3679617941379547, 0.12235721945762634, -0.42503103613853455, 0.27845191955566406, 0.05681902542710304, 0.12377064675092697, 0.06066349148750305, -0.04832439497113228, -0.0021240687929093838, -0.14174482226371765, -0.2932865619659424, -0.1755635142326355, 0.15792244672775269, 0.16214220225811005, -0.16984792053699493, -0.13875390589237213, 0.07886823266744614, -0.28401756286621094, 0.18610380589962006, -0.03427246958017349, -0.09243988990783691, -0.14360526204109192, -0.12633763253688812, 0.10541170835494995, 0.07763195037841797, -0.05470352619886398, 0.15716519951820374, -0.16560812294483185, 0.03233075514435768, -0.0027135645505040884, 0.14976394176483154, 0.24320857226848602, 0.04215693473815918, 0.1494983434677124, 7.649600593140349e-05, -0.09267394989728928, 0.027557887136936188, -0.31760692596435547, -0.1596011519432068, 0.28909462690353394, 0.06476915627717972, -0.2228536307811737, -0.1708718091249466, -0.16430950164794922, -0.4330245554447174, 0.14664767682552338, -0.275424063205719, -0.26854953169822693, 0.17692571878433228, -0.02826627530157566, 0.22352562844753265, 0.47623810172080994, -0.11899913102388382, 0.16627563536167145, 0.008405898697674274, 0.1187250018119812, -0.08864270895719528, 0.4671681821346283, 0.06697824597358704, -0.1301746666431427, 0.08354503661394119, 0.08324794471263885, -0.3139916956424713, 0.09819576144218445, -0.2716790735721588, -0.041519563645124435, 0.08361783623695374, 0.18141011893749237, 0.19772650301456451, -0.11341989040374756, 0.1582445353269577, 0.04369376599788666, -0.17638488113880157, 0.0112034622579813, 0.29781150817871094, -0.08844871819019318, -0.18996195495128632, -0.05565804988145828, -0.3170101046562195, 0.0035948066506534815, 0.06595367938280106, -0.19470465183258057, -0.3848645091056824, -0.2610548436641693, -1.116380855364438e-38, -1.0171195983842967e-38, -1.3014549678327488e-38, -7.743711239809979e-39, -8.546516531320131e-39, -7.020304920586935e-39, -1.0654238978778839e-38, -1.5995438014488562e-38, -1.239355585607116e-38, -0.2615245282649994, -0.0736207365989685, -0.12983475625514984, -0.34179064631462097, -0.11453406512737274, -0.09007791429758072, -0.3777386546134949, -0.18155543506145477, -0.2625552713871002, -1.7817807049164486e-38, -1.9744766198620686e-38, -2.805078908489646e-38, -9.44675830895018e-39, -1.4584979262102453e-38, -1.6969469366653028e-38, -1.2277826819797966e-38, -2.437228813034517e-38, -2.4341442748548454e-38, -0.02359294332563877, 0.09136514365673065, 0.2066095918416977, -0.1266413778066635, -0.08954399824142456, -0.2496696561574936, 0.13640770316123962, 0.33908507227897644, 0.546083390712738, 0.08331698924303055, 0.11827316880226135, 0.23147067427635193, -0.0361260361969471, 0.1505545973777771, -0.008901729248464108, 0.12889890372753143, 0.37162935733795166, 0.23268835246562958, 0.03706462308764458, 0.09218577295541763, 0.056891828775405884, 0.015229863114655018, 0.12402903288602829, -0.015045166015625, -0.12308800965547562, -0.1416448950767517, 0.07084698230028152, -0.2791542410850525, -0.22109393775463104, -0.005419764202088118, 0.1043769121170044, 0.2353714108467102, 0.09677260369062424, -0.2021699696779251, -0.2118014097213745, 0.015401793643832207, 0.05921246111392975, -0.10593947023153305, -0.16421018540859222, 0.043884798884391785, -0.05878373980522156, -0.1369239240884781, 0.006447119638323784, 0.013511869125068188, -0.14635369181632996, -0.04746372625231743, -0.0760253444314003, 0.08976013958454132, -0.09767084568738937, -0.15725179016590118, 0.10775116831064224, -0.21354712545871735, -0.23553143441677094, 0.003796933451667428, 0.03463010489940643, 0.06921304017305374, 0.2853371202945709, -0.12076177448034286, 0.22506600618362427, 0.0883428230881691, 0.015643373131752014, 0.22637717425823212, 0.022437656298279762, 0.07642438262701035, 0.11448727548122406, -0.16428235173225403, -0.1763594150543213, -0.0049928235821425915, -0.09435777366161346, -0.14383190870285034, -0.096831776201725, -0.374300092458725, -0.06780396401882172, -0.013385295867919922, 0.1685454100370407, -0.1089516431093216, -0.04728977754712105, -0.05357382073998451, -0.08633866161108017, -0.24218665063381195, -0.05881074070930481, -0.1264033317565918, -0.17204079031944275, 0.20193035900592804, 0.030063336715102196, 0.15572534501552582, 0.14827944338321686, -0.2771456241607666, 0.009661640971899033, -0.07786078006029129, -0.017808610573410988, -0.07871288061141968, -0.09135137498378754, 0.15540480613708496, 0.03936440125107765, 0.0030069223139435053, -0.2751326560974121, -0.4442859888076782, 0.05979849770665169, -0.17890000343322754, 0.35196444392204285, -0.16800308227539062, 0.03422403335571289, 0.31255489587783813, 0.1489637792110443, -0.2812653183937073, -0.0007472014985978603, -0.0969003289937973, -0.003447247901931405, -0.07207055389881134, 0.11384715139865875, -0.023166446015238762, 0.10975867509841919, 0.08515410870313644, -0.16052782535552979, -0.09076312184333801, -0.0341564305126667, -3.103168442754986e-39, -4.794825757977155e-39, -3.456015396071975e-39, -5.592783958099208e-39, -1.751077975303399e-39, 4.712132333000419e-40, -4.3852023947811177e-39, -2.0230938293027395e-39, 1.8504916935564588e-39, -0.03249421715736389, 0.042771533131599426, 0.0655822604894638, -0.10075617581605911, 0.15510104596614838, 0.07935355603694916, -0.07193566113710403, -0.07374989986419678, 0.04732241854071617, -8.165632398328931e-39, -9.065673790278582e-39, -1.4094964807306565e-38, -8.420556614958902e-39, -4.520283362846637e-39, -2.761391747306163e-39, -7.646117808262077e-39, -4.1329602634118646e-39, -9.384439763644727e-40, -0.2786024510860443, -0.06034539267420769, -0.24004368484020233, 0.29206809401512146, -0.04879555478692055, -0.08586162328720093, 0.35054898262023926, 0.08490602672100067, -0.3982357978820801, -0.051156025379896164, -0.12873364984989166, -0.09161942452192307, 0.05658077448606491, -0.13014143705368042, -0.11897976696491241, 0.2576645016670227, -0.20582285523414612, -0.08342384546995163, -0.10425488650798798, 0.17326833307743073, -0.19355592131614685, -0.021568914875388145, 0.07538413256406784, 0.17634643614292145, -0.2455289363861084, 0.10071402043104172, -0.044293053448200226, 0.3184697926044464, 0.5551506280899048, 0.126585453748703, -0.02365264669060707, 0.06948106735944748, 0.4131794273853302, 0.24221593141555786, -0.15124893188476562, 0.20049607753753662, 0.06112989783287048, -0.23337291181087494, -0.049402281641960144, -0.01738242246210575, 0.05705522000789642, -0.23692871630191803, 0.1174786239862442, -0.011728036217391491, -0.05639674887061119, 0.08382494747638702, 0.09553905576467514, 0.07458721846342087, 0.08941306918859482, -0.03937062621116638, 0.08547116070985794, -0.16763989627361298, 0.08498195558786392, -0.0885203555226326, -0.11151453852653503, -0.17443335056304932, 0.019964290782809258, 0.12211620062589645, 0.02673017978668213, 0.09138159453868866, -0.07195925712585449, 0.0046265991404652596, -0.12270896881818771, 0.11656515300273895, -0.22409430146217346, 0.09463171660900116, 0.04483451321721077, 0.0008885215502232313, 0.2247665375471115, -0.16849921643733978, -0.052701566368341446, 0.18592189252376556, 0.2303621470928192, -0.26038381457328796, -0.07336986064910889, -0.13620468974113464, -0.056553736329078674, 0.13884173333644867, -0.2993071675300598, 0.03032040037214756, 0.006330057512968779, 0.26555851101875305, -0.245334655046463, -0.2067100703716278, 0.027025189250707626, -0.17726083099842072, 0.41364410519599915, -0.18517526984214783, -0.13798294961452484, 0.3335767388343811, 0.20681798458099365, -0.004835553001612425, -0.1726110279560089, 0.13633735477924347, -0.21552318334579468, -0.25986891984939575, 0.15029393136501312, 0.04602254554629326, -0.07743637263774872, -0.005853238981217146, 0.3003363013267517, -0.17591051757335663, -0.235909104347229, 0.034625280648469925, -0.1874057948589325, -0.22109760344028473, 0.3403754234313965, -0.013754825107753277, 0.09551607817411423, -0.02585430070757866, 0.2109670788049698, 0.08826220035552979, 0.1500910222530365, 0.1151788979768753, 0.04568369314074516, 0.12820185720920563, -0.07068129628896713, -3.7671008525551555e-39, -7.579556131206648e-39, -7.987325576534384e-39, 3.120412821656967e-39, 2.35234011388357e-39, 1.9009314317798306e-40, 3.054345802959445e-39, 2.7796856987579234e-39, 1.3131287649494996e-40, 0.06582091748714447, 0.10092516988515854, 0.20051294565200806, 0.014181588776409626, 0.08532589673995972, 0.07135254889726639, 0.02807171456515789, 0.03473116457462311, 0.06858004629611969, -1.597229977424563e-38, -2.0421399977701495e-38, -2.198404955240253e-38, 4.337322828852067e-39, 3.5799420283614686e-39, 4.240973750340486e-40, 6.81523189682532e-39, 6.459732285515364e-39, 1.9087646901954063e-39, -0.01648849993944168, 0.21116739511489868, -0.11765892058610916, -0.18166154623031616, 0.02017921954393387, 0.1337917149066925, 0.010037469677627087, 0.09379102289676666, 0.21581681072711945, 0.0814652368426323, -0.017909416928887367, -0.04973664507269859, -0.07070261985063553, -0.058993227779865265, 0.0026870002038776875, -0.02396310679614544, -0.0342705100774765, 0.12747082114219666, -0.08075874298810959, 0.17353945970535278, -0.1573520302772522, -0.28184598684310913, 0.07180972397327423, -0.15807166695594788, -0.23675644397735596, 0.32822707295417786, -0.042803045362234116, 0.257658451795578, 0.04732348024845123, 0.09743335843086243, -0.03128916025161743, -0.23421411216259003, -0.28045743703842163, -0.11844352632761002, -0.46192169189453125, -0.12223415076732635, -0.08109993487596512, -0.1054789125919342, -0.2184397131204605, -0.1381339281797409, -0.05306326970458031, -0.1283896267414093, -0.015846824273467064, 0.11455172300338745, 0.013393254950642586, -0.03251497820019722, 0.09396033734083176, -0.08639330416917801, -0.13819894194602966, 0.042920101433992386, -0.14503373205661774, -0.0032610550988465548, 0.07674472779035568, -0.064800925552845, 0.0490831695497036, 0.09457791596651077, -0.06261641532182693, 0.05747154355049133, -0.050316955894231796, 0.027316704392433167, 0.06678608059883118, 0.1817041039466858, -0.12095712870359421, -0.1561623215675354, -0.18574456870555878, -0.0817117989063263, -0.08817914128303528, -0.06464598327875137, -0.025012269616127014, 0.0946955755352974, 0.19623124599456787, 0.05059070885181427, -0.1416429579257965, 0.019067516550421715, -0.17245543003082275, -0.23016177117824554, -0.16776923835277557, -0.32100367546081543, -0.0853915736079216, 0.2118273824453354, -0.11598392575979233, 0.10696535557508469, -0.2078610062599182, -0.08307087421417236, 0.14078234136104584, -0.35985609889030457, -0.09092382341623306, 0.15320558845996857, -0.24109609425067902, -0.10887883603572845, -0.14337961375713348, -0.2428198903799057, -0.23477420210838318, -0.16343064606189728, -0.061784468591213226, -0.18461494147777557, -0.06970418244600296, -0.031998202204704285, -0.03791932016611099, -0.06738648563623428, 0.06788545101881027, 0.13914568722248077, 0.024959441274404526, 0.1361273229122162, 0.10167574882507324, -0.06755039095878601, 0.2088794708251953, -0.039321497082710266, -0.3111087679862976, 0.04676327109336853, -0.15048529207706451, 0.01782349683344364, -0.022624783217906952, -0.03544941917061806, -0.009820639155805111, -0.10646279901266098, 0.10175617039203644, 2.1469784226383036e-39, 5.777791789150156e-40, 2.2299563112032976e-40, 6.655719290034297e-40, 8.747521585639811e-40, 3.014052866916249e-41, -2.540862401483045e-40, 1.1433222196395469e-39, 4.383597908039466e-40, 0.20046652853488922, 0.11975735425949097, 0.2812955379486084, 0.18388885259628296, 0.2636384069919586, 0.21979716420173645, -0.004937595222145319, 0.13195186853408813, 0.1865559220314026, 7.036370807480419e-39, 4.967936565065986e-39, 4.9954846915761474e-39, 6.175498510205575e-39, 6.546789353910007e-39, 5.508167951629418e-39, 5.0232079803943496e-39, 6.795298426170299e-39, 6.125509990087716e-39, 0.005919225513935089, 0.0297588761895895, -0.12445207685232162, 0.053744539618492126, 0.25295740365982056, -0.16251341998577118, 0.5192082524299622, 0.22874435782432556, -0.2842787206172943, 0.04772161692380905, -0.1175256296992302, -0.11393805593252182, 0.15055012702941895, -0.08407295495271683, -0.30318212509155273, 0.19629016518592834, 0.0011846591951325536, -0.22045937180519104, -0.035677049309015274, -0.04272636026144028, 0.053715672343969345, -0.3113478124141693, 0.057420652359724045, 0.2777647376060486, -0.38966384530067444, -0.001617463189177215, 0.20500804483890533, -0.3978970944881439, 0.21417342126369476, 0.03886910900473595, 0.03499642014503479, 0.18324901163578033, -0.29576238989830017, -0.28541576862335205, -0.24682563543319702, -0.23469169437885284, 0.06564188748598099, -0.10397973656654358, -0.16671685874462128, -0.10459426045417786, -0.2537483870983124, -0.18531569838523865, -0.05439672991633415, -0.24730035662651062, -0.11295437067747116, 0.09914997965097427, -0.1721651554107666, 0.18642856180667877, -0.2031826674938202, -0.06817696988582611, 0.20615226030349731, -0.05795550346374512, -0.055463895201683044, 0.2610202431678772, -0.2190232127904892, -0.09267918020486832, -0.45104241371154785, 0.0356769897043705, -0.20747317373752594, -0.31650084257125854, 0.22090719640254974, 0.11107435822486877, -0.18017718195915222, 0.1855926513671875, -0.22584424912929535, -0.013975347392261028, -0.03428740054368973, -0.05122838541865349, -0.030956821516156197, -0.11984619498252869, -0.22152739763259888, -0.06089622154831886, 0.08223555982112885, 0.24518537521362305, -0.024340443313121796, -0.26648417115211487, 0.07607052475214005, 0.11972705274820328, -0.41072624921798706, 0.13999545574188232, 0.0821264386177063, -0.2936515808105469, 0.323529452085495, -0.12810713052749634, -0.04891401529312134, 0.09993516653776169, -0.20314335823059082, -0.4889759123325348, 0.18959572911262512, -0.36447155475616455, 0.18918196856975555, 0.049392543733119965, -0.029085740447044373, 0.007784117944538593, -0.03770552575588226, -0.13905291259288788, 0.19707947969436646, -0.18529187142848969, 0.033218108117580414, 0.0844070166349411, 0.3875349462032318, 0.4559011459350586, -0.05677544325590134, -0.15780816972255707, 0.0887792780995369, -0.4841976761817932, -0.39801913499832153, -0.15083129703998566, 0.04328674077987671, 0.11604640632867813, -0.08797250688076019, -0.12247193604707718, 0.13132253289222717, -0.0057878741063177586, -0.18676456809043884, 0.08955659717321396, -0.04698948562145233, -3.8927020365095175e-39, -1.9048999090307985e-39, -1.9879941053683315e-40, -3.017951279244001e-39, -2.7640177806283076e-39, 1.4829787505118463e-39, -7.102510693698086e-39, -6.224787782389736e-39, -1.585740170796178e-39, 0.28511977195739746, 0.16791598498821259, 0.11858951300382614, 0.02155870385468006, -0.030328301712870598, -0.09304508566856384, -0.2647465765476227, -0.3081900179386139, -0.17831654846668243, -2.0516587379786152e-38, -1.8385656627161296e-38, -1.5097682140334225e-38, -1.2995784890591715e-38, -9.839350290610814e-39, -6.124878004480306e-39, -1.6114915524153824e-38, -1.3493984329717724e-38, -8.2625476014201e-39, -0.24087978899478912, -0.1535496562719345, 0.17310039699077606, 0.057384464889764786, -0.2703762650489807, 0.12993726134300232, 0.03294040262699127, 0.1182403415441513, 0.037113990634679794, -0.2660571336746216, -0.10707268863916397, 0.1565750688314438, -0.10761326551437378, -0.07381602376699448, -0.04907161369919777, 0.2915465831756592, 0.11773905158042908, 0.16634586453437805, 0.03849979490041733, 0.2559833824634552, 0.5578538775444031, -0.11485745757818222, -0.3283877670764923, 0.2026759535074234, -0.3320266306400299, -0.17715969681739807, -0.10215239971876144, -0.13289158046245575, 0.2720058858394623, 0.14291568100452423, -0.1959165781736374, 0.3858790695667267, 0.36532849073410034, -0.08701962977647781, -0.025156181305646896, 0.15304864943027496, -0.41916516423225403, -0.3223418593406677, -0.0040736449882388115, -0.18407411873340607, -0.003363260067999363, 0.15754905343055725, 0.15414002537727356, 0.26847484707832336, 0.20958556234836578, 0.127167209982872, 0.19928386807441711, 0.3017764091491699, -0.16318218410015106, -0.13592937588691711, 0.028138305991888046, 0.025973882526159286, -0.03137488663196564, 0.04810610041022301, -0.175874724984169, -0.05891317129135132, 0.045123931020498276, -0.10307574272155762, -0.011752961203455925, 0.07952447980642319, -0.039318282157182693, 0.04911475628614426, 0.024382399395108223, -0.15826629102230072, -0.29679223895072937, 0.27406376600265503, -0.02404072694480419, 0.010282098315656185, 0.29309025406837463, 0.06033353880047798, 0.1960625946521759, 0.14497007429599762, 0.02699686959385872, 0.11778464913368225, 0.23444487154483795, -0.32955241203308105, -0.33710575103759766, 0.06668577343225479, -0.08894806355237961, -0.14830492436885834, -0.1765296906232834, -0.0722469687461853, 0.2869086265563965, 0.18856525421142578, -0.29927632212638855, -0.0936841145157814, 0.27859511971473694, -0.28577762842178345, -0.04587626829743385, 0.22774052619934082, -0.33571988344192505, -0.326045423746109, -0.04721455276012421, -0.10648231208324432, -0.08354371041059494, 0.1636572629213333, 0.09490042179822922, 0.18640267848968506, 0.24272622168064117, -0.2484998255968094, -0.2421276867389679, 0.11982998996973038, -0.012053375132381916, 0.13979566097259521, 0.3019118905067444, -0.10987158119678497, -0.03432201221585274, 0.3934645652770996, -0.07945185899734497, -0.07127528637647629, 0.06623128801584244, -0.11305838823318481, -0.20952914655208588, 0.015696974471211433, -0.18261080980300903, -0.17124061286449432, -0.19167925417423248, -1.0117966260377124e-38, -9.659179741858715e-39, -7.572750024565422e-39, -5.937322612821215e-39, -2.7845706252045597e-39, 1.9852895993321846e-40, 2.768199255245853e-39, 3.731317294970157e-39, 2.752423437134484e-39, -0.20346397161483765, -0.09240002185106277, 0.10569167137145996, 0.01621934585273266, 0.06799493730068207, 0.2089949995279312, 0.023686259984970093, 0.12492366135120392, 0.2178838551044464, -1.84372146015592e-38, -1.809303187664713e-38, -1.5144021679250982e-38, -1.0838843235872062e-38, -8.742596021537709e-39, -7.442175632361172e-39, -1.1639409252436223e-39, -1.1367725506172927e-39, -2.7202033815442635e-39, 0.18853656947612762, 0.23977553844451904, -0.15134528279304504, 0.18629446625709534, 0.32464274764060974, -0.32458674907684326, 0.2204873114824295, -0.09879419207572937, -0.21535061299800873, 0.2621743679046631, 0.09792796522378922, -0.2573513984680176, 0.3327818810939789, -0.014570045284926891, -0.41781526803970337, 0.2738536596298218, 0.00031137728365138173, -0.28675010800361633, -0.4171628952026367, -0.4024561047554016, -0.03044215217232704, -0.08299092948436737, 0.23878967761993408, 0.26345133781433105, -0.11806321144104004, 0.03542723134160042, 0.3774036467075348, -0.3150290548801422, 0.006910084281116724, 0.06960449367761612, 0.11995954811573029, -0.23708729445934296, -0.47757336497306824, -0.31133702397346497, -0.23894870281219482, -0.1015305370092392, 0.09909195452928543, -0.059102997183799744, -0.18160365521907806, 0.1361382007598877, -0.04980119690299034, -0.094926618039608, 0.17909082770347595, 0.06414217501878738, -0.09971334785223007, -0.1693819761276245, -0.21466919779777527, -0.16540858149528503, 0.04865788295865059, 0.11401280760765076, 0.08699360489845276, 0.02850225754082203, -0.03360878303647041, 0.1861795336008072, 0.09773477166891098, -0.13252870738506317, -0.21867434680461884, -0.03106205351650715, -0.12374639511108398, -0.14193755388259888, 0.1465069055557251, -0.07460487633943558, -0.1700989007949829, 0.09976833313703537, 0.07468681037425995, -0.10122300684452057, -0.017860939726233482, 0.034117892384529114, -0.09863974153995514, 0.028223125264048576, 0.0751776397228241, -0.14915889501571655, -0.1721581369638443, -0.29139944911003113, -0.3273504078388214, 0.07897394895553589, -0.027300378307700157, 0.2556224763393402, 0.04584258794784546, 0.1422124058008194, 0.17122742533683777, -0.075465627014637, -0.09224514663219452, -0.12011968344449997, 0.21994982659816742, -0.17976191639900208, 0.1569964587688446, -0.0035843669902533293, -0.1433451920747757, 0.1627780646085739, 0.12471600621938705, 0.04814548417925835, -0.2566608786582947, 0.1856127381324768, 0.030989494174718857, -0.19608284533023834, 0.15577182173728943, 0.1479320079088211, -0.15113972127437592, 0.020128963515162468, 0.19170691072940826, 0.24593313038349152, 0.05545136705040932, 0.31839093565940857, -0.1977621614933014, 0.08453123271465302, -0.002972070826217532, -0.030005518347024918, 0.11836611479520798, 0.03889955207705498, 0.27435147762298584, 0.22599880397319794, 0.24145586788654327, 0.05500070005655289, 0.08744660019874573, 0.1281450092792511, 0.12995830178260803, -2.985088027658655e-39, -1.7825805660798852e-39, -3.836678123905811e-39, -2.2577328493631442e-39, -4.448702234691997e-41, -2.3362714243931572e-39, -3.129208772117534e-39, -1.9146711632225354e-39, -1.7411651899667652e-39, 0.11065264046192169, 0.10314974188804626, 0.027169059962034225, 0.09591986984014511, 0.07246270775794983, -0.16881456971168518, 0.17079506814479828, 0.029033763334155083, -0.06360456347465515, -4.654258706423804e-40, 6.251949150523744e-40, -5.232501715130511e-39, 7.985271272985684e-40, 4.037252979596944e-39, -6.143404571477144e-40, -1.4466669034057973e-39, 1.0113157004047562e-39, -7.873797980148644e-40, -0.5542938709259033, -0.543404757976532, -0.3156893253326416, -0.11793592572212219, 0.20165705680847168, 0.06170368194580078, 0.14528366923332214, -0.0797634869813919, 0.13744336366653442, -0.21274523437023163, -0.15162059664726257, 0.017468569800257683, -0.04093009978532791, -0.0757453590631485, 0.305693656206131, -0.07133213430643082, -0.11090392619371414, 0.207520991563797, -0.19678956270217896, -0.044176988303661346, -0.025696398690342903, 0.05809696018695831, 0.02609000727534294, -0.42049792408943176, -0.027190957218408585, -0.13002535700798035, -0.1317029744386673, 0.7867051362991333, 0.7256568074226379, 0.542981743812561, 0.28428390622138977, 0.159009650349617, 0.2491704821586609, 0.10905661433935165, -0.10644873976707458, 0.11344023048877716, -0.16809657216072083, -0.2642062306404114, -0.1452569216489792, -0.28801047801971436, -0.1372959315776825, -0.1145046055316925, -0.1633920520544052, -0.20708465576171875, -0.04087101295590401, 0.0582924447953701, -0.09659121185541153, 0.033729828894138336, 0.036200810223817825, -0.04140209034085274, -0.3714222013950348, -0.12464487552642822, 0.02287372760474682, -0.20771725475788116, 0.014808201231062412, 0.0671229362487793, 0.22212183475494385, -0.038127291947603226, 0.04820247367024422, 0.2449602633714676, -0.011125207878649235, 0.1811896115541458, 0.07562365382909775, -0.19838738441467285, -0.3096648156642914, -0.46022605895996094, -0.23886999487876892, -0.2616894543170929, -0.02185274101793766, -0.20697951316833496, 0.01824978180229664, -0.11041083931922913, -0.09311134368181229, 0.098917655646801, -0.15269708633422852, -0.10347162187099457, -0.20995381474494934, -0.1811021864414215, -0.1315373331308365, -0.06034319847822189, -0.11099953204393387, 0.031166603788733482, 0.2573128938674927, -0.020134231075644493, 0.14232312142848969, -0.2707712948322296, 0.3718619644641876, -0.17915429174900055, -0.0879131332039833, -0.24947234988212585, -0.05039504915475845, -0.09673350304365158, -0.28447118401527405, -0.27673691511154175, -0.25015905499458313, -0.09971751272678375, -0.2710167169570923, -0.22046686708927155, -0.13469359278678894, -0.21308967471122742, -0.07734625786542892, -0.2397615760564804, -0.11963894963264465, 0.020270058885216713, 0.19193284213542938, -0.1438148468732834, 0.18399782478809357, 0.004544091410934925, 0.06086919456720352, -0.12555880844593048, 0.1508416086435318, -0.16035565733909607, -0.08076293021440506, 0.2552822232246399, -0.05168177932500839, -0.07558877766132355, -0.00847594253718853, -9.105748123761343e-39, -6.568467441153112e-39, -7.650751902283599e-39, -5.431854638560753e-39, -5.8029675173602157e-39, -6.175708704975224e-39, -1.218776536749581e-39, -2.899115564275399e-39, -7.420295758139204e-40, -0.14512000977993011, 0.14862582087516785, -0.020703556016087532, -0.052224114537239075, -0.048611484467983246, -0.15072035789489746, -0.22325602173805237, -0.01398672629147768, 0.11372905224561691, -1.3527611288966127e-38, -8.158260167108118e-39, -9.1198353772232e-39, -7.866832125482486e-39, -8.156615042711e-39, -7.567680126721495e-39, -2.30104558359696e-39, -4.03357737372502e-39, -1.7358696830700817e-39, -0.0763036385178566, -0.19205737113952637, 0.07376520335674286, -0.19193293154239655, -0.012058890424668789, 0.3407908082008362, -0.3625446856021881, -0.02287517674267292, -0.24241861701011658, -0.004429230000823736, -0.004855332430452108, 0.12143854051828384, -0.1249096468091011, 0.06925919651985168, 0.07671014219522476, -0.1676752120256424, 0.00041136471554636955, -0.023508794605731964, -0.2800339162349701, -0.0369889922440052, -0.030815305188298225, 0.020212985575199127, 0.030923830345273018, 0.11136835813522339, -0.1933479905128479, 0.27682045102119446, 0.31724613904953003, 0.20117905735969543, 0.26286688446998596, -0.4161706268787384, 0.2027711123228073, -0.11749184876680374, 0.34541454911231995, 0.11885564029216766, 0.09428533166646957, 0.44800031185150146, -0.10786629468202591, 0.07075215131044388, 0.11290601640939713, -0.11085935682058334, 0.1794833391904831, 0.14783620834350586, 0.004931455012410879, 0.17731347680091858, 0.03183409571647644, -0.2352759689092636, -0.044396255165338516, 0.046886079013347626, 0.00548314955085516, 0.07212475687265396, 0.009325908496975899, -0.1752234250307083, -0.0912194699048996, 0.25451919436454773, 0.005611111409962177, -0.4183264672756195, 0.07535886019468307, -0.15144701302051544, -0.11628847569227219, 0.45213639736175537, -0.19901232421398163, -0.1090228334069252, -0.34081730246543884, -0.19731377065181732, -0.0329597033560276, 0.2018720954656601, -0.03989812731742859, 0.23836146295070648, 0.22564584016799927, 0.22188839316368103, 0.20341017842292786, -0.0393914170563221, -0.22095037996768951, -0.10805854201316833, 0.2605120539665222, -0.02857852727174759, 0.01345355436205864, 0.17262084782123566, -0.24595996737480164, 0.19811731576919556, 0.1326453536748886, -0.21784253418445587, -0.45051833987236023, -0.09367739409208298, -0.04749889299273491, -0.09871822595596313, 0.13026614487171173, -0.033952392637729645, 0.3377284109592438, -0.05982440337538719, -0.31270650029182434, -0.016318483278155327, -0.26445814967155457, -0.004740061238408089, 0.05601676180958748, 0.03623872622847557, 0.05019472911953926, 0.055095139890909195, 0.18200063705444336, -4.914914233772863e-41, -4.914774103926431e-41, -4.911130727919186e-41, -4.908468260836969e-41, -4.926404881180327e-41, -4.934112022734113e-41, -4.917436571008648e-41, -4.913232675615674e-41, -4.934532412273411e-41, -4.93901656735925e-41, -4.945882929834442e-41, -4.933411373501951e-41, -4.919118129165838e-41, -4.94125864490217e-41, -4.93845604797352e-41, -4.949105916302389e-41, -4.936494230123466e-41, -4.91813722024081e-41, 5.905912507743374e-41, 5.042012004487124e-41, 6.096068709352252e-41, 6.007786906099788e-41, -5.948231721365984e-41, -6.103775850906038e-41, -6.173280254736549e-41, 6.218542195134241e-41, -5.394578698111248e-41, -4.93789552858779e-41, -4.928927218416112e-41, -4.948545396916659e-41, -4.938736307666385e-41, -4.910009689147727e-41, -4.916735921776486e-41, -4.939717216591413e-41, -4.943080332905792e-41, -4.931309425805464e-41, -4.924723323023137e-41, 4.983577858524779e-41, -5.668392418040318e-41, 5.088114723963411e-41, 5.086433165806221e-41, -5.506822705103666e-41, 4.949105916302389e-41, 5.05924797559832e-41, -5.442503105591157e-41, -4.943921111984387e-41, -4.916455662083621e-41, -4.930748906419734e-41, -4.921640466401623e-41, -4.93901656735925e-41, -4.922761505173082e-41, -4.941118515055737e-41, -4.911691247304916e-41, -4.907347222065509e-41, -4.914213584540701e-41, -4.918977999319405e-41, -4.919678648551568e-41, -4.928787088569679e-41, -4.917016181469351e-41, -4.942659943366495e-41, -4.907487351911942e-41, -4.92093981716946e-41, -4.935653451044871e-41, -4.935653451044871e-41, -4.919398388858703e-41, -4.944341501523685e-41, -4.938876437512818e-41, -4.931869945191194e-41, -4.942239553827197e-41, -4.912952415922809e-41, -4.932430464576924e-41, -4.94350072244509e-41, -4.92093981716946e-41, -4.935373191352006e-41, -4.933971892887681e-41, -4.909449169761997e-41, -5.877185889224715e-41, -4.92093981716946e-41, -4.920099038090865e-41, -4.914213584540701e-41, -4.94013760613071e-41, -4.909449169761997e-41, -4.924022673790975e-41, -4.916315532237188e-41, -4.94013760613071e-41, -4.942800073212927e-41, -4.942519813520062e-41, -4.920799687323028e-41, -4.905525534061887e-41, -4.917016181469351e-41, -4.936914619662763e-41, -4.948545396916659e-41, -4.910430078687024e-41, 4.920799687323028e-41, -4.943080332905792e-41, 4.928226569183949e-41, 4.945042150755847e-41, 4.948545396916659e-41, 4.906786702679779e-41, -4.935092931659141e-41, -4.92206085594092e-41, -4.922200985787352e-41, -4.936073840584168e-41, -4.905805793754752e-41, -4.922901635019515e-41, -4.939997476284278e-41, -4.904824884829725e-41, -4.939857346437845e-41, -4.921220076862325e-41, -4.936354100277033e-41, -4.929767997494706e-41, -4.946863838759469e-41, -4.938035658434223e-41, -4.936774489816331e-41, -4.945462540295144e-41, -4.914213584540701e-41, -4.912952415922809e-41, 4.925704231948164e-41, 4.915054363619296e-41, 4.9254239722553e-41, 4.918417479933675e-41, 4.916455662083621e-41, 4.944761891062982e-41, 4.923462154405245e-41, 4.948825656609524e-41, 4.949246046148821e-41, -5.639385539828794e-41, -4.922761505173082e-41, -4.911551117458484e-41, -5.843975115620217e-41, -4.914073454694269e-41, -4.915755012851458e-41, -4.920799687323028e-41, -4.927525919951787e-41, -4.909168910069132e-41, -4.948265137223794e-41, -4.919118129165838e-41, -4.929067348262544e-41, -4.937054749509196e-41, -4.934812671966276e-41, -4.925143712562435e-41, -4.907487351911942e-41, -4.925704231948164e-41, -4.9254239722553e-41, -3.9363391124425107e-07, -6.649165698036086e-07, -5.382171366363764e-07, -5.642179985443363e-07, -9.30618739403144e-07, -9.233557989318797e-07, -1.97291711856451e-07, -4.4088210415793583e-07, -4.799476300831884e-07, -9.197031497114003e-36, 1.9542368253627466e-40, -4.907066962372644e-41, -4.8982296646222094e-30, -7.707796391957595e-32, 4.741259722879875e-39, -1.8640815237846784e-25, -8.29463167715589e-28, -3.717445325910487e-29, -6.078832738241056e-41, 6.090183255802087e-41, -4.905945923601185e-41, -5.014826814279223e-41, -4.905245274369022e-41, 5.43759856096602e-41, 4.905385404215455e-41, 4.905525534061887e-41, 6.143012207907133e-41, 8.141053623264673e-40, -3.631044580758466e-41, -4.8006575137701665e-37, -1.259632437256405e-29, -7.771029994670249e-31, -4.0664092549511875e-27, -1.4452890896761241e-27, -7.14587108766927e-27, -2.484127329275945e-24, 6.11288429092415e-41, 4.938876437512818e-41, 4.915474753158593e-41, 5.181301071841011e-41, 4.956953187702608e-41, -5.333341955220254e-41, -6.028666253218228e-41, 5.669933846351075e-41, 6.221765181602188e-41, -7.651008218090283e-07, -1.4173565432429314e-06, -1.2734645906675723e-06, -6.189421242197568e-07, -8.93831725079508e-07, -1.1197530511708464e-06, -1.8196023177097231e-07, -3.818099116870144e-07, -3.815071352164523e-07, -8.259505079877272e-07, -1.4947423778721713e-06, -1.0374968724136124e-06, -4.3501120217115385e-07, -8.416033665525902e-07, -5.954708512945217e-07, -2.725413708049018e-07, -5.298433052303153e-07, -3.7302274336070695e-07, -4.93957708674498e-41, 7.890573764844155e-38, -1.282134302932798e-35, -6.2813429309918155e-31, -1.3709905642815533e-27, -2.5961207780026207e-25, -4.4995289900648295e-25, -4.454341345307128e-22, -1.97371853438916e-20, -1.4153305753157001e-27, -1.8888014170221037e-24, -4.663852368185541e-27, -1.8881479029128767e-33, -3.8867129961623004e-25, -1.7983779340002726e-32, -9.50639052747131e-15, -1.179911745564921e-13, -4.3012143326193186e-14, -5.294252117887765e-25, -1.7199656949694602e-20, -4.769318684779151e-19, -1.1410115687552924e-23, -5.876433889479345e-20, -2.525342498659838e-18, -1.3523214714617423e-24, -3.511717742411452e-20, -4.201923190886351e-19, -4.943220462752225e-41, -4.917716830701513e-41, -4.941679034441467e-41, -4.914213584540701e-41, -4.928787088569679e-41, 4.917016181469351e-41, 4.910289948840591e-41, -4.944761891062982e-41, -4.91813722024081e-41, -6.513210450975748e-07, -1.0723812238211394e-06, -5.406598688750819e-07, -5.381892833611346e-07, -1.1551554734978708e-06, -5.223474772719783e-07, -1.5405748854391277e-07, -3.228324771953339e-07, -1.5041854339870042e-07, -1.843946560257074e-33, -2.256936176121159e-30, -9.33616688736073e-28, -6.49660915911473e-24, -4.107496194189904e-20, -7.387466847973695e-21, -3.1964198140561126e-32, -1.1734588083806748e-29, -3.88843209471217e-29, -5.901568482503967e-41, -4.940277735977143e-41, -6.044781185557963e-41, -4.929347607955409e-41, 4.947003968605902e-41, 4.918977999319405e-41, -4.937475139048493e-41, -4.914213584540701e-41, -4.915474753158593e-41, -7.986838967966037e-10, -2.6209132641952237e-09, -2.929409492757884e-10, -8.570048004585828e-10, -5.568216998597109e-09, -5.776448208649754e-10, -1.8098042509073764e-10, -2.1902346603042133e-09, -3.0848454346532606e-10, -2.5137866878951597e-15, -7.072983962842089e-14, -2.019817689838388e-12, -1.6917180885854012e-14, -7.7267971751796e-14, -8.304540215220424e-12, -1.42219425882398e-15, -3.7420889005762917e-14, -1.7440005602858966e-12, 0.07287576794624329, 0.20907454192638397, -0.11401817202568054, 0.19020633399486542, 0.05490103363990784, 0.043098241090774536, 0.1591566801071167, 0.09588181227445602, 0.10017039626836777, -0.017624279484152794, -0.16277484595775604, -0.1153113916516304, -0.23829717934131622, -0.1915201097726822, -0.25302761793136597, -0.2746128439903259, -0.14602673053741455, -0.26543354988098145, -8.307043031557805e-39, -6.442040892403263e-39, -6.473032009240271e-39, -3.213415599435741e-39, -6.101519760378475e-39, -6.517418138097759e-39, -1.635688053258572e-39, -1.230079410162825e-39, -1.3719034264386754e-39, -0.03046039491891861, -0.14587195217609406, -0.18960855901241302, -0.021059714257717133, -0.05250772833824158, -0.05428420379757881, 0.05254707857966423, -0.07765468209981918, 0.0058031533844769, -1.3254422548152146e-38, -1.1408304307102845e-38, -9.958334543216634e-39, -9.903922123846901e-39, -1.3759559815975028e-38, -1.3627808333060744e-38, -5.630450860820259e-39, -8.149354915367334e-39, -7.958667621640477e-39, -0.1147957593202591, -0.02327902987599373, 0.17377129197120667, -0.11850276589393616, -0.10698942840099335, -0.10889893025159836, 0.07402899861335754, 0.24700984358787537, 0.21521975100040436, -0.0912068709731102, 0.06686661392450333, 0.17592981457710266, -0.0014588070334866643, -0.014830495230853558, -0.050631117075681686, 0.18301323056221008, 0.199302077293396, 0.01323213055729866, 0.16355091333389282, 0.16049371659755707, -0.20830854773521423, 0.1562378853559494, -0.08780550956726074, 0.08413872122764587, -0.008623299188911915, -0.17532634735107422, 0.049771714955568314, -0.5029094815254211, -0.2430325746536255, -0.09018157422542572, -0.2964555025100708, -0.2581610679626465, -0.2783401906490326, -0.02342444285750389, -0.49345481395721436, -0.15016266703605652, -0.006047319620847702, 0.09213985502719879, 0.27545469999313354, -0.06908118724822998, -0.01827794685959816, 0.034727543592453, -0.014945724979043007, 0.052375905215740204, -0.08939553797245026, 0.13419674336910248, 0.020442655310034752, -0.0712045356631279, 0.05391773208975792, -0.06528879702091217, 0.08653122931718826, -0.01551666297018528, -0.14008118212223053, 0.1397065967321396, -0.005806548986583948, 0.13520951569080353, -0.030054086819291115, 0.028250038623809814, 0.05782854184508324, -0.13387447595596313, 0.04028501361608505, 0.04452497139573097, -0.3107011914253235, 0.1759680062532425, 0.12037751823663712, 0.12097030878067017, -0.28413888812065125, -0.24340052902698517, -0.2680175304412842, -0.2679239511489868, -0.11800429970026016, -0.18395723402500153, 0.2465278059244156, 0.10623375326395035, -0.0590389147400856, 0.12277265638113022, -0.07034169137477875, 0.08271660655736923, -0.046216536313295364, -0.16279949247837067, 0.0460524819791317, -0.09702759981155396, 0.12883074581623077, -0.1096433624625206, 0.20727819204330444, -0.06992042809724808, 0.26615169644355774, 0.0009666001424193382, -0.3347088396549225, 0.007931940257549286, -0.12503202259540558, -0.03962152078747749, 0.35602644085884094, -0.08373048156499863, -0.02303701639175415, 0.1910000443458557, -0.2391166388988495, -0.1938147097826004, 0.09988957643508911, 0.5156179070472717, 0.35063424706459045, 0.20371749997138977, 0.29377973079681396, -0.03225672245025635, -0.10517753660678864, -0.2145417332649231, -0.48408764600753784, -0.5329529643058777, -0.24939069151878357, -0.25148457288742065, -0.15895363688468933, -0.1359896957874298, -0.1578940451145172, -0.2649219334125519, -0.14921437203884125, 0.03390831872820854, -0.1366785168647766, 2.2530441047015133e-39, 6.196320404086978e-39, 9.011688766940468e-39, 8.743058450030937e-39, 8.185055796342937e-39, 1.0121416257196292e-38, 8.540675919320825e-40, -8.756153584180052e-41, 3.9362137551252674e-39, -0.14787980914115906, -0.008926383219659328, -0.06123680993914604, -0.033085864037275314, -0.08994688093662262, -0.05928167328238487, -0.25878629088401794, -0.08293576538562775, -0.16678157448768616, -2.6997836603221223e-40, 3.6901289292082576e-39, 3.069264026410647e-40, 1.3796441991556057e-38, 1.4305083906838215e-38, 1.758613597925152e-38, 4.2066531483522425e-39, 2.5198765556813163e-39, 8.130766691238065e-39, 0.05143251270055771, 0.1450456827878952, 0.2627514898777008, 0.015310153365135193, 0.00521881552413106, 0.027894355356693268, 0.01702575758099556, -0.17921306192874908, -0.3906652629375458, 0.1024683266878128, 0.27900364995002747, 