{"format": "language_conditioned_act_cvae", "num_params": 166020, "num_intents": 2, "intent_labels": ["always_take_left", "always_take_right"], "img_size": 128, "n_conv_layers": 4, "chunk_size": 5, "action_dim": 4, "d_model": 64, "n_heads": 2, "n_enc_layers": 1, "n_dec_layers": 1, "n_spatial_tokens": 64, "latent_dim": 16, "use_vae": true, "weights": {"spatial_pos": {"shape": [64, 64], "data": [-0.015989461913704872, 0.103604257106781, 0.001570419524796307, -0.04069384187459946, -0.1876496821641922, -0.012077291496098042, 0.09552051872015, -0.05643052980303764, -0.03829179331660271, -0.01941758766770363, -0.09094196557998657, 0.10678713768720627, -0.08847641199827194, -0.04649915173649788, 0.03945012018084526, -0.0747554749250412, 0.06652585417032242, -0.0359349362552166, 0.12193161994218826, -0.026979241520166397, 0.08500944823026657, 0.09473176300525665, 0.05708407238125801, 0.04079531505703926, -0.018684493377804756, -0.05176519975066185, -0.04594871774315834, 0.03591718524694443, -0.07375062257051468, -0.07170217484235764, 0.05962694063782692, -0.04058722406625748, -0.003142269793897867, -0.006712157744914293, 0.011317851021885872, -0.04062554985284805, -0.016028879210352898, 0.1794300377368927, -0.002749457722529769, -0.10060987621545792, 0.048940692096948624, 0.04797883331775665, 0.016786988824605942, -0.07188941538333893, 0.12570197880268097, 0.005853133276104927, -0.010873612947762012, -0.11615733057260513, 0.11828023195266724, -0.012653944082558155, 0.1733177751302719, 0.0457734577357769, -0.00519599998369813, 0.010523910634219646, -0.0755874440073967, 0.06663589179515839, 0.021901166066527367, 0.0753059983253479, 0.021015610545873642, -0.059732671827077866, -0.037357889115810394, -0.11347723752260208, -0.025773586705327034, 0.06374628841876984, -0.018855692818760872, -0.005613220855593681, 0.007380313705652952, 0.010767527855932713, -0.0037433868274092674, -0.03840385004878044, -0.009247067384421825, -0.005280162673443556, -0.010031911544501781, -0.010408708825707436, -0.027387520298361778, 0.00856796931475401, -0.032571498304605484, -0.011066295206546783, 0.025872301310300827, 0.03411540389060974, 0.027775181457400322, 0.004536395892500877, -0.014142561703920364, 0.0185229629278183, 0.01879432052373886, 0.0022751244250684977, 0.05768392235040665, 0.01653365232050419, 0.02316862717270851, -0.03089422918856144, 0.0030805296264588833, -0.025163641199469566, -0.010010133497416973, -0.021583272144198418, 0.00999412126839161, -0.02919612266123295, -0.02498617023229599, 0.02025330625474453, -0.01174982264637947, -0.012304424308240414, 0.005531394388526678, -0.005238889250904322, 0.0016849871026352048, 0.021473031491041183, -0.00042203825432807207, -0.025307554751634598, -0.0062632313929498196, 0.014373875223100185, -0.008007247932255268, 0.008437855169177055, 0.027803461998701096, -0.027267975732684135, -0.0174243301153183, 0.024732667952775955, -0.0016825941856950521, 0.03160075470805168, -0.037741534411907196, 0.010436967015266418, 0.00027407152811065316, 0.007786535657942295, -0.012342260219156742, -0.002224717754870653, -0.008349147625267506, 0.011973896063864231, -0.018259452655911446, 0.008880877867341042, -0.010588500648736954, -0.01463137473911047, -0.02536194957792759, 0.015045334585011005, 0.04027654975652695, 0.014291705563664436, 0.008491391316056252, 0.0021535574924200773, 0.03671833127737045, -0.0534374937415123, 0.024309825152158737, 0.002698763506487012, -0.04309454932808876, 0.017940817400813103, -0.052206311374902725, -0.011930967681109905, -0.028348354622721672, -0.02398505061864853, 0.0004409268731251359, -0.0029031960293650627, 0.00246219290420413, 0.009913786314427853, 0.006593028083443642, -0.016255291178822517, 0.016026729717850685, 0.004786476027220488, -0.017673738300800323, -0.036102619022130966, 0.013115418143570423, 0.010754217393696308, 0.03721992298960686, -0.022881673648953438, 0.009023393504321575, 0.031653378158807755, -0.0017833183519542217, 0.029270881786942482, 0.02065093442797661, -0.029054151847958565, -0.018258508294820786, 0.0035006653051823378, 0.03492842987179756, 0.005035764537751675, 0.0015498303109779954, 0.01537273544818163, 0.0334344245493412, 0.0475645549595356, 0.01562226377427578, -0.019306322559714317, 0.007821818813681602, -0.014660459011793137, 0.01485463697463274, -0.009499963372945786, -0.01838778145611286, -6.576293998250549e-08, 0.026816552504897118, 0.02731487527489662, 0.01722487434744835, -0.005373203195631504, 0.04304352402687073, -0.020374393090605736, -0.0046520475298166275, 0.018157539889216423, 0.016174567863345146, 0.030923234298825264, 0.05119337886571884, 0.01937183365225792, 0.016074566170573235, -0.013649794273078442, 0.0158107727766037, -0.015250173397362232, 0.002561346860602498, 0.02989526465535164, 0.009590494446456432, -0.015093321911990643, 0.011692468076944351, -0.01087072491645813, -0.003757270984351635, -0.002102417405694723, 0.05570674687623978, 0.004683997947722673, 0.01621171459555626, -0.027335837483406067, -0.0038451235741376877, -0.019410813227295876, -0.015441506169736385, 0.028171474114060402, 0.008678628131747246, 0.0006755663198418915, -0.03305657207965851, 0.015118523500859737, 0.005337553098797798, -0.015570963732898235, -0.005370834842324257, -0.021222393959760666, 0.0023573769722133875, -0.030214823782444, -0.006329874973744154, -0.015553103759884834, -0.00018713099416345358, 0.021693142130970955, 0.003158286213874817, 0.02852373570203781, -0.015883944928646088, -0.028026033192873, -0.004046724643558264, -0.019737157970666885, 0.030022740364074707, 0.013908484019339085, 0.0008565560565330088, -0.022411027923226357, 0.016937248408794403, -0.0050255232490599155, 0.009171868674457073, -0.015405149199068546, 0.03166145831346512, 0.009380052797496319, -0.007215489167720079, 0.06944967061281204, 0.029720187187194824, 0.026622014120221138, -0.0002686378138605505, -0.026798730716109276, 0.03480677306652069, -0.0024489054922014475, -0.04191748425364494, 0.006552598439157009, 0.0049999481998384, 0.03513796627521515, -0.0036469155456870794, -0.005212118383497, 0.03731926530599594, -0.019798435270786285, 0.03630581498146057, 0.006175645161420107, -0.023181667551398277, 0.002681056037545204, -0.011386609636247158, 0.006452777422964573, -0.024759015068411827, -0.00046799032134003937, 0.033744197338819504, -0.021453585475683212, -0.03720692917704582, 0.026814306154847145, -0.010343925096094608, 0.017114317044615746, -0.010857982560992241, 0.03308654576539993, -0.03440343961119652, -0.026294300332665443, -0.027163812890648842, 0.001290602725930512, -0.010435981675982475, 0.03699411079287529, -0.02008849009871483, 0.005684977862983942, -0.018664347007870674, -0.007372768130153418, -0.029260220006108284, -0.015677807852625847, 0.012165775522589684, 0.007463640533387661, 0.01344883069396019, 0.02970009110867977, -0.007886609062552452, 0.0020329472608864307, 0.034901347011327744, 0.011233940720558167, -0.017366869375109673, -0.03532230108976364, 0.04095303267240524, -0.018676763400435448, 0.008499126881361008, 0.01161805447191, -0.033098816871643066, 0.020212743431329727, -0.0023596438113600016, 0.022352442145347595, -0.03019176423549652, -0.010819573886692524, -0.009085491299629211, 0.029919086024165154, -0.0029352048877626657, 0.008226756937801838, -0.00778138218447566, 0.005398983135819435, 0.011504674330353737, -0.009522631764411926, -0.0025479677133262157, 0.019658133387565613, 0.005012970417737961, -0.0005268728127703071, -0.004618541337549686, -0.005920011550188065, 0.016925716772675514, 0.026369433850049973, 0.001741583808325231, -0.030608460307121277, 0.02753714844584465, -0.005643055308610201, -0.0076101780869066715, -0.02262488380074501, 0.007328973151743412, 0.01416489016264677, 0.0069530862383544445, 0.020638033747673035, 0.011825508438050747, 0.031056609004735947, 0.017100432887673378, -0.049446165561676025, 0.002579562598839402, 0.013116994872689247, -0.03582382947206497, -0.010083083063364029, 0.030677253380417824, -0.010306308977305889, -0.03330410644412041, -0.002605323912575841, 0.03159864619374275, -0.012794316746294498, -0.0019081359496340156, -0.017356500029563904, -0.010349482297897339, -0.0012435241369530559, 0.0032106253784149885, -0.0037109525874257088, 0.0014252724358811975, 0.02510645240545273, 0.026575328782200813, 0.036343786865472794, -0.025992203503847122, 0.02340010739862919, 0.00938269030302763, -0.01137877069413662, -0.02459384687244892, -0.00617573456838727, -3.2834566809469834e-05, -0.0036502962466329336, -0.01859387569129467, -0.02584904618561268, 0.02447652630507946, -0.01626693271100521, 0.028950555250048637, -0.02852027490735054, 0.017584089189767838, 0.025732483714818954, 0.006731856614351273, -0.027340134605765343, -0.037113260477781296, 0.013733028434216976, 0.018274901434779167, -0.004163222387433052, -0.02891623228788376, 0.03013025037944317, -0.024909518659114838, -0.020113423466682434, -0.004462242592126131, -0.019018566235899925, -0.012410437688231468, -0.0003038671566173434, -0.021304091438651085, 0.0327853262424469, -0.0030190569814294577, 0.023361463099718094, 0.05250198021531105, -0.0028976963367313147, -0.01319117657840252, -0.023746319115161896, 0.050574686378240585, 0.02743557281792164, -0.010529105551540852, 0.03089933469891548, 0.0018841692944988608, -0.007526344619691372, -0.0056471433490514755, 0.002091948874294758, -0.014335145242512226, -8.727102976990864e-05, -0.0068884603679180145, -0.015400741249322891, 0.02658325806260109, 0.01988617703318596, -0.01776203326880932, -0.007937276735901833, 0.014589494094252586, -0.0063693942502141, 0.013001018203794956, 0.00548214465379715, 0.0077509949915111065, 0.019246479496359825, -0.0022861454635858536, -0.00048449457972310483, 0.0008568378980271518, -0.027428563684225082, 0.009382396005094051, 0.01142872590571642, 0.02174159325659275, 0.016655461862683296, 0.006145824678242207, 0.02358805201947689, -0.004132549278438091, 0.03456314653158188, 0.001102824811823666, -0.04906240478157997, 0.03136352822184563, -0.005851766560226679, -0.02115313895046711, 0.03158509358763695, -0.00018235961033497006, -0.02308112010359764, -0.004099444020539522, 0.03357364609837532, 0.05211205035448074, -0.008574252016842365, -0.03879639133810997, -0.00939954724162817, 0.009681823663413525, 0.008241665549576283, -0.008196799084544182, 0.010204955004155636, 0.007566606160253286, -0.03285513445734978, -0.024922819808125496, 0.02526945248246193, 0.10028158873319626, -0.00890605803579092, 0.0068993521854281425, 0.02353561483323574, 0.00044893912854604423, -0.010662617161870003, -0.01890210248529911, 0.006944673135876656, 0.04562000557780266, -0.02348851040005684, 0.010584915988147259, 0.01974809728562832, -0.01339732576161623, 0.01985226571559906, -0.00910540297627449, 0.029864175245165825, 0.00017068893066607416, -0.037390343844890594, 0.006997036747634411, -0.016238970682024956, -0.03241518884897232, -0.02121194824576378, -0.018913820385932922, -0.022384846583008766, 0.044974569231271744, -0.023232175037264824, -0.030597683042287827, -0.011447063647210598, -0.0167442224919796, -0.000509118486661464, 0.011272232979536057, -0.030068276450037956, -0.01669168658554554, 0.008355596102774143, 0.02526615932583809, -0.011372340843081474, 0.009116219356656075, 0.019133100286126137, -0.006831206846982241, -0.029348721727728844, -0.01113714650273323, -0.012344712391495705, 0.015538163483142853, 0.017929555848240852, -0.05234335735440254, -0.029441971331834793, -0.004115175921469927, 0.0037025015335530043, 0.006294445134699345, 0.01685936562716961, 0.01967211253941059, 0.04491468891501427, 0.008393540978431702, 0.030065521597862244, 0.026233209297060966, -0.0025258371606469154, 0.009087619371712208, 0.010986333712935448, -0.040366947650909424, -0.021725010126829147, -0.0048787547275424, 0.0031188740395009518, -0.004843506030738354, 0.00226961774751544, -0.009512290358543396, -0.02644389122724533, -0.02835230529308319, 0.003081035567447543, -0.004434796050190926, -0.0047279056161642075, -0.008566392585635185, 0.047686025500297546, -0.03171130642294884, 0.01574035920202732, -0.02963150106370449, 0.00907818228006363, 0.01877441816031933, -0.036313802003860474, 0.011123032309114933, -0.052015118300914764, 0.037084635347127914, -0.03460270166397095, -0.00758017972111702, 0.036882542073726654, -0.00947248563170433, 0.006922943517565727, 0.010714570060372353, -0.035039663314819336, -0.04449182748794556, -0.02303534932434559, -0.026303978636860847, 0.003386701224371791, 0.0029947650618851185, 0.026822153478860855, 0.00627870811149478, 0.024388574063777924, 0.0034183720126748085, -0.025482570752501488, -0.027528617531061172, 0.013415729627013206, 0.02331293374300003, -0.043999917805194855, 0.012254016473889351, 0.03790901228785515, 0.017416663467884064, 0.0007896263268776238, -0.0012558992020785809, -0.00372571824118495, 0.03029545210301876, -0.007402992341667414, 0.0303890872746706, -0.01645718514919281, 0.01674014702439308, -0.0409110002219677, 0.009997031651437283, -0.046274833381175995, -0.01880742609500885, 0.006117869634181261, 0.008794133551418781, -0.013884980231523514, -0.0054715340957045555, 0.013225454837083817, 0.019105011597275734, -0.03527310490608215, -0.020638497546315193, -0.007533204276114702, 0.007311549969017506, 0.011133053340017796, -0.003205107757821679, -0.038315318524837494, -0.008111978881061077, 0.014839599840342999, -0.01753370277583599, 0.0026985967997461557, 0.0034661847166717052, 0.03846021741628647, -0.004933873191475868, -0.0052592456340789795, -0.004984858445823193, 0.026395205408334732, 0.009395553730428219, 0.0051598516292870045, -0.02193806879222393, 0.028700897470116615, -0.022640496492385864, 0.017175724729895592, -0.023611683398485184, 0.015431725420057774, 0.002988227875903249, -0.007837941870093346, 0.004587796051055193, -0.013911033980548382, -0.00301353819668293, 0.013743918389081955, 0.028932752087712288, 0.0072701373137533665, -0.02041107602417469, -0.020483296364545822, -0.029035767540335655, 0.006300178822129965, -0.013261914253234863, -0.006507927551865578, 0.00544624263420701, 0.028842318803071976, 0.032757434993982315, -0.026643425226211548, -0.006934627890586853, -0.005449375603348017, 0.0003573244612198323, 0.036757633090019226, -0.019858362153172493, -0.007805181667208672, 0.02069048583507538, -0.02364180237054825, 0.004471803084015846, -0.004551676567643881, 0.003486786736175418, -0.004735374357551336, -0.03298398479819298, -0.012723867781460285, -0.025614164769649506, 0.015945397317409515, 0.0010348480427637696, -0.004053846001625061, 0.03876671940088272, 0.005786316469311714, -0.005349809303879738, -0.010017753578722477, 0.025499261915683746, 0.03033258579671383, 0.017415108159184456, 0.010841699317097664, 0.022355353459715843, -0.0011187338968738914, -8.96869387361221e-05, -0.035213422030210495, -0.0014399170177057385, 0.009725652635097504, 0.008012352511286736, 0.027034876868128777, 0.02851835824549198, 0.021379735320806503, -0.06032251939177513, -0.011001190170645714, 0.023022107779979706, -0.003568301210179925, 0.026809733361005783, -0.013403925113379955, 0.051634784787893295, -0.003915640525519848, 0.004038765095174313, 0.03878716006875038, -0.0017665334744378924, -0.008281955495476723, 0.002657840494066477, -0.013152279891073704, 0.006356992293149233, 0.029187992215156555, -0.00459829019382596, 0.006861792877316475, 0.0575694739818573, -0.038814932107925415, 0.017129866406321526, -0.00908611062914133, 0.0024812498595565557, -0.023494724184274673, -0.005349395796656609, 0.008434171788394451, 0.034936971962451935, -0.005490387789905071, -0.004058887250721455, 0.009784659370779991, 0.014662913978099823, 0.033438850194215775, -0.01532037928700447, 0.0030541964806616306, 0.011067557148635387, -0.04819387570023537, 0.010084531269967556, -0.001486941589973867, 0.013468349352478981, -0.015396061353385448, -0.009532243944704533, -0.012856367975473404, -0.035549428313970566, -0.008203732781112194, 0.019078390672802925, -0.020895281806588173, -0.015227299183607101, -0.012823070399463177, 0.007681956514716148, 0.032614994794130325, -0.017408329993486404, 0.017238697037100792, 0.012782896868884563, 0.011620981618762016, 0.01938513107597828, -0.008680268190801144, -0.05307912081480026, -0.04386351630091667, -0.004300318658351898, -0.02263130247592926, 0.010056359693408012, 0.004256998188793659, -0.016160083934664726, 0.02718663029372692, -0.033476512879133224, 0.029105212539434433, 0.005011861212551594, 0.006808912847191095, 0.011825649067759514, -0.021499227732419968, -0.013853777199983597, -0.012662291526794434, -0.03477783873677254, -0.041885167360305786, 0.02011724002659321, -0.01368018239736557, 0.007645709905773401, 0.01997191831469536, -0.029778609052300453, -0.010982317849993706, -1.6637728549540043e-05, -0.0038872493896633387, -0.018720494583249092, -0.0071072871796786785, -0.01156823243945837, -0.0017925880383700132, 0.004712340887635946, 0.0024555097334086895, -0.010385743342339993, -0.027669427916407585, -0.008650812320411205, 0.006146961357444525, -0.020184367895126343, -0.02886524610221386, 0.0030964729376137257, -0.0242391936480999, -0.016481082886457443, -0.03799097612500191, -0.01286588329821825, 0.048816923052072525, -0.003166868817061186, 0.011046751402318478, -0.0018837973475456238, 0.0005638245493173599, -0.014333769679069519, 0.023681094869971275, 0.0019040784100070596, 0.0016824876656755805, 0.0024814438074827194, -0.05888104811310768, -0.009540523402392864, 0.021622467786073685, 0.012582213617861271, -0.0126962810754776, 0.02392764948308468, 0.021004648879170418, -0.02331327274441719, 0.04285482317209244, 0.007712056860327721, 0.0036135499831289053, -3.768423539440846e-06, 0.00505425687879324, 0.006862489506602287, 0.016470953822135925, 0.020634187385439873, -0.020159902051091194, 0.020414626225829124, -0.004898270592093468, -0.009657646529376507, 0.02538772113621235, 0.027988404035568237, -0.01548873819410801, -0.0275098979473114, 0.0062835025601089, 0.0013600722886621952, -0.002307247370481491, -0.026708096265792847, 0.0006590854027308524, -0.03025236167013645, 0.01302085816860199, -0.033233534544706345, -0.011178647167980671, -0.0017589888302609324, -0.021766401827335358, -0.013997562229633331, -0.022213231772184372, 0.006236908491700888, 0.0028857027646154165, 0.025520162656903267, 0.022361496463418007, 0.003325915662571788, -0.007590215187519789, 0.043780695647001266, 0.024742621928453445, -0.028799166902899742, -0.014990421943366528, 0.012282316572964191, -0.0005492944619618356, -0.02098575420677662, -0.010820028372108936, -0.019638096913695335, -0.009948255494236946, 0.018123075366020203, -0.019000370055437088, 0.007233889773488045, -0.040508147329092026, -0.0006581078050658107, -0.00926448218524456, -0.02406831458210945, -0.01785573735833168, -0.008649840019643307, -0.007078272290527821, 0.016068346798419952, 0.002673818962648511, -0.0018170623807236552, -0.0025744279846549034, 0.02262149564921856, 0.002156707923859358, -0.010842613875865936, 0.01292282436043024, -0.02376311831176281, 0.038547273725271225, 0.00941590778529644, 0.01674882136285305, -0.05056890472769737, 0.058071039617061615, 0.001284672529436648, 0.027386942878365517, -0.006072232034057379, -0.0023809659760445356, -0.03969438374042511, 0.006266468670219183, -0.0173965897411108, 0.043967071920633316, 0.022424550727009773, -0.044814348220825195, -0.005199907813221216, 0.0012147023808211088, 0.005933242850005627, -0.030720390379428864, -0.011898473836481571, -0.002729740459471941, 0.0006767473532818258, -0.0077904327772557735, -0.0346771702170372, -0.018868718296289444, -0.034868720918893814, 0.0012624806258827448, -0.02351515181362629, -0.0027868410106748343, -0.0025341445580124855, 0.04184160754084587, 0.0434473417699337, 0.07427597045898438, -0.025348437950015068, -0.017470434308052063, 0.011203909292817116, 0.0029808084946125746, -0.014734714291989803, -0.0017204501200467348, 0.02452865056693554, 0.014065466821193695, -0.004911800380796194, -0.027132496237754822, 0.0047436668537557125, -0.033317260444164276, 0.016117749735713005, 0.010794656351208687, 0.014529888518154621, 0.0032965820282697678, 0.015053847804665565, 0.0019055790035054088, -0.015720762312412262, 0.026805730536580086, 0.01616911217570305, -0.0046308026649057865, -0.004491230007261038, 0.00852590799331665, 0.011112366802990437, 0.003939440939575434, 0.012739908881485462, 0.0026792993303388357, -0.03908307105302811, -0.05018065497279167, 0.01981508731842041, -0.014207301661372185, -0.01510139275342226, 0.005242807790637016, 0.018090568482875824, 0.009947068057954311, -0.01116540189832449, -0.02351343259215355, -0.011668025515973568, 0.03276890516281128, -0.009591121226549149, 0.012045289389789104, -0.0060120439156889915, 0.007903480902314186, 0.025869794189929962, 0.04290209338068962, 0.022013679146766663, 0.013556843623518944, 0.014237920753657818, -0.01430547796189785, 0.008396711200475693, -0.010404280386865139, -0.026570500805974007, -0.011682800948619843, 0.04516388848423958, -0.004861567635089159, 0.020719138905405998, 0.010768619365990162, -0.03257498890161514, -0.038303714245557785, 0.01953531615436077, -0.002601337619125843, 0.05017087608575821, 0.005861261393874884, -0.01643436588346958, -0.009760434739291668, 0.02962907962501049, -0.007318825460970402, -0.01169570628553629, -0.02405153028666973, 0.00812018197029829, -0.003501612227410078, -0.01495645847171545, -0.025322575122117996, -0.024620916694402695, -0.009712185710668564, -0.019838789477944374, -0.005296483635902405, -0.03127426281571388, 0.005828960333019495, -0.03478088229894638, -0.008055522106587887, -0.00217494647949934, -0.020353373140096664, 0.01965324766933918, 0.050503432750701904, 0.011337166652083397, -0.013781745918095112, -0.02672082558274269, -0.043524451553821564, -0.04144371673464775, -0.01944548822939396, 0.020112644881010056, -0.030806466937065125, 0.006971887778490782, 0.004303147550672293, 0.08551445603370667, -0.015798581764101982, 0.031115086749196053, 0.05043846368789673, -0.006686172913759947, 0.040446795523166656, 0.016252433881163597, -0.004827042575925589, 0.018817797303199768, -0.01182340644299984, 0.038329120725393295, 0.02827845886349678, 0.002157516311854124, -0.01778963953256607, -0.021042007952928543, -0.023132311180233955, -0.0033465870656073093, 0.014153409749269485, -0.03839119151234627, -0.015636485069990158, 0.0020918839145451784, -0.0829567164182663, -0.01233650092035532, 0.017843296751379967, -0.0041092196479439735, -0.04785500094294548, -0.02054200880229473, -0.049940090626478195, -0.0282481387257576, 0.01623857207596302, 0.022607138380408287, -0.04052199050784111, 0.04701162502169609, 0.017047129571437836, 0.044722117483615875, -0.041624099016189575, -0.02614070475101471, 0.0028017687145620584, 0.03344341740012169, -0.0009335013455711305, -0.024402134120464325, -0.01474635861814022, -0.03588511049747467, -0.005997783504426479, -0.05445316806435585, -0.005901888478547335, -0.011053472757339478, -0.023723024874925613, 0.00890355370938778, 0.004377385601401329, -0.020454952493309975, 0.01997310481965542, 0.06368724256753922, 0.021730804815888405, 0.02372143045067787, -0.008911440148949623, -0.017929906025528908, 0.0008420366793870926, -0.03237846866250038, -0.031426362693309784, 0.03541111201047897, -0.01823139190673828, 0.022669203579425812, -0.018958380445837975, -0.017526712268590927, -0.0011819428764283657, 0.03733750432729721, -0.015362715348601341, -0.03659038245677948, 0.018546409904956818, -0.014505640603601933, 0.0036010814364999533, -0.002217364963144064, 0.0355905182659626, 0.010056926868855953, 0.011826603673398495, -0.03154328465461731, 0.029065465554594994, -0.021307943388819695, 0.002066229470074177, -0.003124394454061985, 0.03726394847035408, -0.0002150470099877566, -0.0005617549759335816, -0.013956256210803986, 0.02116917259991169, -0.010203023441135883, 0.006423854734748602, 0.007209252566099167, 0.02764005772769451, 0.004595511127263308, -0.026097526773810387, 0.005435289815068245, 0.019232098013162613, 0.010117013938724995, 0.004110781941562891, 0.0022732384968549013, -0.029845433309674263, 0.0018725527916103601, 0.0017963231075555086, 0.010053400881588459, -0.012420929968357086, 0.026817062869668007, 0.0009594522998668253, -0.0028731052298098803, -0.006229735910892487, 0.0024575393181294203, -0.016354354098439217, -0.0016069428529590368, -0.03464994952082634, 0.0024224042426794767, -0.0018712915480136871, -0.009458733722567558, -0.002233728766441345, -0.04007323458790779, 0.022965185344219208, 0.014406196773052216, 0.04405798017978668, -0.014696781523525715, 0.02930043824017048, -0.0305126141756773, 0.02143050730228424, -0.010116728022694588, 0.015823544934391975, -0.019428374245762825, 0.005540391430258751, 0.008662608452141285, 0.035814911127090454, -0.0005704694194719195, -0.059407494962215424, 0.031183743849396706, -0.017425766214728355, -0.030397051945328712, 0.011271614581346512, -0.01517392136156559, 0.007794261910021305, -0.014868905767798424, 0.02577873505651951, 0.0016136190388351679, 0.020956244319677353, -0.01202935166656971, 0.010777758434414864, 0.038593392819166183, -0.007375124841928482, 0.030068008229136467, -0.008876443840563297, -0.010028642602264881, 0.039123088121414185, -0.001973748207092285, -0.011571482755243778, -0.007381320931017399, 0.003161706030368805, 0.01875252090394497, -0.03541647270321846, 0.04426734521985054, -0.03873971477150917, -0.014576124958693981, 0.01239290926605463, 0.018214374780654907, -0.007759378757327795, -0.023996755480766296, 0.001656077802181244, -0.005290122237056494, 0.0025497963652014732, -0.03963521867990494, -0.0214341152459383, 0.021609097719192505, -0.014829096384346485, 0.008734162896871567, 0.011057102121412754, -0.03059312514960766, 0.06650351732969284, -0.014842197299003601, 0.026237940415740013, -0.004277534317225218, -0.027177713811397552, 0.019838232547044754, 0.025139769539237022, -0.0002573214878793806, -0.009094716981053352, -0.01785149797797203, -0.0025004332419484854, 0.01413167454302311, -0.030180297791957855, -0.00845955591648817, 0.011912703514099121, 0.014661319553852081, -0.03460821881890297, 0.011997746303677559, 0.02946815825998783, -0.0060965754091739655, 0.040941014885902405, 0.02706386148929596, -0.0023250128142535686, 0.010079379193484783, 0.03830205276608467, 0.04819530248641968, 0.006270802579820156, -0.004945776425302029, 0.04093097522854805, 0.01436576433479786, -0.01816793531179428, 0.011776663362979889, -0.019286401569843292, -0.019364099949598312, 0.0029140710830688477, 0.03738953545689583, 0.01911548152565956, 0.004921755287796259, -0.02826007269322872, -0.021209219470620155, 0.007898207753896713, -0.007064496632665396, -0.025013722479343414, -0.032628096640110016, 0.02862265519797802, -0.014389303512871265, 0.016079779714345932, -0.024234212934970856, 0.006657616700977087, 0.01851462945342064, 0.016455568373203278, -0.007091486360877752, 0.026256753131747246, 0.015283126384019852, -0.000764504773542285, 0.013742898590862751, -0.01975390501320362, 0.00890602171421051, 0.004287160933017731, 0.023187655955553055, 0.02294107712805271, 0.009333179332315922, -0.0037034139968454838, 0.02104198932647705, 0.021446214988827705, 0.028831763193011284, -0.020507505163550377, 0.03288780897855759, -0.00023229754879139364, 0.03343014419078827, -0.042834632098674774, 0.044549427926540375, 0.015457549132406712, -0.007908320985734463, -0.004861162975430489, -0.011779925785958767, -0.02689780667424202, -0.004535013344138861, -0.019016025587916374, 0.003820236539468169, -0.016030238941311836, -0.022789301350712776, 0.009259575977921486, -0.027802009135484695, -0.017046650871634483, -0.002216920256614685, -0.0019302555592730641, 0.01994899846613407, 0.03088262677192688, -0.0270985160022974, -0.0243584793061018, -0.06656742095947266, -0.01281743310391903, 0.00042374085751362145, 0.041916634887456894, 0.06698369979858398, -0.004168540704995394, -0.020380297675728798, 0.019312214106321335, 0.006827109958976507, 0.005211361218243837, -0.03999851644039154, -0.0015962965553626418, 0.02800421603024006, -0.029543278738856316, -0.022541794925928116, -0.04379943385720253, -0.009526878595352173, -0.01989288628101349, 0.029430339112877846, -0.0043222480453550816, -0.03838333860039711, 0.011689471080899239, 0.03750654682517052, -0.02045007050037384, -0.028101233765482903, -0.04123539477586746, -0.012263396754860878, 0.021473677828907967, 0.0035701629240065813, 0.016188733279705048, -0.0039564636535942554, 0.015551822260022163, 0.04036902263760567, -0.013653441332280636, 0.01852881908416748, 0.005249778274446726, 0.014760354533791542, 0.05174180120229721, -0.014599735848605633, 0.024125704541802406, 0.0008279607282020152, 0.007027147803455591, -0.00711641414090991, -0.01911834068596363, 0.0340644009411335, -0.02716667391359806, 0.03884156420826912, -0.011143759824335575, 0.016860507428646088, -0.009779592975974083, 0.02256346121430397, -0.0038892249576747417, 0.00016533372399862856, -0.00837765820324421, -0.021071847528219223, 0.00737566826865077, -0.05770885944366455, -0.03473339602351189, 0.044796012341976166, -0.054395996034145355, 0.03719326853752136, 0.005388727877289057, 0.014012768864631653, -0.007244267500936985, -0.001032710075378418, 0.05927363783121109, 0.00733759393915534, 0.010148363187909126, 0.05326231196522713, -0.01319071277976036, 0.010090962052345276, 0.003348513739183545, 0.014864596538245678, 0.011283430270850658, -0.01886828988790512, -0.027689790353178978, 0.03538750112056732, -0.04268617555499077, 0.00863015465438366, -0.07383774220943451, 0.012696855701506138, 0.03221430256962776, -0.020150667056441307, -0.001749354531057179, 0.00045079781557433307, -0.013798399828374386, 0.021371982991695404, -0.06554906070232391, 0.01222455594688654, -0.02767033502459526, 0.001053135609254241, -0.06913377344608307, -0.005469370633363724, 0.011528649367392063, 0.0013014291180297732, 0.010193339549005032, 0.039850737899541855, 0.05452857166528702, 0.01580914296209812, 0.006584797520190477, -0.02138686180114746, 0.037212684750556946, -0.01335901953279972, -0.003004886908456683, -0.03940415382385254, 0.04491449147462845, -0.02410534955561161, -0.023617394268512726, -0.0028886287473142147, 0.007504090666770935, 0.02684304118156433, 0.007800738327205181, 0.028552232310175896, 0.007450428791344166, -0.024036884307861328, -0.021806906908750534, -0.044972289353609085, -0.011018968187272549, 0.021083923056721687, -0.034568335860967636, 0.02205822430551052, -0.013698373921215534, 0.03779229521751404, 0.008889911696314812, 0.08515647798776627, 0.01935511641204357, -0.030036427080631256, -0.010346437804400921, 0.01606304571032524, -0.03457250818610191, 0.04870796203613281, 0.023537497967481613, 0.06092098355293274, 0.048260293900966644, 0.01555334497243166, 0.032626423984766006, 0.03792271018028259, 0.0034591483417898417, -0.0015844106674194336, -0.05027981474995613, -0.028472164645791054, -0.014234881848096848, -0.05821982026100159, -0.0938868299126625, 0.03585883229970932, 0.009450382553040981, 0.051207710057497025, -0.010803861543536186, -0.03601804003119469, -0.009853078983724117, -0.01871902123093605, 0.04923643916845322, 0.037571340799331665, -0.10438501089811325, 0.046909481287002563, 2.7962278181803413e-05, 0.02069590613245964, -0.05492541566491127, -0.05959809198975563, 0.0030431540217250586, 0.0005026560975238681, 0.0065168095752596855, 0.022844433784484863, 0.001315696514211595, -0.045604951679706573, 0.046502042561769485, -0.042102765291929245, -0.03012150712311268, -0.03480489179491997, 0.04574419930577278, -0.06923035532236099, -0.044052351266145706, 0.02824600413441658, 0.013284897431731224, 0.016168249770998955, -0.03209858760237694, 0.057609353214502335, -0.013884289190173149, -0.007796555291861296, 0.014901232905685902, -0.01936458982527256, -0.011236709542572498, 0.02634447067975998, -0.02458643540740013, 0.07774185389280319, 0.009361560456454754, -0.0187701266258955, 0.011329800821840763, 0.009614728391170502, -0.0427701361477375, -0.03400467708706856, -0.022556811571121216, 0.026154324412345886, -0.06437622010707855, -0.029506172984838486, -0.01841585710644722, -0.028311671689152718, 0.06609344482421875, -0.007708259858191013, -0.029905036091804504, 0.0003925292403437197, -0.030852114781737328, -0.02308773808181286, 0.01219786237925291, -0.05508047714829445, -0.01686442829668522, -0.02181754633784294, -0.03702137619256973, -0.018369657918810844, -0.018928034231066704, -0.0128415422514081, -0.009299368597567081, 0.02819807082414627, 0.03571649268269539, -0.042264267802238464, 0.04683952033519745, 0.02859237603843212, -0.015633348375558853, 0.030707435682415962, 0.010786143131554127, 0.012272309511899948, -0.04612352326512337, -0.03309718519449234, 0.001022332813590765, 0.005396680440753698, -0.0007535825134254992, -0.038242608308792114, 0.06033169478178024, -0.09784618765115738, 0.009227363392710686, 0.02193674072623253, 0.00740743987262249, 0.014912422746419907, 0.03807670623064041, -0.04569077491760254, -0.0022101374343037605, -0.05809256061911583, -0.014281158335506916, 0.01616189070045948, 0.04023980349302292, -1.6656562365824357e-05, -0.03382692113518715, -0.007679269183427095, -0.014161947183310986, -0.007865950465202332, -0.004297569859772921, 0.06366052478551865, 0.005202750209718943, -0.06599549949169159, -0.02661333791911602, -0.032111331820487976, 0.001601324649527669, 0.040929120033979416, 0.07986917346715927, -0.009657970629632473, 0.04477128013968468, -0.05497359111905098, -0.07525201886892319, 0.014454451389610767, -0.02281549759209156, -0.042781125754117966, -0.006418291013687849, -0.0010858330642804503, -0.12157819420099258, -0.010541288182139397, 0.11768870800733566, -0.007662846706807613, -0.07133114337921143, 0.0061342958360910416, -0.066275954246521, 0.015188910067081451, -0.05132365971803665, -0.012271068058907986, -0.01224990002810955, -0.015062104910612106, 0.04243979603052139, -0.05150526016950607, -0.13508076965808868, -0.021580036729574203, -0.06858707964420319, 0.08415136486291885, 0.020682156085968018, 0.06754661351442337, 0.11952652782201767, 0.12365920096635818, 0.03706299513578415, -0.010610717348754406, 0.04880993813276291, 0.01253272220492363, 0.05720185860991478, 0.030549803748726845, -0.055813759565353394, 0.07181436568498611, -0.0022447765804827213, -0.06654874980449677, -0.004862114787101746, 0.003072019899263978, -0.033353742212057114, 0.005407555960118771, -0.15006044507026672, -0.0029385320376604795, 0.05855114758014679, 0.10457495599985123, -0.08029711991548538, 0.06502088904380798, 0.037081729620695114, 0.009152102284133434, -0.037635017186403275, 0.010179631412029266, -0.009230252355337143, -0.047960419207811356, -0.053611259907484055, -0.06374023854732513, 0.009804314002394676, 0.016402866691350937, 0.0024390448816120625, 0.028215529397130013, -0.011772370897233486, -0.020773643627762794, -0.02776663564145565, -0.0020868435967713594, -0.02005288004875183, -0.012704310938715935, 0.00410283962264657, 0.007311149500310421, 0.016063710674643517, 0.007737886626273394, -0.01434486173093319, 0.01763191446661949, -0.012063159607350826, 0.014265174977481365, 0.009555518627166748, 0.010602880269289017, -0.06266212463378906, 0.036459002643823624, -0.008789816871285439, 0.02849932760000229, 0.008028700016438961, -0.04738477244973183, -0.009955563582479954, -0.008365828543901443, -0.02425713650882244, 0.05383997783064842, -0.01535462960600853, 0.009965267032384872, -0.029644543305039406, -0.013757078908383846, 0.03098631277680397, -0.016388408839702606, 0.02093123272061348, -0.03613761439919472, -0.00038453665911220014, -0.0076002986170351505, 0.010029807686805725, 0.010459606535732746, -0.008392459712922573, 0.014265388250350952, -0.015734132379293442, -0.05313386768102646, -0.016530977562069893, -0.006442328914999962, -0.03281474485993385, 0.010837939567863941, 0.005236719269305468, 0.04802418127655983, 0.0012477755080908537, 0.03383174166083336, 0.025865603238344193, 0.025359196588397026, 0.03036087565124035, 0.01622762158513069, -0.029009323567152023, -0.0356883704662323, 0.02090771682560444, -0.024177145212888718, 0.0058059669099748135, -0.039063841104507446, -0.05334700644016266, 0.11772996932268143, -0.009288030676543713, 0.1489395797252655, -0.015868566930294037, -0.13312605023384094, 0.08065874129533768, 0.05471176654100418, 0.05194368585944176, 0.05451873689889908, -0.03218476474285126, 0.17319540679454803, 0.06968054920434952, -0.07485847920179367, 0.10834143310785294, 0.04007301107048988, 0.011120645329356194, -0.040988679975271225, -0.09195262938737869, -0.029097389429807663, -0.1174432560801506, -0.08939280360937119, -0.11351945251226425, 0.09186020493507385, 0.08457779139280319, 0.08617820590734482, -0.0803961530327797, -0.05658362805843353, 0.026368776336312294, 0.0011034406488761306, -0.02771834470331669, 0.07072640210390091, -0.03263964131474495, -0.060751572251319885, 0.016841387376189232, 0.034786712378263474, -0.05228927731513977, -0.030304698273539543, 0.03662952408194542, 0.01782490871846676, 0.02841012179851532, -0.004022177308797836, -0.005305123049765825, -0.023744696751236916, 0.05719219148159027, -0.09635329991579056, 0.04650156944990158, -0.11223039031028748, 0.006231341045349836, -0.07788001000881195, -0.06688399612903595, 0.034106552600860596, -0.022606294602155685, 0.019002368673682213, -0.05077625811100006, 0.07567805051803589, -0.014508436433970928, -0.008042918518185616, -0.012780687771737576, -0.08954416960477829, -0.02702474594116211, 0.10215068608522415, 0.03376619517803192, 0.13365484774112701, -0.13894544541835785, -0.13687491416931152, 0.03321273997426033, 0.03081388957798481, -0.1846112459897995, -0.1092962920665741, -0.0631895512342453, 0.041552409529685974, -0.18075327575206757, -0.1981012225151062, -0.07259645313024521, -0.4318159520626068, 0.14234308898448944, 0.1350235491991043, -0.02625316008925438, -0.08159796893596649, -0.12147267907857895, 0.18859805166721344, 0.274225115776062, -0.1414739340543747, 0.06871560961008072, 0.18320384621620178, 0.13929304480552673, 0.06398212164640427, -0.17495843768119812, 0.04980776831507683, -0.01737576723098755, 0.1314498782157898, 0.23182326555252075, 0.09683863818645477, 0.10404004901647568, -0.21218886971473694, 0.080704465508461, 0.09518607705831528, -0.15819910168647766, 0.0006463055033236742, -0.14748674631118774, 0.10638418048620224, -0.004316878970712423, -0.06054925546050072, -0.20839640498161316, -0.06344986706972122, 0.13625290989875793, -0.1011456549167633, 0.02407529018819332, 0.2020493894815445, 0.2114800214767456, -0.010510697029531002, 0.0012759807286784053, -0.03769398108124733, 0.144444540143013, -0.06445148587226868, 0.047005534172058105, 0.04861660301685333, 0.029822437092661858, -0.17069122195243835, -0.10247436910867691, 0.015957463532686234, 0.13850733637809753, 0.02893723174929619, 0.0677160769701004, -0.04290538653731346, 0.08907805383205414, -0.13019797205924988, 0.13819395005702972, -0.06179865077137947, 0.030224185436964035, -0.31248798966407776, -0.03186318650841713, -0.056373607367277145, 0.08486394584178925, 0.0436662882566452, 0.20508016645908356, -0.3216990828514099, 0.14676545560359955, -0.11577456444501877, 0.1566137969493866, -0.02834644354879856, 0.023426083847880363, 0.2858002185821533, -0.18139293789863586, 0.21130871772766113, 0.09728343039751053, 0.0844995304942131, 0.16950634121894836, -0.1463913470506668, 0.03512906655669212, 0.30861204862594604, -0.11822036653757095, -0.21605318784713745, -0.13809534907341003, 0.1214267909526825, 0.07457077503204346, 0.10011424124240875, 0.06572357565164566, -0.06514430791139603, 0.2182803601026535, -0.12915019690990448, -0.12313259392976761, -0.11599932610988617, -0.07374257594347, -0.18993182480335236, -0.02805235981941223, -0.10436386615037918, -0.2227448970079422, 0.04149101674556732, -0.06858837604522705, 0.03161275014281273, 0.04684896767139435, 0.305827260017395, 0.0074882847256958485, 0.3055949807167053, 0.1541311889886856, 0.22065448760986328, -0.02260325849056244, 0.001273282920010388, -0.01968519203364849, -0.20098474621772766, -0.030507678166031837, -0.07210426032543182, -0.15717509388923645, -0.13381044566631317, 0.01129519660025835, -0.0381496325135231, 0.05249952897429466, -0.04277019202709198, -0.1679680496454239, 0.017603853717446327, 0.10175761580467224, 0.11095689237117767, -0.012657311744987965, -0.26725730299949646, -0.031151344999670982, 0.07349423319101334, -0.04345082491636276, 0.06678686290979385, 0.08319578319787979, -0.1787993311882019, 0.10307000577449799, -0.08890920877456665, 0.13989971578121185, 0.029924096539616585, 0.02909933589398861, 0.1080099567770958, 0.0073788766749203205, -0.0716177374124527, 0.047765303403139114, 0.050307489931583405, 0.14905945956707, -0.1073574498295784, 0.09840127825737, -0.1357872486114502, -0.1259322613477707, -0.3629871606826782, -0.06124009191989899, 0.061192587018013, -0.13796189427375793, 0.09660784900188446, 0.06923024356365204, 0.03413548693060875, 0.03705315664410591, 0.1226053237915039, -0.057701896876096725, -0.021398095414042473, 0.009331799112260342, -0.06233601272106171, -0.08622976392507553, 0.11470977216959, -0.05137567222118378, 0.12392392009496689, 0.01792478747665882, -0.004674817901104689, 0.03787540644407272, 0.11155758053064346, -0.10738077759742737, 0.06046505644917488, 0.10701777786016464, 0.02991361916065216, -0.16698001325130463, 0.09757498651742935, 0.026364685967564583, 0.05839474871754646, 0.004363758489489555, 0.14379985630512238, -0.10254555195569992, 0.0026240467559546232, 0.025253692641854286, -0.0719461515545845, 0.02330057881772518, 0.0630449652671814, -0.22852468490600586, 0.03031475469470024, -0.0025982214137911797, -0.0019341708393767476, -0.01031095813959837, 0.17833159863948822, 0.04732225835323334, 0.04045037552714348, -0.04982515424489975, -0.18239261209964752, -0.049053341150283813, 0.19070160388946533, -0.0013385629281401634, -0.0011149741476401687, -0.099486343562603, 0.023132098838686943, -0.01057865098118782, -0.12377827614545822, 0.10412754118442535, -0.033403243869543076, -0.042096249759197235, 0.020333711057901382, -0.027922436594963074, 0.09070656448602676, 0.019070157781243324, -0.11324181407690048, 0.11494345963001251, 0.10564463585615158, 0.10197321325540543, -0.21606986224651337, -0.1238613873720169, -0.03422938659787178, -0.08022978156805038, 0.06673027575016022, -0.012600439600646496, 0.07592672109603882, 0.2741581201553345, -0.012715981341898441, 0.04132082313299179, 0.03544646129012108, -0.0057703047059476376, -0.07349590957164764, 0.07523857057094574, 0.021328656002879143, -0.0007154684280976653, 0.0505664087831974, -0.10221393406391144, -0.21132563054561615, -0.13643114268779755, -0.10834012925624847, -0.033882997930049896, 0.020213229581713676, -0.0702810138463974, 0.00957538466900587, -0.012546589598059654, 0.011157341301441193, -0.046035200357437134, 0.0007816674187779427, 0.11739850789308548, 0.1542862355709076, -0.06474186480045319, -0.017475977540016174, 0.0030650917906314135, -0.044050946831703186, 0.04363665729761124, -0.019590279087424278, 0.06769636273384094, -0.21303783357143402, -0.004182846751064062, 0.03795459493994713, -0.21255303919315338, 0.09160701185464859, 0.0713656097650528, -0.0013625356368720531, -0.29068127274513245, 0.048540063202381134, -0.20087826251983643, -0.06538647413253784, -0.1575126200914383, 0.10104148089885712, -0.05015005171298981, -0.37547340989112854, 0.17036066949367523, -0.05490909144282341, 0.12690162658691406, -0.17164729535579681, -0.18645410239696503, 0.2380903661251068, 0.16552495956420898, -0.090220607817173, 0.042748063802719116, 0.06203058734536171, 0.122806116938591, 0.2074689418077469, 0.20083113014698029, -0.15086093544960022, -0.05817290022969246, -0.16190071403980255, -0.12401529401540756, -0.10064095258712769, -0.18517272174358368, -0.2541544735431671, 0.08531631529331207, 0.12197429686784744, 0.07382985949516296, -0.18827512860298157, 0.031521447002887726, -0.048138972371816635, 0.13070063292980194, 0.0602848194539547, -0.10506638884544373, 0.20934468507766724, 2.4614952053525485e-05, -0.03774798661470413, -0.07935113459825516, 0.06271117925643921, 0.4281722903251648, -0.047837987542152405, -0.0024802612606436014, 0.10852829366922379, 0.1756075620651245, -0.15035071969032288, 0.15189409255981445, 0.2880938649177551, -0.0016442888882011175, 0.1282767504453659, 0.028322484344244003, -0.21440880000591278, 0.2774578928947449, 0.005150696262717247, 0.09901037812232971, 0.1031840443611145, 0.041408929973840714, -0.03330320492386818, 0.0034847347997128963, 0.06277912110090256, 0.0007187320734374225, -0.01227901317179203, -0.06566870957612991, 0.07504817098379135, 0.09114064276218414, 0.10796144604682922, -0.005810113158077002, -0.04307129606604576, -0.008752998895943165, 0.04193829745054245, 0.01963331364095211, 0.01827310398221016, -0.10429719090461731, -0.07118983566761017, -0.027845796197652817, -0.08318055421113968, -0.019378364086151123, -0.09484130889177322, 0.07973753660917282, 0.05154139921069145, -0.0014893746702000499, -0.0848546102643013, -0.07277801632881165, -0.006871881894767284, 0.015775691717863083, 0.08326977491378784, -0.10210718214511871, -0.06105721741914749, -0.07357557117938995, 0.044097937643527985, 0.024294313043355942, 0.01986856386065483, -0.1006050780415535, 0.1303417682647705, 0.0706852525472641, 0.0471840500831604, -0.1152329370379448, 0.03484096750617027, 0.001671370817348361, -0.09886593371629715, 0.0016650939360260963, -0.041027896106243134, -0.03217226639389992, -0.06823292374610901, 0.04084908589720726, 0.06351418048143387, 0.007019041106104851, 0.006811267696321011, 0.029235711321234703, 0.11019881069660187, 0.0745801031589508, -0.07938085496425629, -0.09868777543306351, -0.08886047452688217, -0.1409534364938736, 0.13369935750961304, 0.007728558965027332, 0.06656599044799805, -0.06164122372865677, 0.056083936244249344, 0.006081779487431049, 0.10319866985082626, 0.0027713337913155556, 0.0026354521978646517, 0.008648023940622807, 2.5761512006283738e-05, 0.0018039970891550183, 0.03347628936171532, -0.000809262681286782, 0.07642577588558197, -0.0008061420521698892, -0.04350273311138153, 0.057187069207429886, 0.018338525667786598, 0.01757536455988884, 0.023650361225008965, -0.011789936572313309, -0.008518649265170097, -0.010699369944632053, -0.05505562946200371, -0.031355299055576324, -0.053705666214227676, 0.026562577113509178, 0.0566987544298172, -0.06049386039376259, -0.015491388738155365, 0.047974843531847, -0.021663323044776917, 0.01129267830401659, 0.0049271732568740845, -0.060667674988508224, -0.04104430601000786, -0.009625018574297428, -0.026233958080410957, -0.034487415105104446, -0.03158169612288475, 0.0224167350679636, 0.03678203746676445, -0.01856393925845623, 0.0024233271833509207, 0.007493770681321621, -0.011719638481736183, 0.022033190354704857, -0.0685926228761673, 0.06360665708780289, -0.03213582560420036, 0.008570385165512562, -0.04389262944459915, 0.025927476584911346, 0.02253848873078823, -0.012884791009128094, 0.0006613292498514056, -0.05762653425335884, 0.0024664809461683035, -0.0752619057893753, -0.058611053973436356, 0.01294461265206337, -0.02980647049844265, -0.042882416397333145, 0.08110390603542328, 0.003237920580431819, 0.0804242342710495, -0.029775984585285187, -0.05108793452382088, 0.021175969392061234, 0.07840833812952042, -0.045075710862874985, -0.021022258326411247, 0.09352453798055649, 0.03634657338261604, -0.06634392589330673, -0.05557182803750038, -0.14635001122951508, -0.08253052830696106, 0.18015512824058533, 0.04754842817783356, 0.010810504667460918, -0.019169969484210014, -0.014094862155616283, 0.018799692392349243, 0.12836138904094696, -0.127980574965477, 0.00810061302036047, -0.00936153531074524, 0.024053387343883514, 0.03375536575913429, -0.05040551722049713, 0.053230784833431244, -0.11524555087089539, 0.08301956206560135, 0.12353505939245224, -0.06122082099318504, 0.030455514788627625, -0.09806134551763535, 0.09671994298696518, 0.03933769837021828, -0.0031661386601626873, 0.09324738383293152, -0.04630904272198677, 0.0724422037601471, -0.020449772477149963, -0.018028980121016502, -0.07597468048334122, -0.11489703506231308, -0.016319381073117256, -0.10588273406028748, 0.024618227034807205, 0.08374437689781189, 0.11864306032657623, 0.06265811622142792, -0.054764799773693085, -0.12677864730358124, 0.11257495731115341, -0.06534760445356369, 0.060706257820129395, -0.0456480011343956, -0.058655720204114914, -0.09581335633993149, -0.09947190433740616, -0.04510197415947914, 0.020917050540447235, 0.12067582458257675, 0.032768432050943375, 0.00047866092063486576, 0.09009826183319092, -0.15276139974594116, -0.035216815769672394, -0.09875732660293579, 0.007864697836339474, -0.3556075692176819, 0.09462229162454605, 0.005856700241565704, -0.05207591503858566, 0.1597931683063507, 0.22502557933330536, 0.1652609407901764, -0.06333298981189728, -0.26028817892074585, -0.09663210809230804, -0.15207920968532562, 0.010256579145789146, 0.07730697095394135, -0.028706878423690796, -0.09614028036594391, 0.07911639660596848, 0.35715457797050476, -0.04151415079832077, 0.21032723784446716, 0.017441997304558754, -0.0217459574341774, 0.012531415559351444, 0.13913153111934662, -0.029657572507858276, 0.03488370031118393, -0.07384874671697617, 0.006065060384571552, 0.054998062551021576, -0.05944118648767471, 0.17205967009067535, -0.039450302720069885, -0.1857207864522934, -0.12082400172948837, -0.16698800027370453, 0.13937973976135254, 0.13236922025680542, -0.023712612688541412, -0.28508085012435913, 0.1274815797805786, 0.14010845124721527, -0.06125671789050102, 0.06279418617486954, 0.0781514048576355, -0.13348248600959778, 0.06638555973768234, -0.03041764162480831, 0.007544464431703091, 0.2063567042350769, -0.08011183887720108, 0.04130801185965538, -0.10869484394788742, -0.03416129946708679, -0.16171294450759888, -0.10834050923585892, 0.09066154807806015, 0.11974094808101654, 0.056710369884967804, 0.2811721861362457, -0.0020652622915804386, -0.2653392553329468, -0.061510615050792694, 0.017705870792269707, 0.023543838411569595, -0.021997790783643723, 0.036845650523900986, -0.039149362593889236, 0.013343586586415768, -0.033594515174627304, 0.010307484306395054, -0.09358958899974823, 0.032610900700092316, 0.059466488659381866, 0.15294629335403442, -0.04281755909323692, -0.06664450466632843, 0.04087714105844498, 0.02956618368625641, 0.03668782860040665, 0.013806373812258244, -0.03416244685649872, 0.04120558127760887, -0.05271144583821297, 0.01431161817163229, -0.03617372363805771, 0.006103129591792822, 0.036012113094329834, 0.10490026324987411, 0.05111106485128403, -0.08994961529970169, 0.022508252412080765, -0.001991138095036149, -0.05138339474797249, -0.05431563779711723, -0.11746218800544739, -0.08875603973865509, 0.019847217947244644, -0.07840610295534134, -0.10854637622833252, -0.04150759428739548, 0.03874406963586807, 0.0064442772418260574, -0.014859234914183617, 0.04616186395287514, 0.04267874360084534, 0.0405287928879261, 0.0365796759724617, -0.04877917096018791, 0.08420650660991669, -0.07152632623910904, -0.01541287824511528, 0.013077479787170887, 0.05459761619567871, 0.026955192908644676, -0.01039646752178669, 0.010287449695169926, -0.005440205335617065, -0.05180894583463669, 0.059234458953142166, 0.10440149158239365, -0.036201752722263336, -0.11545228958129883, 0.03071649931371212, 0.0003280997334513813, 0.009707488119602203, -0.0045409006997942924, 0.06599346548318863, 0.05249853432178497, 0.03820100799202919, 0.05450984463095665, 0.03747161477804184, -0.02712811902165413, 0.01059676893055439, -0.02122352086007595, 0.07392916828393936, 0.014449307695031166, 0.05253354460000992, 0.04744355380535126, 0.043586503714323044, -0.047878410667181015, -0.01714346930384636, 0.02104661799967289, 0.011415855027735233, 0.02568916231393814, -0.01065477728843689, 0.032036419957876205, -0.003869704669341445, -0.019183384254574776, -0.016268299892544746, 0.018913306295871735, 0.0555708184838295, 0.03387846052646637, 0.0002080613630823791, -0.0006126021617092192, -0.028851481154561043, -0.01956050470471382, 0.03495579957962036, 0.019325492903590202, -0.021066831424832344, -0.06949115544557571, 0.05929940938949585, 0.045591916888952255, -0.05477190762758255, -0.08539513498544693, -0.017574520781636238, 0.06649458408355713, -0.020072296261787415, 0.048329323530197144, 0.006396460346877575, 0.018357647582888603, 0.030445775017142296, -0.10311965644359589, -0.011562824249267578, -0.04032691940665245, 0.048052072525024414, -0.011396525427699089, 0.0015226183459162712, -0.01692892238497734, 0.023108521476387978, -0.012043862603604794, -0.01737423986196518, 0.012628564611077309, -0.02001909352838993, -0.02936236932873726, 0.01282076071947813, -0.035225920379161835, -0.01627464033663273, 0.04014034569263458, -0.079107366502285, -0.003762975335121155, 0.3530162572860718, 0.013577845878899097, -0.044798970222473145, -0.19110026955604553, 0.10567297786474228, 0.014720069244503975, 0.010217874310910702, -0.11931843310594559, 0.08388292789459229, -0.1828654259443283, 0.16768740117549896, -0.12398481369018555, 0.05380425229668617, 0.09647537767887115, -0.09683272242546082, 0.13484950363636017, -0.2215287834405899, 0.17800647020339966, 0.014368142932653427, -0.06250307708978653, 0.25531530380249023, -0.19177952408790588, 0.0001176024234155193, -0.03597737103700638, -0.12751489877700806, -0.1971004605293274, 0.0424812026321888, 0.04169119521975517, -0.13770519196987152, 0.07197253406047821, 0.08865145593881607, -0.08215776085853577, -0.022664906457066536, 0.06360726803541183, 0.031011460348963737, -0.008869056589901447, -0.011153444647789001, -0.056094199419021606, -0.12992632389068604, 0.19116584956645966, -0.012660562060773373, 0.11449376493692398, -0.0520518533885479, 0.12628088891506195, -0.11082961410284042, 0.0813416987657547, -0.04121020808815956, 0.19390319287776947, -0.04477666690945625, 0.19776123762130737, -0.018057402223348618, 0.025725938379764557, -0.09830152243375778, 0.06000004708766937, 0.06291896104812622, 0.012501388788223267, -0.03893690183758736, -0.044619105756282806, -0.027816416695713997, 0.013766600750386715, 0.11191757768392563, -0.03983417525887489, -0.16320963203907013, 0.1410069465637207, 0.023980701342225075, -0.25831323862075806, 0.04724828526377678, -0.06816577166318893, -0.07019006460905075, 0.09509178251028061, 0.030201073735952377, -0.02097250521183014, 0.013724603690207005, -0.0025563687086105347, 0.015231861732900143, -0.18759889900684357, -0.07858720421791077, 0.08350007981061935, -0.22398382425308228, -0.2243890017271042, -0.009017031639814377, 0.043449658900499344, 0.024071840569376945, -0.0457950159907341, 0.07531589269638062, 0.08351430296897888, 0.166283518075943, -0.170785054564476, 0.023574955761432648, -0.12576115131378174, -0.01940860226750374, 0.09699331969022751, 0.1546739786863327, 0.027733441442251205, -0.01533529907464981, -0.017182491719722748, 0.17775510251522064, 0.032914988696575165, 0.04517390951514244, -0.030329294502735138, 0.07886479049921036, 0.021352555602788925, -0.04933508113026619, -0.07674422115087509, 0.009791218675673008, -0.09607895463705063, 0.13611264526844025, -0.05441928282380104, -0.13678695261478424, 0.028715256601572037, -0.06049244850873947, 0.0729152113199234, -0.13596801459789276, 0.0018540304154157639, 0.03919451683759689, -0.23167721927165985, -0.08836470544338226, -0.07292735576629639, 0.1685972362756729, -0.09095186740159988, 0.14282190799713135, 0.1351429969072342, 0.03753669932484627, 0.20887406170368195, -0.0715518519282341, -0.13971832394599915, 0.12553562223911285, 0.1242147907614708, -0.07586042582988739, -0.06703508645296097, -0.015684138983488083, 0.12240811437368393, -0.11943469196557999, -0.05220488831400871, -0.024133797734975815, 0.07941366732120514, -0.0216562207788229, -0.039071787148714066, -0.016458114609122276, 0.057919617742300034, -0.1178710088133812, 0.01616491563618183, 0.015660449862480164, -0.13266225159168243, 0.0675649493932724, -0.07677160203456879, 0.002640936989337206, 0.01521892286837101, -0.028728062286973, 0.008353465236723423, 0.07877437025308609, 0.004657656420022249, -0.025376347824931145, 0.07138704508543015, 0.03920964151620865, 0.06758545339107513, 0.11117681115865707, -0.004378142300993204, 0.027579544112086296, 0.013831068761646748, -0.009981384500861168, -0.05898924544453621, 0.0535559356212616, -0.08118662238121033, -0.049831561744213104, 0.0033873722422868013, 0.01779104396700859, -0.11331801861524582, 0.06333339959383011, -0.034064341336488724, -0.025434132665395737, -0.06351850926876068, -0.022217275574803352, -0.023071186617016792, 0.08432121574878693, -0.15857075154781342, -0.028587326407432556, -0.045488141477108, 0.10300599038600922, -0.02954242378473282, -0.06987739354372025, -0.00103879370726645, 0.024013999849557877, -0.030209558084607124, 0.07314512133598328, 0.06770465523004532, 0.09076860547065735, -0.014049068093299866, 0.059053365141153336, -0.09255033731460571, 0.019745172932744026, 0.026403799653053284, 0.01426809560507536, -0.025812387466430664, -0.008616209961473942, 0.04336801543831825, -0.005631148815155029, -0.0014357920736074448, -0.018592067062854767, -0.01463672611862421, -0.01552310585975647, -0.007369978819042444, -0.04934605583548546, 0.03321089595556259, 0.017084389925003052, -0.021104350686073303, 0.015239328145980835, 0.007749343756586313, 0.028226638212800026, -0.01928033120930195, 0.015153097920119762, -0.042767178267240524, -0.02515062317252159, -0.009906505234539509, -0.06375209987163544, -0.007065758574754, 0.018274258822202682, 0.054761987179517746, -0.05144244432449341, -0.018071170896291733, 0.014189322479069233, -0.027701588347554207, -0.01447946298867464, 0.04266735911369324, -0.0424756221473217, -0.017934685572981834, -0.05232176557183266, 0.03156763315200806, -0.012915843166410923, 0.0012456447584554553, 0.0008723236387595534, -0.021641572937369347, 0.06347993016242981, -0.038125015795230865, 0.009548267349600792, -0.01952413097023964, 0.03086254373192787, -0.021388208493590355, -0.007633718196302652, -0.030877571552991867, -0.006803752388805151, -0.05805399641394615, -0.0007817471050657332, 0.01694933883845806, 0.011495035141706467, -0.004785908851772547, -0.00928278174251318, -0.0357527993619442, -0.022461142390966415, -0.0298917293548584, -0.0061416346579790115, -0.019047299399971962, -0.029173221439123154, -0.015957465395331383, -0.0073729162104427814, -0.0004539057263173163, -0.06797067821025848, -0.040131404995918274, -0.005314043257385492, 0.11819224804639816, 0.02631615288555622, -0.09456956386566162, -0.021167125552892685, -0.026960209012031555, 0.042685214430093765, 0.009025013074278831, -0.06720742583274841, 0.005848430097103119, 0.002746137324720621, -0.061736565083265305, 0.052891988307237625, -0.027248932048678398, 0.06946055591106415, -0.03213387355208397, -0.028201038017868996, 0.06770015507936478, -0.06778697669506073, 0.015589639544487, -0.027740824967622757, -0.0069179898127913475, 0.003739539999514818, 0.03154220059514046, 0.006265486124902964, -0.006841795053333044, -0.0005465811118483543, 0.006323628593236208, 0.04993557184934616, 0.006668072193861008, 0.037426769733428955, 0.004995546769350767, 0.05623650550842285, -0.05537757650017738, -0.003920672461390495, -0.018259793519973755, 0.07692794501781464, -0.04057895764708519, -0.013149927370250225, 0.005696563515812159, 0.02025972306728363, -0.024378295987844467, 0.020138448104262352, -0.008282952941954136, 0.05978764593601227, -0.06975176930427551, 0.021072542294859886, -0.004698778968304396, -0.10311441123485565, -0.03322603553533554, -0.017646033316850662, 0.0715845376253128, 0.013895566575229168, -0.017276141792535782, -0.005484486930072308, 0.03865649923682213, 0.024104371666908264, 0.034463487565517426, 0.133978933095932, -0.026611747220158577, -0.0429195910692215, 0.023398173972964287, -0.03147020563483238, 0.05808360129594803, -0.03287968412041664, 0.11530835926532745, -0.009380588307976723, -0.01725687086582184, -0.02354264073073864, 0.004779968876391649, -0.035873182117938995, 0.03733457252383232, 0.019054071977734566, 0.10711401700973511, -0.024875417351722717, -0.08786556124687195, 0.02391953580081463, -0.02083161100745201, -0.018581850454211235, -0.05600680410861969, -0.03268977999687195, -0.027581170201301575, -0.02407762035727501, 0.01024024561047554, 0.02135142683982849, 0.009930342435836792, 0.0489458404481411, 0.11463985592126846, -0.011580240912735462, -0.06133071705698967, -0.04044332727789879, -0.04136579483747482, -0.019902609288692474, -0.0025626954156905413, -0.02618476189672947, -0.0011898562079295516, 0.0488603338599205, -0.0013766174670308828, -0.02245516888797283, -0.06628528982400894, -0.005270814523100853, 0.028919219970703125, 0.06904396414756775, 0.013195212930440903, 0.00525376433506608, -0.006057150196284056, -0.0017776996828615665, -0.10724443942308426, -0.016194602474570274, -0.02183009870350361, -0.017301667481660843, -0.011292990297079086, 0.04563943296670914, 0.019990194588899612, -0.010650986805558205, -0.006630606483668089, 0.011971651576459408, -0.022942211478948593, 0.010169049724936485, -0.009781761094927788, -0.021793002262711525, -0.021452492102980614, -0.051133107393980026, 0.06365504860877991, 0.06723319739103317, 0.06664014607667923, 0.0010612373007461429, 0.012721107341349125, 0.056711651384830475, -0.03793729096651077, 0.015612270683050156, 0.0546845905482769, 0.01011467445641756, 0.017017630860209465, -0.04296093434095383, -0.011433491483330727, 0.044267553836107254, -0.0352889820933342, -0.04897507652640343, 0.03871973603963852, -0.031454507261514664, -0.0023018652573227882, 0.03672413155436516, -0.004116090014576912, 0.07465076446533203, -0.03590099886059761, 0.01689506694674492, 0.04881054908037186, 0.06417006999254227, 0.09338994324207306, -0.06540436297655106, -0.056811656802892685, -0.02498420514166355, 0.008727533742785454, -0.009085052646696568, 0.0466173030436039, -0.07639133930206299, 0.03667309507727623, 0.06035260856151581, 0.021769916638731956, 0.008534993976354599, -0.02968631684780121, 0.08533499389886856, -0.0489906370639801, -0.08117102086544037, -0.06427673250436783, 0.01259304117411375, -0.0421963669359684, -0.14599059522151947, 0.03300529345870018, -0.042602963745594025, 0.052498023957014084, -0.1713266372680664, 0.0530850850045681, 0.0066430335864424706, 0.029607919976115227, 0.05370865389704704, -0.062209393829107285, 0.05560825765132904, -0.02980072610080242, -0.051021188497543335, 0.06705530732870102, 0.056622378528118134, -0.029948033392429352, -0.007816770114004612, 0.06488215178251266, -0.06452768296003342, -0.06389603018760681, 0.1060696542263031, 0.007707752753049135, -0.03457549214363098, -0.05641382560133934, 0.0006933130789548159, 0.02899909019470215, 0.04405023157596588, 0.03267092630267143, 0.05109991133213043, 0.009339585900306702, -0.04155987128615379, 0.012066195718944073, -0.09146695584058762, 0.0018624237272888422, -0.007844234816730022, -0.03248608484864235, -0.09572559595108032, -0.020581692457199097, 0.08838099986314774, -0.05245164409279823, -0.08165273815393448, -0.04419102519750595, -0.04145292937755585, 0.08108679950237274, -0.04840032756328583, 0.003042257158085704, 0.038551028817892075, -0.008725925348699093, -0.014596587978303432, -0.029478544369339943, 0.010094398632645607, -0.056727610528469086, -0.07550442963838577, 0.11834712326526642, -0.00461957510560751, 0.0288169514387846, 0.0378875806927681, 0.04847986623644829, 0.038319092243909836, 0.0249844491481781, -0.0050879656337201595, -0.01760702393949032, 0.07296843826770782, -0.06227593496441841, -0.010811303742229939, 0.0451706200838089, 0.03786572068929672, -0.04015807807445526, -0.02938724122941494, -0.03755578026175499, -0.027514908462762833, -0.013024713844060898, -0.005486067850142717, -0.019634010270237923, 0.07353859394788742, -0.02459839917719364, -0.025509009137749672, -0.037541572004556656, 0.02647361531853676, 0.009478986263275146, -0.05129895359277725, 0.03707686439156532, -0.006688127294182777, -0.03950077295303345, 0.04131362587213516, -0.08533429354429245, -0.07277805358171463, -0.07830850034952164, -0.0461324080824852, -0.08826316148042679, -0.10507088154554367, -0.013081930577754974, -0.09634310007095337, -0.05404016748070717, -0.014584710821509361, 0.0699690580368042, -0.07313394546508789, 0.041865017265081406, -0.10488205403089523, -0.02791202813386917, -0.04053741320967674, -0.1648857146501541, 0.08021613955497742, -0.02522922307252884, -0.10639770328998566, 0.08322762697935104, 0.08629041165113449, 0.04688158631324768, -0.013232617639005184, -0.10706285387277603, 0.12670786678791046, -0.10008963197469711, 0.2007584571838379, -0.04819657281041145, 0.044707417488098145, 0.09758427739143372, -0.0720265805721283, 0.039768654853105545, 0.0038498963695019484, -0.049896206706762314, -0.059256069362163544, -0.12340176105499268, 0.10889756679534912, 0.016759127378463745, 0.1086236834526062, -0.10691449791193008, 0.09016264230012894, 0.11743626743555069, 0.08124197274446487, 0.10951259732246399, 0.029075631871819496, 0.023361455649137497, 0.1259293556213379, -0.10125351697206497, 0.04975917935371399, 0.1232493445277214, -0.10472933202981949, 0.11677848547697067, -0.08713784068822861, -0.05425501987338066, 0.03753187134861946, -0.03984199836850166, 0.06042110547423363, 0.2001650631427765, -0.021232228726148605, 0.04722907394170761, 0.15532009303569794, -0.09126739203929901, -0.042505212128162384, -0.07585470378398895, -0.027127373963594437, -0.07824151962995529, 0.03953802213072777, 0.02895311452448368, 0.048817455768585205, 0.0042428732849657536, 0.06952716410160065, -0.04318976402282715, -0.11550525575876236, -0.06450977176427841, 0.01978381723165512, -0.09603269398212433, -0.03268159180879593, 0.0759887620806694, -0.0998951643705368, -0.02359081245958805, 0.04465925320982933, 0.0278937891125679, -0.049061838537454605, -0.0073088775388896465, -0.1360560953617096, 0.10226261615753174, 0.03325233981013298, -0.017375634983181953, -0.07363241165876389, 0.007767545059323311, 0.09852072596549988, -0.013354428112506866, -0.13300836086273193, -0.04591808840632439, -0.07823076844215393, 0.05344073101878166, 0.0037651374004781246, 0.0978444516658783, 0.0857899859547615, 0.10701192170381546, 0.05570670962333679, 0.07497509568929672, 0.11510849744081497, -0.004263614770025015, 0.055532608181238174, -0.06390199065208435, -0.05518126115202904, 0.0872596800327301, -0.06600361317396164, -0.07852862775325775, -0.12822325527668, 0.03311913087964058, -0.06449872255325317, 0.05874497815966606, -0.05602003261446953, -0.06409852206707001, 0.049977246671915054, 0.21174298226833344, -0.061898283660411835, 0.08152718096971512, 0.1746578812599182, 0.010358691215515137, 0.05823266878724098, -0.011177272535860538, -0.028204165399074554, 0.025065530091524124, 0.10007603466510773, -0.005030331201851368, -0.10205549001693726, -0.07006558775901794, -0.026863334700465202, -0.11657071858644485, -0.024735581129789352, 0.006968705449253321, -0.014998743310570717, 0.10799720883369446, 0.0471927709877491, -0.21183723211288452, -0.14580494165420532, -0.09865176677703857, 0.1731051653623581, 0.057179879397153854, 0.1212574765086174, -0.059908781200647354, -0.00611449871212244, -0.008194963447749615, 0.04489438980817795, -0.11083334684371948, -0.014993039891123772, 0.06887905299663544, 0.24905367195606232, 0.0041240667924284935, -0.00600413978099823, -0.046274468302726746, -0.10790519416332245, 0.03249513357877731, 0.09613285213708878, -0.0024564818013459444, 0.09239596128463745, -0.13511110842227936, 0.054615218192338943, 0.14599332213401794, -0.031215107068419456, 0.043904729187488556, 0.028905345126986504, 0.07996498793363571, -0.03737660124897957, -0.07332377135753632, -0.002894431585446, -0.08519258350133896, 0.06938844174146652, -0.13774222135543823, -0.0736716091632843, -0.01684180088341236, 0.0913563072681427, 0.05858086049556732, 0.05886733531951904, 0.027926890179514885, -0.01496539544314146, 0.02178872376680374, 0.03655260428786278, -0.0652436763048172, -0.051776450127363205, -0.0945068821310997, -0.046755727380514145, -0.054905425757169724, 0.04285648465156555, 0.1634158045053482, 0.03138572350144386, 0.06413765996694565, 0.11880549043416977, 0.0026354412548244, 0.022254614159464836, 0.01094729546457529, 0.07903691381216049, -0.0335814505815506, 0.004076985642313957, 0.03348299860954285, -0.0019008796662092209, -0.059858884662389755, 0.03525322303175926, -0.0530112124979496, 0.08240967988967896, -0.029316101223230362, -0.06419538706541061, 0.04283617436885834, 0.01160947885364294, 0.028116285800933838, -0.0569460466504097, 0.11580599099397659, 0.00512353889644146, 0.0033153584226965904, -0.0008858094806782901, -0.040247444063425064, -0.006378743331879377, 0.015391034074127674, -0.001768546411767602, -0.08363151550292969, -0.007464472204446793, -0.04362773895263672, 0.03630005195736885, 0.09983746707439423, -0.0015254836762323976, -0.003076238324865699, -0.02105754055082798, -0.04110860824584961, 0.047262877225875854, -0.05950941517949104, 0.013240679167211056, -0.05460624024271965, -0.03803550451993942, 0.014712277799844742, -0.03364817798137665, 0.024178601801395416, -0.12714260816574097, 0.010395687073469162, -0.05695931985974312, 0.047124817967414856, -0.0037414480466395617, 0.09688446670770645, 0.016302363947033882, 0.040980078279972076, -0.011518016457557678, 0.07332727313041687, -0.0372486412525177, 0.004945965018123388, -0.05113183334469795, 0.06305887550115585, -0.04965158924460411, -0.011302608996629715, -0.02400038205087185, 0.008647171780467033, -0.02432074025273323, -0.040842942893505096, 0.04378902539610863, -0.016344111412763596, -0.037929486483335495, -0.006453648209571838, 0.017256762832403183, 0.032802727073431015, -0.0015407432802021503, -0.007994365878403187, 0.012715005315840244, 0.010798495262861252, -0.06565508991479874, -0.030745891854166985, -0.0009598972392268479, 0.06908127665519714, 0.014550529420375824, 0.017862405627965927, 0.006153880152851343, 0.006262201815843582, -0.031162912026047707, -0.041128017008304596, 0.04336637631058693, 0.03652407228946686, -0.016700979322195053, 0.006636279169470072, -0.04398858919739723, 0.01911359652876854, 0.05190715193748474, -0.017097242176532745, 0.015422922559082508, -0.041707199066877365, -0.060542814433574677, 0.002573629142716527, -0.07799655199050903, -0.013923663645982742, 0.019006192684173584, 0.06381813436746597, 0.051852740347385406, 0.011104157194495201, 0.04861697182059288, 0.002859386382624507, 0.049527354538440704, -0.04036656394600868, -0.058783769607543945, -0.03234554082155228, -0.020286833867430687, 0.022311901673674583, 0.006055027712136507, 0.014469044283032417, -0.0019443066557869315, -0.03483632206916809, 0.018842026591300964, 0.059493836015462875, -0.06660477072000504, 0.0036067336332052946, 0.012670351192355156, 0.07624207437038422, -0.07620835304260254, 0.019663987681269646, 0.003238081932067871, 0.022189782932400703, -0.024004777893424034, -0.06119509041309357, 0.04921574518084526, -0.001209342386573553, 0.05754925683140755, -0.018924687057733536, -0.009048022329807281, 0.10533873736858368, 0.022737795487046242, 0.02716117724776268, 0.02945004589855671, -0.009857230819761753, 0.02939094416797161, 0.06969742476940155, -0.04976889491081238, -0.003965278621762991, -0.015253671444952488, 0.05023698881268501, 0.01974964514374733, -0.045094966888427734, 0.03796613588929176, 0.013991045765578747, 0.04000107944011688, 0.014270439743995667, 0.0020125124137848616, -0.007510952651500702, 0.009507477283477783, -0.0010235562222078443, -0.017609676346182823, 0.004504138138145208, -0.006037240847945213, 0.0591253861784935, -0.015413428656756878, -0.017997127026319504, 0.05626671016216278, -0.027888962998986244, -0.0368766225874424, 0.06003923714160919, -0.04461874067783356, -0.039894331246614456, -0.028358086943626404, 0.07345385104417801, -0.04945480450987816, -0.03155410289764404, 0.0014800203498452902, 0.022539842873811722, 0.0554916076362133, -0.001226860098540783, 0.014065406285226345, -0.03662867844104767, 0.018258463591337204, -0.06887619942426682, 0.032072775065898895, -0.016231751069426537, -0.05121393874287605, -0.09078611433506012, -0.010964496061205864, -0.04421322047710419, 0.01118409726768732, 0.030209800228476524, -0.034276653081178665, 0.03391505032777786, -0.011006620712578297, -0.08347169309854507, 0.025598090142011642, -0.011314650066196918, -0.1054818332195282, 0.0481918528676033, 0.05481605976819992, 0.018836412578821182, -0.042372360825538635, 0.038498539477586746, -0.04296498000621796, 0.042662329971790314, 0.004980729427188635, 0.01818431355059147, 0.03162233158946037, 0.033630698919296265, -0.0628177598118782, 0.007555859629064798, 0.08131390810012817, -0.025527631863951683, -0.04008351266384125, -0.0042815073393285275, -0.040040623396635056, -0.03164337947964668, -0.005338222719728947, 0.026620130985975266, 0.0017809795681387186, -0.013521174900233746, 0.03530578315258026, 0.021830547600984573, -0.014351805672049522, -0.020948797464370728, 0.039059173315763474, 0.004816350061446428, -0.03829537332057953, -0.01258649118244648, -0.013638745062053204, -0.01835245080292225, 0.005099492147564888, -0.045688871294260025, -0.07468172162771225, -0.06641973555088043, 0.05237790569663048, -0.06191466748714447, -0.004839287605136633, -0.015310829505324364, 0.034648094326257706, -0.037028077989816666, 0.0325828492641449, 0.03550061210989952, -0.002768675796687603, 0.0464710108935833, -0.08337842673063278, -0.038049403578042984, 0.023984892293810844, -0.004273320082575083, -0.01654352992773056, 0.06673350930213928, 0.010530279949307442, 0.026939034461975098, -0.021035492420196533, -0.01882510632276535, 0.0021428600884974003, -0.0065140314400196075, 0.03192739188671112, 0.09320370852947235, -0.0010161037789657712, -0.018777837976813316, 0.0005178315914236009, -0.06093522161245346, 0.029805922880768776, 0.0051127546466887, 0.09698163717985153, 0.011494915932416916, -0.043981894850730896, -0.05493983253836632, 0.06745632737874985, 0.04277937486767769, 0.037230219691991806, 0.027444085106253624, 0.08601399511098862, -0.0038633544463664293, 0.040418028831481934, 0.03804294764995575, 0.0369470976293087, 0.03488941490650177, -0.0176090095192194, 0.06215618550777435, -0.09593582898378372, 0.036577433347702026, -0.01617821305990219, -0.03483129292726517, 0.006132119335234165, -0.12517911195755005, -0.045420464128255844, 0.03393862769007683, -0.07214873284101486, -0.023579848930239677, 0.009592521004378796, -0.008373498916625977, -0.0789388120174408, 0.03881197050213814, 0.0009507379145361483, 0.05421148240566254, 0.03133636713027954, 0.01568683795630932, -0.027315111830830574, 0.05192824825644493, 0.00756368413567543, 0.016361713409423828, -0.038376398384571075, 0.02697147987782955, 0.012203685007989407, 0.012182628735899925, -0.1221177950501442, -0.025528214871883392, -0.0008414257899858057, 0.00836267415434122, -0.07812438905239105, 0.029427649453282356, 0.0016784548060968518, 0.0638420358300209, -0.020413916558027267, -0.021543769165873528, 0.025441443547606468, 0.004575984552502632, 0.013591817580163479, 0.08524615317583084, -0.0012709636939689517, -0.04820205643773079, 0.001838860334828496, -0.10600367188453674, -0.07797511667013168, 0.04704121872782707, -0.07264076173305511, -0.018466338515281677, 0.012974646873772144, 0.10830531269311905, -0.02926766686141491, 0.07432009279727936, 0.01038175169378519, -0.005409238860011101, 0.019519727677106857, -0.016957644373178482, 0.06876543164253235, 0.06396260857582092, -0.03367508947849274, 0.16559195518493652, 0.023568978533148766, -0.08521708846092224, 0.06646499782800674, 0.05128950625658035, -0.033473752439022064, 0.03248074650764465, -0.08431045711040497, 0.029281217604875565, 0.048202548176050186, -0.06989128887653351, -0.04722774773836136, 0.01689409278333187, 0.04820045083761215, 0.0626925677061081, -0.051522236317396164, 0.017613312229514122, 0.1083674281835556, -0.014325893484055996, 0.0152749540284276, 0.07693798840045929, -0.011593741364777088, -0.05202711373567581, 0.0005935704102739692, -0.026120344176888466, -0.01571021042764187, -0.030319884419441223, 0.020171532407402992, 0.06735187768936157, 0.06696783006191254, 0.015452156774699688, 0.07435066252946854, -0.0658634603023529, -0.04005550220608711, -0.059016838669776917, 0.013390371575951576, 0.01591051183640957, 0.0335412472486496, -0.046137720346450806, -0.06345357745885849, 0.1193477138876915, -0.08116217702627182, -0.025787681341171265, -0.0076075405813753605, 0.04117278382182121, -0.039393406361341476, -0.03963594511151314, -0.011963125318288803, -0.03466612473130226, -0.051850516349077225, 0.04425128921866417, -0.05312458798289299, -0.009392588399350643, 0.008667525835335255, 0.03388452157378197, -0.030700555071234703, -0.020558509975671768, 0.007635524030774832, 0.011225284077227116, -0.02600819244980812, 0.014112656004726887, 0.09855560213327408, 0.0005847707507200539, 0.0016151092713698745, 0.088436558842659, -0.0835697129368782, -0.051914360374212265, 0.04192345216870308, 0.03994574397802353, -0.0025003720074892044, 0.05285589024424553, -0.010590363293886185, 0.02437814697623253, 0.030799534171819687, -0.06977789849042892, -3.74658229702618e-05, 0.047275103628635406, -0.004486633464694023, -0.001850299653597176, -0.018502341583371162, 0.019051631912589073, 0.014370022341609001, 0.045389968901872635, 0.022006819024682045, 0.0050672912038862705, -0.01784948818385601, -0.043460652232170105, 0.016570381820201874, 0.018142161890864372, -0.013525733724236488, -0.06396788358688354, 0.006131596397608519, 0.0703577846288681, 0.06679993122816086, -0.001809817273169756, -0.04525473713874817, -0.03638586029410362, 0.013972114771604538, -0.02297958917915821, 0.02813410386443138, 0.007951537147164345, -0.007304066326469183, -0.0509035624563694, -0.047742970287799835, 0.02404770627617836, -0.03686582297086716, -0.015224941074848175, 0.012777085416018963, 0.0269846823066473, 0.023850388824939728, -0.05355531722307205, 0.03168675675988197, -0.017143402248620987, -0.012817044742405415, 0.03748181089758873, -0.024099307134747505, 0.008909560739994049, 0.0645056962966919, 0.09328140318393707, -0.03100503422319889, 0.03834042325615883, 0.0762217789888382, -0.02517693117260933, -0.04944847151637077, 0.02604283019900322, 0.055038925260305405, 0.028090182691812515, 0.02402578666806221, 0.10737387835979462, 0.022333985194563866, 0.01037040539085865, 0.07000957429409027, 0.04801410809159279, -0.07668378949165344, -0.011972800828516483, -0.03970267251133919, -0.08573077619075775, 0.0808732882142067, -0.06807806342840195, -0.028266411274671555, -0.009863208048045635, -0.009292465634644032, 0.0402175709605217, 0.03566534444689751, 0.032676853239536285, -0.06941021978855133, 0.03661665692925453, 0.0017431415617465973, 0.021953323855996132, 0.01731131225824356, -0.037569500505924225, -0.034199655055999756, -0.0092046819627285, -0.028351156041026115, -0.05999201908707619, -0.025230765342712402, 0.0706421285867691, 0.059273891150951385, 0.019251195713877678, -0.06398741900920868, -0.07371862232685089, 0.04116443544626236, -0.06534699350595474, 0.04785069078207016, 0.001270732143893838, -0.005362402647733688, 0.010998464189469814, -0.011178151704370975, -0.016697879880666733, 0.011240127496421337, -0.03301573917269707, 0.023958779871463776, 0.027959678322076797, -0.08614618331193924, -0.07907436788082123, 0.005635985638946295, -0.06323687732219696, -0.09379695355892181, 0.027591830119490623, -0.012583665549755096, -0.01643766462802887, -0.016044216230511665, 0.019270354881882668, -0.012011519633233547, 0.06485515087842941, -0.029358362779021263, -0.03919734060764313, 0.021435517817735672, 0.003690616227686405, -0.014831631444394588, 0.05163096636533737, -0.04367296025156975, 0.05970199033617973, 0.018022075295448303, -0.04162061959505081, 0.016898754984140396, -0.008543528616428375, 0.006308867130428553, -0.06006200239062309, -0.04309484362602234, -0.024159999564290047, -0.04522887244820595, 0.00893403124064207, -0.04132753983139992, -0.023199977353215218, 0.0018055102555081248, 0.060774773359298706, 0.005657694768160582, -0.023865213617682457, -0.019131222739815712, -0.04610059782862663, 0.00974922813475132, 0.03264477476477623, -0.0005929082399234176, 0.008397754281759262, 0.0320298969745636, 0.057833295315504074, -0.037263236939907074, 0.04132784530520439, 0.05123848468065262, -0.054421380162239075, 0.022216306999325752, -0.00635523721575737, 0.01043504849076271, -0.0031866314820945263, 0.07131986320018768, -0.061290424317121506, -0.012650389224290848, -0.055956657975912094, -0.010036458261311054, -0.07088369131088257, -0.03834880515933037, -0.0004610904725268483, 0.04611894488334656, 0.044236697256565094, -0.038724757730960846, -0.006840795278549194, -0.002691652625799179, -0.0015402717981487513, -0.0010741378646343946, 0.019004398956894875, -0.027375301346182823, 0.04072100296616554, 0.01541757769882679, -0.004932372365146875, -0.01999291405081749, 0.003878777613863349, 0.047355376183986664, 0.029157649725675583, -0.0026695739943534136, -0.021064136177301407, -0.008960708044469357, 0.0013875896111130714, 0.0021461360156536102, -0.03828957676887512, -0.037017613649368286, -0.09350194782018661, 0.05770296975970268, -0.02465742453932762, 0.023020338267087936, 0.00692779989913106, -0.027981821447610855, -0.011076751165091991, 0.06680496782064438, -0.047192253172397614, -0.07156361639499664, 0.035828832536935806, 0.022240689024329185, 0.009162661619484425, -0.07529529184103012, 0.07011289894580841, -0.02999289520084858, 0.001937424880452454, 0.01727793551981449, -0.009551462717354298, 0.015376822091639042, -0.004128449130803347, 0.06975316256284714, 0.031347282230854034, -0.016735386103391647, 0.10129270702600479, -0.028091460466384888, 0.025972722098231316, 0.0075891995802521706, -0.0064500560984015465, -0.0545261912047863, -0.09150431305170059, -0.000780474569182843, -0.07582885026931763, 0.03737279027700424, 0.033872757107019424, 0.027391931042075157, -0.007947534322738647, 0.016598543152213097, -0.09883634746074677, -0.010328978300094604, -0.033918123692274094, 0.09371702373027802, 0.02401934377849102, -0.03891971707344055, -0.021792666986584663, -0.008890951052308083, -0.06485196202993393, 0.0074638561345636845, 0.05493167042732239, 0.05194758251309395, 0.05737733468413353, 0.06500142067670822, 0.05663798004388809, 0.008854929357767105, 0.06358134746551514, -0.0016615367494523525, -0.07601916790008545, 0.06555736064910889, -0.0029892590828239918, 0.04963894188404083, 0.060451019555330276, 0.05714524909853935, -0.0362820066511631, 0.06739731878042221, 0.03347409889101982, 0.01426309160888195, 0.09749200195074081, -0.011020367965102196, 0.05419888347387314, -0.018261060118675232, -0.020380763337016106, -0.016559889540076256, -0.06016219034790993, 0.02450087107717991, -0.08160543441772461, -0.027467031031847, 0.08936566114425659, -0.05926244333386421, -0.05055961012840271, -0.06909541040658951, 0.03429405391216278, 0.006541508715599775, 0.03265506774187088, 0.08359032869338989, -0.009877904318273067, 0.03715135529637337, 0.04633660614490509, -0.015715479850769043, -0.014490233734250069, 0.012254808098077774, 0.017855903133749962, -0.03740204870700836, 0.011371198110282421, -0.04797836393117905, 0.06577679514884949, -0.04944697394967079, 0.0052772145718336105, -0.023189954459667206, 0.051057443022727966, 0.00956927239894867, -0.01469780970364809, -0.013470799662172794, -0.04838358610868454, -0.036598168313503265, 0.017817648127675056, 0.027095403522253036, -0.0015834805089980364, -0.02747904509305954, 0.044196754693984985, -0.03809231519699097, -0.08998852223157883, 0.040097933262586594, -0.011534529738128185, -0.02333216555416584, -0.02486240305006504, -0.10351355373859406, -0.03907820209860802, 0.006591227371245623, -0.05540682375431061, 0.002176739973947406, 0.13012835383415222, 0.13549408316612244, -0.07818971574306488, -0.08667900413274765, -0.167362242937088, -0.0113945621997118, 0.18552227318286896, -0.03726473078131676, 0.023489683866500854, -0.15251579880714417, 0.017127949744462967, -0.004874676000326872, -0.11145637929439545, 0.022339636459946632, 0.06513161957263947, -0.09995412081480026, 0.03647858649492264, 0.02533203922212124, 0.0695161297917366, -0.08815685659646988, -0.03112216107547283, 0.09025312215089798, 0.0430014505982399, 0.13179312646389008, -0.005517490673810244, -0.023495759814977646, -0.02945137582719326, -0.07760897278785706, -0.08943648636341095, -0.103495292365551, -0.022686365991830826, 0.18556517362594604, -0.061644166707992554, 0.051493577659130096, -0.03233153000473976, 0.08232433348894119, -0.14559923112392426, 0.027065321803092957, 0.01714199222624302, 0.04167609661817551, 0.0764237567782402, 0.005649296101182699, 0.015765085816383362, -0.038839444518089294, 0.06000277400016785, -0.12018997222185135, 0.0019671376794576645, -0.014668920077383518, 0.05354664474725723, -0.06658352166414261, -0.004678536672145128, -0.04532213509082794, -0.0439978763461113, 0.002129550091922283, 0.10200507193803787, -0.01834394410252571, -0.026836922392249107, 0.04023687541484833, -0.07071182876825333, 0.057682134211063385, 0.0396253801882267, -0.023813694715499878, 0.055468641221523285, -0.02042473666369915, 0.017413727939128876, -0.008213148452341557, -0.015516115352511406, -0.04666295275092125, -0.019347986206412315, 0.002207505749538541, -0.01255581434816122, 0.009799477644264698, 0.06615075469017029, 0.018005618825554848, -0.045156627893447876, 0.019959043711423874, 0.021608231589198112, -0.020992297679185867, 0.00107650738209486, 0.029893655329942703, 0.025079526007175446, -0.01726306974887848, -0.058109574019908905, -0.05263090878725052, 0.0008945830632001162, -0.01794392429292202, 0.04173626750707626, -0.02754674106836319, 0.021915864199399948, -0.015419602394104004, 0.0024646043311804533, 0.05638912692666054, 0.04153744503855705, -0.057322364300489426, -0.008917814120650291, -0.03228047117590904, 0.03627930209040642, -0.020914841443300247, -0.027601556852459908, 0.02547905594110489, 0.040157098323106766, 4.0593655285192654e-05, -0.022829614579677582, 0.016903067007660866, -0.07483082264661789, 0.015190639533102512, 0.007946347817778587, 0.00641526049003005, -0.04450732469558716, 0.07447069138288498, -0.09063476324081421, -0.008739292621612549, 0.025640537962317467, -0.012859447859227657, -0.04689234867691994, -0.009943882934749126, -0.022291559725999832, -0.041177310049533844, -0.02673601545393467, 0.06170259416103363, -0.018230725079774857, 0.006472779903560877, 0.07122411578893661, -0.024411652237176895, -0.009339584968984127, -0.0074965436942875385, 0.02836049348115921, 0.003273463575169444, 0.024293968454003334, -0.020321089774370193, 0.009463172405958176, -0.028604991734027863, 1.747800979501335e-06, 0.024303153157234192, 0.06448575854301453, 0.03061964549124241, 0.10531354695558548, -0.042057618498802185, -0.029201926663517952, 0.04101061448454857, 0.032314542680978775, 0.009588941931724548, -0.08258465677499771, -0.04443879798054695, -0.03530212491750717, 0.07597140222787857, -0.0231082271784544, -0.015441806986927986, 0.020507855340838432, 0.030138516798615456, 0.09627429395914078, -0.017909152433276176, 0.04022853076457977, 0.032398771494627, 0.043325163424015045, -0.0030349036678671837, 0.03807758912444115, -0.05067731440067291, -0.09762391448020935, -0.03272775560617447, 0.03700697794556618, -0.013159064576029778, 0.05454772338271141, 0.03456955775618553, 0.029127633199095726, 0.017612274736166, 0.005061903037130833, -0.007543804589658976, -0.036616817116737366, -0.06152893230319023, -0.022095225751399994, -0.021057572215795517, 0.023267855867743492, -0.00469973823055625, -0.033320747315883636, 0.0035108986776322126, -0.013008153066039085, -0.01078797783702612, -0.009273712523281574, 0.05311405286192894, -0.0724196508526802, -0.0014681299217045307, -0.03874406963586807, 0.03987317532300949, 0.022492799907922745, -0.10446664690971375, 0.051826756447553635, 0.025956155732274055, 0.04508073255419731, 0.02809792198240757, 0.09677708894014359, 0.007752932608127594, 0.0038234011735767126, 0.03079957142472267, 0.017980091273784637, -0.06726299971342087, -0.006385781802237034, 0.04833242669701576, 0.024508878588676453, -0.012528861872851849, 0.09675180912017822, 0.05648034065961838, -0.06359409540891647, 0.09033595025539398, 0.00975179485976696, -0.07206475734710693, 0.042288415133953094, -0.06322916597127914, 0.0019416749710217118, 0.07821562141180038, -0.05923845246434212, -0.046984463930130005, 0.05677573010325432, -0.08271775394678116, 0.05341840162873268, -0.01975683495402336, -0.003681878326460719, 0.010253919288516045, 0.023645857349038124, 0.03304735943675041, -0.00810867827385664, -0.017669934779405594, -0.05521053820848465, 0.058513056486845016, -0.015976853668689728, -0.02885759249329567, -0.05408376082777977, -0.055922731757164, 0.013523352332413197, 0.021369075402617455, 0.08930988609790802, 0.003848852589726448, -0.06317086517810822, -0.023777402937412262, 0.005272889044135809, -0.01611117087304592, -0.005767259281128645, -0.006170772947371006, -0.04608036205172539, 0.012277399189770222, 0.02880176343023777, -0.09185086190700531, -0.09363319724798203, 0.03394346684217453, 0.008311079815030098, -0.0384361632168293, -0.03563283383846283, -0.003078937064856291, -0.04397106170654297, -0.04566477984189987, -0.015779761597514153, -0.021121272817254066, -0.08549196273088455, -0.07208572328090668, -0.10386546701192856, -0.020313000306487083, -0.044901639223098755, 0.09987472742795944, 0.05765765532851219, 0.06268414855003357, -0.048213254660367966, -0.08958850800991058, 0.006114077288657427, -0.09076382219791412, -0.08692377805709839, -0.11493213474750519, 0.015493666753172874, -0.09785465896129608, -0.035418301820755005, 0.21385477483272552, -0.13852879405021667, -0.02783549763262272, 0.04859096184372902, -0.11343435198068619, 0.23505297303199768, 0.04032324627041817, -0.04451867192983627, 0.09561602026224136, -0.04879765212535858, 0.04002654179930687, -0.021357789635658264, 0.02579476498067379, -0.029388200491666794, -0.14478862285614014, 0.09739556163549423, 0.09835413843393326, 0.017986515536904335, 0.0019503617659211159, -0.0010286495089530945, 0.19777058064937592, 0.07911621034145355, 0.10750097036361694, 0.014756421558558941, 0.05578185245394707, -0.09266533702611923, -0.03363306447863579, 0.13331332802772522, -0.030536526814103127, -0.1582670509815216, -0.08314299583435059, -0.05122600495815277, -0.005156721919775009, 0.03395130857825279, -0.0005052171763963997, 0.013509753160178661, 0.10687395185232162, 0.05010196939110756, -0.06232032924890518, 0.06444016098976135, 0.008114942349493504, -0.04872407764196396, -0.0808570608496666, 0.15172079205513, 0.02432122454047203, -0.05161638185381889, 0.0028584785759449005]}, "action_queries": {"shape": [5, 64], "data": [-0.08428940176963806, -0.10682159662246704, 0.19014737010002136, 0.07698744535446167, -0.04732123017311096, 0.08354754000902176, 0.14162372052669525, 0.022180745378136635, -0.030094387009739876, 0.03457741439342499, 0.08943380415439606, -0.013078575022518635, 0.05310554429888725, -0.09138497710227966, -0.056802354753017426, -0.07950824499130249, 0.05548320338129997, 0.08590710163116455, -0.05345075577497482, 0.06444723159074783, 0.03574448451399803, -0.17128115892410278, -0.030093936249613762, -0.1045512929558754, -0.04562222957611084, 0.06469300389289856, -0.022863587364554405, 0.06962321698665619, 0.02117798663675785, -0.04702700674533844, 0.044760677963495255, 0.09623029828071594, -0.11488188058137894, 0.17673376202583313, -0.019520625472068787, -0.00544091546908021, -0.09978359192609787, -0.022504592314362526, 0.06867310404777527, 0.15035471320152283, 0.14702492952346802, -0.1602211594581604, 0.10817326605319977, 0.08300487697124481, -0.0469822958111763, 0.015716735273599625, 0.014950661920011044, 0.014132385142147541, 0.04014313220977783, -0.017600418999791145, 0.026288464665412903, -0.05204435810446739, -0.08773602545261383, 0.046058401465415955, -0.012638051062822342, -0.09495840221643448, 0.02767493762075901, -0.12150276452302933, 0.03829056769609451, 0.03657936304807663, -0.128066286444664, 0.07561185956001282, -0.07601246982812881, -0.14543308317661285, -0.051666729152202606, -0.05795435607433319, 0.08825184404850006, 0.045604534447193146, -0.1225263699889183, 0.008694381453096867, -0.003231725422665477, -0.09916169941425323, -0.10590089857578278, -0.0377110093832016, -0.027775133028626442, -0.041498418897390366, 0.16272354125976562, -0.023933669552206993, 0.03163829818367958, 0.06953500956296921, -0.011518945917487144, -0.019817959517240524, -0.07441073656082153, 0.08091109991073608, -0.024430369958281517, -0.03239577263593674, 0.07094033062458038, -0.03186139091849327, 0.05250772833824158, 0.04635344073176384, 0.08742861449718475, -0.012355686165392399, -0.0016665431903675199, -0.09243027120828629, -0.001236237003467977, 0.05830466374754906, 0.13906636834144592, 0.10092746466398239, 0.014987540431320667, 0.06773469597101212, -0.09814335405826569, -0.05115414038300514, 0.030571969226002693, 0.06481074541807175, 0.06604093313217163, -0.039251990616321564, 0.004677106626331806, 0.12396412342786789, 0.08810403198003769, -0.08194541186094284, -0.03127795830368996, -0.028615081682801247, 0.008075343444943428, -0.044237151741981506, -0.012421723455190659, 0.12577632069587708, -0.13106252253055573, 0.09814614802598953, -0.027801603078842163, -0.04651729390025139, -0.06831947714090347, -0.026728948578238487, -0.14619414508342743, 0.03864772990345955, -0.1362932324409485, 0.11454897373914719, 0.038213830441236496, -0.06231478974223137, 0.038961004465818405, -0.07113564014434814, 0.030259832739830017, 0.04405057802796364, -0.03963516652584076, 0.0354667566716671, 0.1286758929491043, -0.03114783763885498, 0.022047175094485283, 0.03212627395987511, 0.10716509819030762, -0.0763280838727951, -0.0004893183358944952, -0.210848867893219, 0.005090870428830385, -0.03852400556206703, 0.10700807720422745, -0.067780040204525, 0.02462628111243248, -0.09204696863889694, -0.12792471051216125, -0.21551395952701569, 0.02862635999917984, 0.054156310856342316, -0.07558781653642654, 0.14615851640701294, -0.051060501486063004, 0.06314847618341446, 0.016583304852247238, 0.046027448028326035, -0.14336331188678741, -0.0963359996676445, 0.08801708370447159, 0.07666082680225372, -0.04598374292254448, 0.05157966539263725, -0.05974788963794708, -0.050748683512210846, 0.10577569901943207, 0.14858166873455048, 0.15405336022377014, -0.0556926466524601, 0.021685518324375153, -0.026938999071717262, -0.010397776030004025, -0.047240979969501495, 0.08159556984901428, -0.14288318157196045, -0.04139863699674606, -0.0965808555483818, -0.018667126074433327, -0.007197638042271137, 0.07005400955677032, 0.0033750799484550953, 0.013216264545917511, -0.025141334161162376, 0.015710342675447464, 0.004311736207455397, -0.03340466320514679, 0.16302956640720367, -0.12579740583896637, 0.18164542317390442, -0.0036108065396547318, 0.003367345780134201, 0.01695958711206913, 0.04674869403243065, -0.09436231106519699, 0.004290934652090073, 0.027458401396870613, -0.1284056454896927, -0.13046306371688843, 0.005536002106964588, -0.043326154351234436, -0.05835731700062752, -0.061086904257535934, 0.012601414695382118, 0.014586228877305984, 0.08269250392913818, 0.029885536059737206, 0.10754285752773285, -0.06558844447135925, -0.06263888627290726, 0.009177458472549915, -0.00882644485682249, 0.008439193479716778, 0.15514115989208221, -0.008648976683616638, 0.0771726593375206, 0.01924586482346058, -0.05877435952425003, 0.025533588603138924, -0.08652198314666748, -0.0016675455262884498, 0.010702403262257576, 0.01183017622679472, -0.06670715659856796, 0.05225778743624687, -0.08754821866750717, 0.001006697304546833, 0.016678396612405777, 0.05175866559147835, -0.005655420478433371, -0.014059877023100853, -0.13123196363449097, -0.12322884052991867, 0.11695672571659088, -0.05610080063343048, -0.0009603427606634796, 0.044008512049913406, -0.007027576677501202, -0.001814944320358336, 0.07082618027925491, -0.007566355634480715, 0.03664975240826607, -0.06052266061306, 0.04713159427046776, 0.001430491916835308, -0.0038933579344302416, 0.002647863235324621, 0.040611863136291504, -0.012469402514398098, 0.11549308896064758, -0.02382517419755459, -0.050968099385499954, 0.053504254668951035, -0.08577044308185577, 0.012082980945706367, 0.05972233787178993, 0.08530744165182114, 0.1412544697523117, -0.22227059304714203, -0.1213926151394844, 0.10957957804203033, -0.1083214059472084, -0.1450662761926651, 0.13593924045562744, 0.13319967687129974, 0.02674737013876438, -0.033600885421037674, 0.12627606093883514, -0.1602146327495575, 0.1933784782886505, 0.0320882648229599, -0.009813765995204449, -0.06563273817300797, -0.006265238858759403, 0.04190423712134361, -0.05408454313874245, 0.07582796365022659, 0.2526751756668091, -0.11754295974969864, 0.07985445111989975, 0.037631139159202576, -0.16216257214546204, -0.0374281145632267, -0.09500852227210999, -0.08285442739725113, 0.08736050873994827, 0.052574314177036285, 0.028186190873384476, -0.1434275507926941, -0.23804663121700287, 0.08055073022842407, -0.11471057683229446, 0.1703587770462036, 0.02124078758060932, -0.08966091275215149, -0.2242906242609024, -0.20336845517158508, 0.15673527121543884, -0.023592444136738777, -0.14831437170505524, -0.0806431993842125, 0.08525725454092026, -0.07647112756967545, 0.15371067821979523, 0.047721344977617264, 0.08559451252222061, 0.0516931414604187, -0.15067805349826813, 0.18669402599334717, -0.1266135573387146, -0.022242378443479538, 0.12475835531949997, 0.010253888554871082, 0.051494400948286057, 0.1790265142917633, -0.17078131437301636, 0.26740872859954834, -0.3190057575702667, -0.01938396692276001, 0.17704981565475464]}, "conv1.weight": {"shape": [16, 3, 3, 3], "data": [0.27549120783805847, 0.47560837864875793, 0.06273937225341797, 0.5140441656112671, 0.465975821018219, 0.4488102197647095, 0.14164255559444427, 0.5616509318351746, 0.5506861209869385, -0.15174339711666107, 0.1496230959892273, -0.08243577182292938, 0.15798354148864746, 0.003847711253911257, 0.04326167330145836, 0.04693639278411865, 0.22977934777736664, 0.12009570002555847, -0.33268892765045166, -0.1785862147808075, -0.4128706455230713, -0.3485386073589325, -0.4566684663295746, -0.23776155710220337, -0.3603082001209259, -0.31178048253059387, -0.22156956791877747, -0.1819360852241516, 0.09620891511440277, -0.23943671584129333, 0.28033655881881714, -0.0929204672574997, 0.1206289529800415, 0.026464281603693962, 0.03367151692509651, 0.2406805157661438, 0.08069318532943726, 0.29086440801620483, 0.03360519930720329, 0.15760605037212372, 0.17927275598049164, 0.019129877910017967, 0.16193996369838715, 0.3373025059700012, 0.3198508620262146, -0.2581422030925751, 0.01937905140221119, -0.14369456470012665, -0.008825946599245071, -0.2253749668598175, -0.3810688853263855, -0.24766714870929718, -0.23502302169799805, 0.12823262810707092, 0.15445472300052643, 0.0801335871219635, 0.059664513915777206, 0.014119436964392662, 0.20478199422359467, -0.15000349283218384, 0.018366454169154167, -0.058778729289770126, 0.08663236349821091, -0.010336660780012608, 0.0396416150033474, -0.06168423220515251, 0.14097516238689423, -0.07945423573255539, -0.14679940044879913, -0.1489328145980835, 0.2068396955728531, 0.0605875663459301, 0.2598728835582733, -0.17750272154808044, -0.21397772431373596, -0.15903310477733612, -0.09756773710250854, 0.036359891295433044, 0.03799695521593094, 0.19702588021755219, -0.1076037809252739, -0.1822880357503891, 0.09116070717573166, -0.09492820501327515, 0.06556922942399979, -0.05054352805018425, 0.10092564672231674, -0.1330975741147995, -0.12145774811506271, -0.03942196071147919, 0.13532909750938416, 0.048761624842882156, 0.18298596143722534, 0.24004879593849182, -0.006735399831086397, 0.044007807970047, 0.34424644708633423, 0.06297200173139572, 0.005274089518934488, -0.28350594639778137, -0.21406544744968414, -0.05377759039402008, -0.20889213681221008, -0.2927539646625519, -0.11049547791481018, -0.20831280946731567, -0.2973445951938629, -0.2740385830402374, -0.16751940548419952, -0.11850794404745102, 0.21359707415103912, 