{"format": "simple_vla_js", "num_params": 30116, "num_intents": 2, "lang_dim": 32, "intent_labels": ["drive", "intent_1"], "weights": {"conv1_weight": [0.23868882656097412, 0.2875036895275116, 0.15555262565612793, 0.27212396264076233, 0.23049256205558777, 0.0953693836927414, 0.26889002323150635, 0.34654897451400757, 0.16231989860534668, -0.1217816025018692, -0.0572749488055706, -0.22706632316112518, -0.07654687762260437, -0.06988412886857986, -0.2424870729446411, -0.1328209638595581, -0.046429481357336044, -0.2296137809753418, -0.2559871971607208, -0.2164127230644226, -0.24431797862052917, -0.21076776087284088, -0.1529291719198227, -0.12348027527332306, -0.21891026198863983, -0.15169182419776917, -0.13243740797042847, -0.0008816485060378909, -0.0010934469755738974, -0.0013634735951200128, -0.0006497307913377881, -0.000808363314718008, -0.001130596618168056, -0.0007690141792409122, -0.0008167585474438965, -0.0011266799410805106, -0.00337947066873312, -0.0038879672065377235, -0.0040606167167425156, -0.002927749417722225, -0.003190781222656369, -0.0035566503647714853, -0.0029594709631055593, -0.0032110982574522495, -0.003516974626109004, -0.005891731474548578, -0.006570343393832445, -0.006484676618129015, -0.005445481278002262, -0.005747559014707804, -0.005812518764287233, -0.0052427928894758224, -0.005658095236867666, -0.005714099854230881, 0.11900100857019424, 0.023904457688331604, 0.13114386796951294, 0.22376465797424316, 0.14778034389019012, 0.23442180454730988, 0.17074725031852722, 0.23064863681793213, 0.292514443397522, -0.26087191700935364, 0.006795369554311037, -0.059204086661338806, -0.312716543674469, -0.3063986301422119, -0.30405351519584656, -0.0800909623503685, -0.24069103598594666, -0.12370624393224716, 0.26841816306114197, 0.12710486352443695, 0.09084638208150864, -0.06321524828672409, 0.1812881976366043, 0.05484866350889206, 0.21185530722141266, 0.09204157441854477, 0.08082756400108337, 0.032963573932647705, -0.014605441130697727, -0.009254483506083488, 0.14113330841064453, 0.045975588262081146, -0.07288657128810883, 0.06082066893577576, 0.26505979895591736, -0.14474770426750183, 0.02961408905684948, 0.10529527813196182, 0.032915160059928894, 0.14425495266914368, 0.24200299382209778, 0.2458474487066269, 0.27646368741989136, 0.22499024868011475, 0.18638946115970612, -0.11474057286977768, -0.3021278381347656, -0.3137143552303314, -0.028172338381409645, -0.2577705383300781, -0.11991450935602188, 0.05766744911670685, 0.10511476546525955, -0.4189331829547882, 0.17957234382629395, 0.16658875346183777, 0.12332691252231598, 0.49120309948921204, 0.2929835021495819, 0.18445809185504913, 0.21394331753253937, 0.26707157492637634, -0.03451896831393242, 0.0939728245139122, 0.2436358481645584, -0.21765434741973877, 0.16475264728069305, 0.1985369622707367, -0.05734838917851448, -0.13477158546447754, -0.11914073675870895, -0.31988459825515747, -0.029329562559723854, -0.10658705979585648, -0.32965222001075745, 0.24952742457389832, 0.05329747870564461, -0.2656277120113373, -0.038257572799921036, -0.24829399585723877, -0.4006569981575012, -0.03551778569817543, -0.12638330459594727, -0.26804983615875244, -0.1778315156698227, -0.09822729229927063, -0.20425155758857727, -0.274621844291687, -0.15288770198822021, -0.20517371594905853, -0.16208814084529877, -0.18793988227844238, 0.13431933522224426, 0.15651777386665344, 0.0964110791683197, 0.1529051959514618, 0.02821080945432186, -0.011966651305556297, 0.15781624615192413, 0.03460085019469261, -0.04396803304553032, 0.12573498487472534, 0.2467065304517746, 0.24054169654846191, 0.27926987409591675, 0.006378557998687029, 0.017203129827976227, 0.2257629930973053, -0.13808473944664001, -0.047173112630844116, 0.06991274654865265, -0.023529967293143272, 0.02116401307284832, -0.4404430687427521, 0.46423330903053284, 0.10990974307060242, -0.2681792080402374, -0.16270890831947327, 0.032675035297870636, 0.11640024185180664, -0.08592146635055542, 0.13869018852710724, -0.15829531848430634, 0.3627169132232666, 0.38851824402809143, 0.05523215979337692, -0.06039614602923393, 0.08448001742362976, 0.2468881607055664, 0.04995471611618996, 0.1651647388935089, -0.18967576324939728, 0.4503430426120758, 0.41228172183036804, 0.15991830825805664, 0.06534147262573242, -0.31253454089164734, -0.1240723580121994, -0.0908261239528656, -0.07586044073104858, -0.22752122581005096, -0.3055209517478943, -0.17303112149238586, -0.22721228003501892, 0.1881825178861618, 0.20148101449012756, -0.09342120587825775, 0.2668326199054718, 0.3346564769744873, 0.004941390827298164, 0.0886414647102356, -0.007046688348054886, 0.23514890670776367, 0.1812966763973236, 0.19569429755210876, 0.040871117264032364, 0.15264715254306793, 0.17809131741523743, 0.1374478042125702, -0.10458741337060928, -0.03247113525867462, -0.06095992401242256, -4.920519427630163e-41, -4.911130727919186e-41, -4.93789552858779e-41, 4.929767997494706e-41, 4.931029166112599e-41, 4.948405267070227e-41, -4.963539290484935e-41, 4.954430850466823e-41, -4.950367084920281e-41, 4.962558381559907e-41, -4.914353714387133e-41, -4.93845604797352e-41, 5.003196037025327e-41, 4.980635131749697e-41, -4.966762276952882e-41, -4.967042536645747e-41, 4.92037929778373e-41, -4.946583579066604e-41, 4.956252538470445e-41, -4.976991755742453e-41, 4.957233447395473e-41, 4.967743185877909e-41, 4.912952415922809e-41, -4.944902020909414e-41, 4.926404881180327e-41, 4.922481245480217e-41, -4.975170067738831e-41, 0.011263897642493248, 0.22313961386680603, 0.25627389550209045, 0.26775744557380676, 0.2509530484676361, 0.16026829183101654, 0.14931349456310272, 0.0649040937423706, 0.13095839321613312, 0.011328617110848427, -0.14923952519893646, 0.0810745358467102, 0.0069084856659173965, -0.07649736106395721, -0.020592177286744118, 0.03928201273083687, -0.020732153207063675, 0.13346150517463684, -0.0054887086153030396, -0.19792452454566956, -0.18844889104366302, 0.07692275941371918, -0.09248771518468857, -0.11286517232656479, -0.146169051527977, 0.03397715464234352, -0.0637616515159607, 0.2331826388835907, -0.021778427064418793, 0.19865262508392334, 0.15810899436473846, 0.21235860884189606, 0.11418074369430542, 0.018596606329083443, -0.06347896158695221, 0.09474074840545654, 0.05612887814640999, -0.27848565578460693, -0.11338645219802856, -0.24082529544830322, -0.06078852340579033, -0.20294024050235748, -0.008211345411837101, -0.02984408102929592, -0.2294226586818695, 0.16094307601451874, -0.08684680610895157, -0.19250068068504333, -0.07850620150566101, -0.08081062883138657, -0.18460328876972198, 0.02944563329219818, -0.16274045407772064, 0.0733121857047081, 0.18007875978946686, -0.03763023763895035, 0.21534667909145355, 0.10691040754318237, 0.15282176434993744, 0.2705882489681244, 0.007251515053212643, 0.23954139649868011, 0.23552176356315613, -0.26562467217445374, -0.09856035560369492, -0.2423902153968811, -0.1365332007408142, -0.08915983885526657, -0.16731218993663788, -0.14911623299121857, -0.12446897476911545, 0.03180906921625137, -0.008729283697903156, -0.07931789755821228, 0.025734322145581245, 0.12960824370384216, -0.08588666468858719, 0.02739817090332508, -0.002604958601295948, 0.059199124574661255, 0.040765486657619476, 0.22481584548950195, 0.14569607377052307, 0.16983453929424286, 0.047466810792684555, 0.3127608299255371, 0.2735721170902252, 0.09993060678243637, 0.3043636977672577, 0.2039681077003479, -0.17426756024360657, -0.11899176985025406, 0.1266613006591797, -0.19436050951480865, 0.1827290654182434, 0.12242211401462555, -0.013293944299221039, 0.12833432853221893, 0.06597086787223816, -0.3609625995159149, -0.05732882395386696, -0.08658045530319214, -0.2731761336326599, -0.00402715802192688, -0.16970954835414886, -0.05475976690649986, -0.07890065014362335, 0.1068752184510231, 0.35197141766548157, 0.29445892572402954, -0.09036076068878174, -0.09483329951763153, 0.12130329757928848, 0.13798722624778748, -0.27237120270729065, -0.3493874669075012, -0.022796008735895157, 0.5137667059898376, 0.527465283870697, -0.0006687484565190971, -0.18139660358428955, -0.02360229380428791, 0.025615110993385315, -0.24895428121089935, -0.289908766746521, -0.08805514127016068, 0.5594688653945923, 0.6703222990036011, 0.36405250430107117, -0.21226316690444946, 0.007308236788958311, -0.06083288788795471, -0.6437222957611084, -0.5517276525497437, -0.175040602684021, -0.0438181571662426, -0.21265773475170135, -0.1981814205646515, -0.2521798312664032, -0.24106097221374512, -0.2318432629108429, -0.16479898989200592, -0.30532586574554443, -0.08684355765581131, 0.01724369451403618, -0.057601816952228546, -0.10497511178255081, 0.010020751506090164, -0.06283669173717499, -0.019614465534687042, 0.11051829159259796, 0.04053694009780884, 0.16920572519302368, 0.003947107587009668, 0.162434384226799, 0.09085820615291595, 0.2471158802509308, 0.04389234259724617, 0.2554512023925781, 0.34516778588294983, 0.06155504658818245, 0.2065238505601883, -0.24099181592464447, -0.13400477170944214, -0.15685607492923737, -0.273753821849823, -0.28652337193489075, -0.1282741278409958, -0.3348560035228729, -0.28023561835289, -0.28631535172462463, 0.07873544842004776, 0.1879313737154007, 0.08219848573207855, -0.1842612773180008, 0.18444029986858368, 0.1325998455286026, -0.1511361002922058, 0.13052570819854736, -0.07102875411510468, 0.2771454155445099, 0.2852962613105774, 0.3228790760040283, 0.2971062958240509, 0.055119577795267105, 0.0436328686773777, 0.04312935471534729, 0.31497159600257874, 0.008156165480613708], "conv1_bias": [0.04119013249874115, -0.014595315791666508, 0.2550836503505707, 0.08120188862085342, -0.05070675164461136, 0.08100000768899918, -0.14058935642242432, 0.05156286805868149, -1.1805165948518964e-13, 0.13564613461494446, 0.17145101726055145, 0.11987925320863724, 0.17490936815738678, -0.10911038517951965, 0.09901124984025955, 0.12129008024930954], "conv2_weight": [-0.02056887373328209, -0.11181043088436127, -0.21971893310546875, 0.11438460648059845, -0.05517535284161568, -0.07134109735488892, 0.11722885817289352, -0.017804855480790138, -0.02650517225265503, 1.102504743616558e-23, 5.470405500341729e-21, 6.139543369473241e-19, 4.4665190857643337e-23, 2.443195295424773e-19, 2.644190361505385e-17, 3.2686323417935526e-25, 3.141426463792968e-20, 1.2612426463734939e-17, 0.028285693377256393, 0.030278220772743225, 0.038870830088853836, 0.09675291925668716, 0.13340666890144348, 0.11415240168571472, 0.1435324251651764, 0.16099004447460175, 0.10050671547651291, -0.26356086134910583, 0.005506941583007574, -0.13490261137485504, -0.12148255854845047, 0.11871945858001709, 0.02340930886566639, -0.05188407376408577, -0.1094796359539032, 0.19820153713226318, 0.22024039924144745, -0.15845055878162384, -0.04259694367647171, -0.021785257384181023, -0.1253325343132019, -0.2194705307483673, 0.04830804839730263, 0.0005424771225079894, -0.233869731426239, -0.055456917732954025, 0.03699396550655365, 0.04120016098022461, -0.00398409366607666, 0.027411123737692833, 0.1417110413312912, -0.09214054048061371, -0.04666675999760628, -0.018209077417850494, -0.13707594573497772, -0.14717432856559753, -0.31231245398521423, 0.12636294960975647, -0.05206781253218651, -0.0870797336101532, 0.10186250507831573, -0.3271293640136719, -0.0160223301500082, -0.0800807774066925, -0.00847811158746481, 0.07984664291143417, -0.18892668187618256, -0.1149384006857872, -0.02326910011470318, -0.1254570633172989, -0.01586008444428444, -0.09307712316513062, -4.931589685498329e-41, -5.002355257946732e-41, 4.962418251713475e-41, 4.939997476284278e-41, -4.97909370343894e-41, 5.014406424739925e-41, 5.024635903529497e-41, -5.017629411207872e-41, -4.925844361794597e-41, -0.09281831979751587, -0.1019134446978569, 0.012790856882929802, -0.04999592527747154, 0.01768527179956436, 0.11802616715431213, 0.002265023533254862, 0.008861824870109558, 0.058810777962207794, 0.10980174690485, 0.024239232763648033, -0.0668228268623352, 0.1537793129682541, 0.0936036929488182, 0.03824348747730255, 0.21052853763103485, 0.08274190127849579, 0.02335636503994465, 0.011541972868144512, 0.009834631346166134, 0.0006989194080233574, 0.07292953878641129, 0.08747579157352448, 0.14586906135082245, 0.05434944108128548, 0.051187559962272644, 0.10791309177875519, -0.016937140375375748, -0.08569783717393875, -0.07149580121040344, 0.04283210635185242, 0.029955854639410973, 0.05800793319940567, -0.07183560729026794, 0.02129952609539032, 0.18216398358345032, 0.30449947714805603, 0.3055112361907959, 0.11909746378660202, -0.105821892619133, 0.3252761960029602, -0.25097590684890747, 0.38104116916656494, 0.4361976683139801, 0.3092707097530365, -0.12047101557254791, 0.08200988918542862, 0.01705182157456875, 0.04179855063557625, -0.0023852286394685507, 0.05277510732412338, 0.003380091628059745, 0.014519109390676022, -0.11905369162559509, -0.03249402344226837, 0.0392221100628376, 0.02124152146279812, -0.12797200679779053, 0.11406821012496948, 0.032420236617326736, -0.004198889713734388, 0.027639413252472878, 0.04187646508216858, -0.1300109475851059, -0.0980437844991684, -0.08905258774757385, 0.07181990891695023, -0.04656367003917694, -0.1939818263053894, 0.0562361478805542, -0.03306470438838005, -0.06892379373311996, -5.20161136385866e-10, -4.896738126092259e-09, -1.2242230340575588e-08, -8.908766169213322e-09, -5.553323489948525e-08, -1.0441433317964766e-07, -9.193535710494416e-09, -5.641338063355761e-08, -8.594545164442025e-08, 0.11561989039182663, 0.2106909155845642, 0.24299554526805878, 0.13388624787330627, 0.19997352361679077, 0.26994481682777405, 0.10135780274868011, 0.16024495661258698, 0.15381143987178802, -0.16104109585285187, -0.17331992089748383, -0.15722770988941193, -0.13997593522071838, -0.2490653544664383, -0.28999191522598267, -0.18603244423866272, -0.2569657266139984, -0.30023565888404846, -0.00805289950221777, -0.028137728571891785, 0.029956210404634476, 0.05070923641324043, -0.13606026768684387, -0.13479097187519073, -0.04302271828055382, -0.1552421599626541, -0.10062213242053986, 0.08671140670776367, 0.09876813739538193, 0.15536950528621674, -0.06310182064771652, -0.01820720173418522, 0.08023405820131302, 0.0005130743375048041, 0.050769269466400146, 0.031401377171278, 0.09902933239936829, 0.1526249796152115, 0.17375485599040985, 0.052689213305711746, 0.06055258587002754, 0.0930362418293953, 0.07865732163190842, 0.08362938463687897, 0.07506759464740753, -0.03271075338125229, -0.01176291611045599, 0.0004931129515171051, -0.06932295113801956, -0.0013391858665272593, 0.03102264739573002, 0.007073764689266682, 0.06117180362343788, 0.07616480439901352, 4.959195265245528e-41, -4.984558767449807e-41, -4.968023445570774e-41, 4.987221234532024e-41, 4.955411759391851e-41, -5.00053356994311e-41, 4.995068505932243e-41, 4.918837869472973e-41, -4.906646572833347e-41, 0.042137663811445236, -0.007267243694514036, 0.08145803213119507, 0.018246907740831375, -0.05233200266957283, -0.035819362848997116, 0.06766557693481445, 0.007682701572775841, -0.06968091428279877, 0.0005023685516789556, 0.03208346292376518, 0.02894592471420765, 0.021711474284529686, -0.06547673791646957, 0.010003752075135708, -0.003769239876419306, -0.048461757600307465, 0.05471372604370117, 0.02043060213327408, 0.09069663286209106, 0.16049811244010925, 0.012723779305815697, 0.08347564935684204, 0.018311791121959686, 0.06685074418783188, 0.0783093050122261, 0.056002214550971985, -0.07908594608306885, 0.12899205088615417, -0.030102061107754707, 0.03088165447115898, 0.09322816133499146, -0.039345987141132355, -0.008084465749561787, -0.009717270731925964, -0.11608288437128067, -0.3041140139102936, -0.20200897753238678, -0.39758801460266113, -0.380887895822525, -0.2630356252193451, -0.2260759323835373, -0.23433122038841248, -0.1382737010717392, -0.15483786165714264, 0.011989780701696873, 0.0835280790925026, 0.16106504201889038, -0.06059693172574043, -0.017697922885417938, 0.06292510777711868, 0.0004934942699037492, 0.11001601815223694, 0.12171977013349533, 0.0501493476331234, 0.12153786420822144, 0.13153062760829926, -0.001660289359278977, 0.13650032877922058, 0.10969714820384979, 0.017187539488077164, 0.10858844965696335, 0.1626601666212082, -0.08714140206575394, -0.08872419595718384, -0.17560434341430664, 0.04412264749407768, -0.04921480640769005, -0.19191917777061462, 0.08751922100782394, 0.013691444881260395, -0.05665697529911995, -2.9214578489700216e-07, -5.624209507004707e-07, -6.587896450582775e-07, -1.2316658057898167e-06, -2.1725766146118985e-06, -2.3418319869961124e-06, -8.273175922113296e-07, -1.495176206844917e-06, -1.6083801028798916e-06, 0.1720527559518814, 0.1941462755203247, 0.20319168269634247, 0.22599858045578003, 0.22694943845272064, 0.2646074593067169, 0.1799231618642807, 0.11525066196918488, 0.22907772660255432, -0.24966220557689667, -0.2622726261615753, -0.281014084815979, -0.28825265169143677, -0.28713539242744446, -0.3231722116470337, -0.19185148179531097, -0.27452200651168823, -0.26079848408699036, -0.039056871086359024, -0.14157025516033173, -0.008459219709038734, -0.05219416320323944, -0.10332956910133362, -0.10283239930868149, -0.042555537074804306, -0.16269174218177795, -0.1584915816783905, 0.058488231152296066, 0.035001784563064575, 0.08172482252120972, 0.05306912958621979, 0.03315848484635353, 0.045119091868400574, 0.0701470896601677, 0.05993799492716789, 0.08842670172452927, 0.10532445460557938, 0.11399640142917633, 0.11174140870571136, 0.09401413053274155, 0.07015222311019897, 0.016251329332590103, 0.03903079405426979, 0.033247385174036026, 0.026562433689832687, -0.006541150622069836, 0.03238172456622124, -0.00893052015453577, 0.01938687451183796, -0.012392459437251091, 0.03530581668019295, 0.05313783884048462, -0.004225662909448147, 0.0167380403727293, -4.95653279816331e-41, -4.924583193176705e-41, 4.985119286835537e-41, -4.956672928009743e-41, 4.947003968605902e-41, -4.968724094802936e-41, -4.941398774748602e-41, 4.908748520529834e-41, -4.943640852291522e-41, 0.01010197214782238, 0.02509884163737297, 0.03437875956296921, -0.04575005918741226, -0.040927644819021225, 0.014894572086632252, 0.004512915387749672, 0.028305351734161377, -0.07645834237337112, 0.04137478023767471, 0.029346641153097153, 0.05624670162796974, 0.01307618711143732, -0.03264743089675903, 0.0527472123503685, 0.07700272649526596, 0.05061081424355507, 0.0006837388500571251, 0.055812492966651917, 0.12009277194738388, 0.08764024823904037, 0.09245169162750244, 0.08806230127811432, 0.06328810751438141, 0.07248096913099289, 0.08543740212917328, 0.10638795047998428, 0.013642217963933945, -0.027990560978651047, -0.01967756450176239, -0.0762946829199791, -0.062397316098213196, -0.102147176861763, -0.07970217615365982, -0.02321636490523815, -0.06997990608215332, -0.528054416179657, -0.21865776181221008, -0.33691152930259705, -0.3303823173046112, -0.33176374435424805, -0.21605174243450165, -0.17717505991458893, -0.09322770684957504, -0.229412242770195, 0.11374689638614655, 0.12131839990615845, 0.09115921705961227, 0.035585954785346985, 0.05954069271683693, 0.060555897653102875, 0.13814756274223328, 0.023364614695310593, 0.05809919536113739, 0.04185967147350311, 0.10250396281480789, 0.0017287740483880043, 0.027110779657959938, 0.04788990318775177, 0.110285185277462, 0.10597524046897888, 0.019685247913002968, 0.0798148512840271, -0.13700741529464722, -0.06346570700407028, -0.13771352171897888, -0.16319231688976288, -0.10365062206983566, -0.13331592082977295, -0.1568259596824646, -0.101010762155056, -0.08484295755624771, -3.5561180666832115e-09, -4.9970338977800566e-09, -4.917047213837122e-09, -2.2793851250924035e-09, -2.474847216049625e-09, -1.9558763497684595e-09, -8.776778609442815e-11, -1.0575266357060187e-10, -1.1987538739433035e-10, 0.13567356765270233, 0.16238315403461456, 0.21681489050388336, 0.1086285188794136, 0.16024363040924072, 0.22393065690994263, 0.12552444636821747, 0.14713630080223083, 0.15521124005317688, -0.11672740429639816, -0.04790845140814781, -0.1340954601764679, -0.1365525871515274, -0.062428150326013565, -0.1445073038339615, -0.1705593764781952, -0.16722717881202698, -0.1385306566953659, 0.12807655334472656, -0.08951661735773087, 0.048571307212114334, -0.3157816231250763, -0.126030832529068, -0.13822196424007416, -0.20112605392932892, -0.16246093809604645, -0.11826053261756897, 0.08425210416316986, 0.01425919122993946, -0.019166292622685432, -0.028891516849398613, -0.018302900716662407, -0.04764540493488312, -0.007294113747775555, -0.106473907828331, -0.08176611363887787, -0.024999698624014854, -0.08943695574998856, -0.13765326142311096, 0.15114280581474304, 0.059948891401290894, -0.10453512519598007, -0.043149784207344055, -0.23851777613162994, -0.17310018837451935, -0.0008577812695875764, -0.08060438930988312, -0.10218341648578644, -0.04331813007593155, -0.04795173555612564, -0.1308005154132843, -0.03877395763993263, -0.07365988940000534, -0.11233361810445786, 4.916595791930053e-41, -5.01524720381852e-41, 5.015667593357818e-41, -4.921920726094487e-41, 5.034725252472635e-41, 5.029260188461768e-41, 5.010622918886248e-41, -4.996890193935865e-41, 4.977692404974615e-41, 0.04373674839735031, 0.08443587273359299, 0.1284393072128296, -0.07481920719146729, 0.03684336319565773, 0.0928797796368599, -0.1095159500837326, -0.03086935542523861, 0.04883816838264465, 0.11641351133584976, 0.12207988649606705, 0.011895805597305298, 0.010235554538667202, 0.0918675884604454, 0.047310955822467804, -0.004301710519939661, 0.014965523965656757, 0.013728304766118526, 0.04264235869050026, 0.07917578518390656, 0.15478916466236115, -0.062082719057798386, 0.07487523555755615, 0.18050584197044373, 0.01531893014907837, 0.10128720849752426, 0.10582920163869858, 0.0891444981098175, 0.05645206198096275, 0.06554679572582245, -0.06541025638580322, -0.021013762801885605, 0.03905206918716431, -0.08957333117723465, -0.0043940762989223, 0.0374428816139698, 0.00807533971965313, 0.17969423532485962, -0.18895938992500305, -0.3961523771286011, 0.030430519953370094, -0.16634632647037506, 0.19694098830223083, 0.2109205573797226, -0.07987543940544128, -0.043987322598695755, 0.03345697745680809, 0.017273351550102234, 0.07983674108982086, -0.023067118600010872, -0.14366605877876282, -0.0023596861865371466, -0.04677627980709076, -0.01907641440629959, 0.015609335154294968, 0.06682515889406204, -0.02647450380027294, 0.05322625860571861, -0.033580392599105835, -0.09788453578948975, 0.026614995673298836, -0.009237928315997124, 0.030778901651501656, -0.15186282992362976, -0.0974307507276535, -0.15455426275730133, -0.1338234543800354, -0.15008851885795593, -0.1257353127002716, -0.13038183748722076, -0.1301312893629074, -0.07437895238399506, -1.1779991912486132e-11, -1.776934328845403e-11, -1.6697308466429028e-11, -1.0222032421902671e-11, -1.314152345971431e-11, -9.696795449931628e-12, -9.438631110416165e-14, -1.667132415190259e-13, -3.8588991485739854e-13, 0.1558125764131546, 0.08153312653303146, 0.18171179294586182, 0.18211357295513153, 0.11262350529432297, 0.22071151435375214, 0.09869606047868729, 0.10939107090234756, 0.16361276805400848, -0.13731887936592102, -0.13104070723056793, -0.16165286302566528, -0.07858642190694809, -0.09050009399652481, -0.11136873811483383, -0.10779117792844772, -0.12940536439418793, -0.1295240968465805, -0.1298617422580719, -0.14177076518535614, 0.05198628827929497, -0.21417494118213654, -0.0992049053311348, -0.0846879705786705, -0.19284506142139435, -0.147617906332016, -0.027648838236927986, -0.022055963054299355, 0.034263450652360916, -0.066989004611969, -0.03241181746125221, 0.023844517767429352, -0.05253516137599945, 0.002294940873980522, -0.09596531838178635, -0.048394959419965744, -0.027977382764220238, -0.08429063111543655, -0.1291293501853943, 0.07866443693637848, 0.026031436398625374, -0.0740170106291771, -0.0776650533080101, -0.15755966305732727, -0.14429865777492523, -0.01925843581557274, -0.02448361925780773, -0.046833038330078125, -0.08564332127571106, -0.004700159188359976, -0.11238623410463333, -0.01741825044155121, 0.0012903499882668257, -0.0066156936809420586, -4.959195265245528e-41, 4.927525919951787e-41, 5.00109408932884e-41, -5.660545146640099e-41, -4.983577858524779e-41, 4.929908127341139e-41, -4.964940588949259e-41, -4.911831377151349e-41, 4.926404881180327e-41, -0.0029905291739851236, 0.010425295680761337, 0.09756872802972794, 0.023314204066991806, 0.03226792812347412, 0.004666752647608519, -0.06699061393737793, -0.04609284549951553, 0.040423907339572906, 0.005536958575248718, 0.07756691426038742, -0.011979914270341396, 0.02117236889898777, 0.04821700602769852, 0.06331675499677658, 0.011605806648731232, 0.05823728069663048, 0.04081369563937187, 0.032161831855773926, 0.07737196236848831, 0.15232977271080017, 0.01941826194524765, 0.08798551559448242, 0.09194262325763702, 0.08682716637849808, 0.09156040847301483, 0.146940216422081, 0.01729119010269642, 0.013559050858020782, 0.00371846673078835, 0.003948399797081947, 0.024941733106970787, -0.022940773516893387, -0.017156176269054413, -0.022514481097459793, 0.017857272177934647, -0.20291255414485931, 0.15472859144210815, -0.11996942013502121, -0.17721833288669586, -0.165370911359787, -0.116262286901474, 0.05986566096544266, 0.1454182118177414, -0.17958863079547882, 0.04637930542230606, 0.03463916853070259, 0.031128784641623497, -0.03146106377243996, 0.005674745887517929, -0.07533563673496246, 0.05721481144428253, 0.0006725642597302794, -0.037792496383190155, 0.000973582617007196, 0.04729476198554039, -0.05633595585823059, 0.0496603399515152, 0.01629956066608429, 0.006897691171616316, 0.013503527268767357, 0.04452289268374443, -0.03906070068478584, 5.692074362087407e-41, 5.601970870831321e-41, 4.954010460927526e-41, -5.369915845139131e-41, -5.551243866422763e-41, 5.025056293068794e-41, -5.162944061958356e-41, -5.861351216577845e-41, -5.208766521741778e-41, 4.909449169761997e-41, 5.091337710431358e-41, 5.103388877224551e-41, -4.906786702679779e-41, 6.073647933923055e-41, 6.108540265684743e-41, -5.984104962052699e-41, 5.083350309184706e-41, 5.025616812454524e-41, -6.14679571376081e-41, -5.01804980074717e-41, -5.318908581037708e-41, -5.141364065607754e-41, -5.318067801959113e-41, -5.222919636231458e-41, -5.129453028660993e-41, -5.127771470503803e-41, -5.224881454081513e-41, -5.740279029260181e-41, 5.238053659646166e-41, -4.953870331081093e-41, -5.263837551389743e-41, 5.111376278471203e-41, -5.245200281814223e-41, 4.918837869472973e-41, 5.000953959482407e-41, 5.097783683367252e-41, 5.885593680010664e-41, 5.135338482211157e-41, -5.021693176754414e-41, -5.155377050251002e-41, -5.19251145955561e-41, -5.888256147092881e-41, -5.447968169602024e-41, 5.065133429148484e-41, 5.991812103606485e-41, -5.05588485928394e-41, -5.042012004487124e-41, -4.960036044324123e-41, -4.95933539509196e-41, -5.031502266004688e-41, -5.030521357079661e-41, -4.921640466401623e-41, -5.001234219175272e-41, -4.97909370343894e-41, 5.203021198038046e-41, 5.38280779101092e-41, 5.399343112889953e-41, 5.298169363765701e-41, 5.089095632888438e-41, -5.302373259158675e-41, 4.927946309491084e-41, 5.962384835855664e-41, 5.296207545915646e-41, -5.050419795273073e-41, -4.984698897296239e-41, -5.041171225408529e-41, -4.961857732327745e-41, -6.18238869475466e-41, -5.012164347197006e-41, -4.92262137532665e-41, -5.017909670900737e-41, -4.974889808045966e-41, -6.213777780355536e-41, 5.148230428082945e-41, -5.107452642771093e-41, 5.567358798762498e-41, -5.88138978461769e-41, -6.223446739759378e-41, 4.926124621487462e-41, -5.738597471102991e-41, 5.081108231641787e-41, -5.082649659952544e-41, -5.106471733846066e-41, -5.024776033375929e-41, -5.164905879808411e-41, -4.913933324847836e-41, -5.026597721379551e-41, -5.113197966474825e-41, -5.139402247757699e-41, -5.101567189220929e-41, -5.075923427323785e-41, -4.974189158813803e-41, -5.945288994590901e-41, -5.369775715292699e-41, -4.938736307666385e-41, -4.937475139048493e-41, -4.99717045362873e-41, -4.964099809870664e-41, -6.206491028341047e-41, -6.121852601095828e-41, -5.260894824614661e-41, 5.307417933630245e-41, 4.971947081270883e-41, 5.0570058980554e-41, 5.128612249582398e-41, 5.132395755436075e-41, 5.061630182987672e-41, 5.735514614481476e-41, -5.17163211243717e-41, -4.976991755742453e-41, -4.94350072244509e-41, -5.159580945643976e-41, -4.932990983962654e-41, -5.068216285769998e-41, -4.934112022734113e-41, -5.047336938651559e-41, -4.950787474459579e-41, -5.63237904750717e-41, -5.292984559447699e-41, 5.867797189513739e-41, 5.144867311768566e-41, 5.576747498473474e-41, 5.545358412872599e-41, 5.148370557929378e-41, 5.533727635618703e-41, 5.419241551083365e-41, -4.915474753158593e-41, -4.927666049798219e-41, -5.036827200169122e-41, -5.001374349021705e-41, -5.076343816863082e-41, -5.0570058980554e-41, -4.907767611604807e-41, -5.017349151515008e-41, -4.951908513231039e-41, -4.913092545769241e-41, -5.007960451804031e-41, -5.028279279536741e-41, -5.042852783565719e-41, -4.990304091153539e-41, -5.009081490575491e-41, -5.029400318308201e-41, -4.940417865823575e-41, -5.024916163222362e-41, 0.3087473213672638, 0.3720075190067291, 0.21990911662578583, 0.1872408390045166, 0.26689520478248596, 0.11651305854320526, 0.20546908676624298, 0.24879030883312225, 0.19151578843593597, -2.4776055772973704e-12, -3.683755557537527e-12, -2.56589432860721e-12, -9.630911519675767e-13, -1.7437440380518865e-11, -5.556917339472056e-12, -2.2062269545986e-12, -1.9419096539130543e-11, -1.7841177753913362e-12, 0.054283469915390015, 0.04449102282524109, 0.01693880744278431, 0.05722970515489578, 0.0407835952937603, 0.024662459269165993, -0.017284465953707695, 0.06052497401833534, -0.018944161012768745, -0.007515770848840475, 0.12405473738908768, 0.04375793784856796, -0.0713493600487709, 0.029726339504122734, 0.039288535714149475, -0.03753213956952095, 0.02761167660355568, 0.055518507957458496, 0.21364793181419373, 0.2890675663948059, 0.14864103496074677, 0.08210738748311996, 0.265034943819046, 0.11452384293079376, 0.058434728533029556, 0.12222658842802048, 0.2113773375749588, -0.07999997586011887, -0.08421796560287476, -0.04546288773417473, -0.04566711187362671, -0.13901866972446442, -0.04494408518075943, -0.10320060700178146, -0.10485601425170898, -0.05523506551980972, -0.07341179996728897, 0.27879053354263306, 0.07675140351057053, -0.035895176231861115, -0.04714876413345337, 0.1211082711815834, -0.2630348205566406, -0.04433093219995499, 0.026895921677350998, -0.14498530328273773, -0.15320220589637756, -0.019542846828699112, -0.16960377991199493, -0.11811785399913788, -0.06554817408323288, -0.1501888632774353, -0.18143928050994873, 0.02122087962925434, 4.965360978488557e-41, 4.959755784631258e-41, 4.905385404215455e-41, -4.929767997494706e-41, 4.968163575417206e-41, 4.966482017260017e-41, 4.906926832526212e-41, -4.982877209292617e-41, 4.956813057856175e-41, 0.09626497328281403, 0.04206479340791702, 0.0018287869170308113, 0.047343526035547256, 0.1120857447385788, -0.024662217125296593, 0.02368994615972042, 0.01865580677986145, 0.025665052235126495, 0.06156240776181221, 0.04837155342102051, 0.02474636398255825, 0.0234130397439003, 0.029230844229459763, -0.018623681738972664, 0.024151181802153587, -0.009804250672459602, -0.0065735927782952785, 0.1309547871351242, 0.12935248017311096, -0.04224004969000816, 0.0735802873969078, 0.018696406856179237, -0.03594818711280823, 0.0501244030892849, 0.043874431401491165, -0.05748912692070007, 0.0734570249915123, 0.1746840476989746, -0.011961547657847404, 0.1128358468413353, 0.06219150498509407, 0.022727908566594124, 0.0314335860311985, 0.1389184594154358, 0.05300895869731903, -0.42803075909614563, -0.48752254247665405, -0.40957972407341003, 0.05770447850227356, 0.21744567155838013, -0.05308059975504875, -0.4358232915401459, -0.3545543849468231, -0.3022969365119934, -0.17065663635730743, -0.10796193778514862, -0.015460487455129623, -0.19954901933670044, -0.23928572237491608, -0.12109123915433884, -0.15580886602401733, -0.2404666692018509, -0.10829132050275803, -0.1855476200580597, -0.18288935720920563, -0.08690668642520905, -0.14077870547771454, -0.16430963575839996, -0.16447490453720093, -0.10173185169696808, -0.1587172895669937, -0.07450775802135468, -0.1453232616186142, -0.17392005026340485, -0.23104320466518402, -0.15573006868362427, -0.25275471806526184, -0.21307708323001862, -0.10281886905431747, -0.09294264763593674, -0.09713152050971985, 1.738233201820094e-08, 1.4370994172452356e-08, 4.0353093311296107e-08, 2.248409236571547e-09, 1.0852431842067745e-08, 2.1975409936203505e-08, 2.393962361679769e-09, 5.524088297903518e-09, 1.1390885568118847e-08, 0.12347562611103058, 0.11385370045900345, 0.16898249089717865, 0.21449247002601624, 0.19725660979747772, 0.21017369627952576, 0.194254070520401, 0.1313505470752716, 0.17608460783958435, -0.1458720713853836, 0.044692233204841614, -0.10048789530992508, -0.09203370660543442, -0.010085188783705235, -0.052713945508003235, 0.03413751348853111, -0.0661032423377037, 0.03175415098667145, 0.1975666880607605, -0.30215808749198914, 0.07790885865688324, -0.31952640414237976, -0.30264076590538025, -0.44550174474716187, -0.3144962787628174, -0.1952868551015854, -0.31097036600112915, -0.03954247012734413, -0.09650173038244247, -0.16719481348991394, -0.04198448732495308, -0.11929012835025787, -0.13094045221805573, -0.04767848923802376, -0.06934621185064316, -0.1542184054851532, 0.09078061580657959, -0.3085556626319885, -0.2267109900712967, 0.14519678056240082, 0.17701378464698792, -0.1693391352891922, 0.31741997599601746, -0.3311788737773895, 0.0863775834441185, 0.09433617442846298, 0.0005034876521676779, -0.02104717306792736, -0.1155444085597992, -0.12215369939804077, -0.16657193005084991, -0.11291827261447906, -0.09122107923030853, -0.20176662504673004, -5.11347822616769e-41, 5.157338868101057e-41, 5.019871488750792e-41, 5.078305634713137e-41, -5.068356415616431e-41, 5.079847063023894e-41, 5.004597335489652e-41, 4.979794352671102e-41, 5.012444606889871e-41, 0.007480334956198931, 0.0027823196724057198, 0.10478702932596207, 0.05218081548810005, 0.049654651433229446, 0.11869345605373383, -0.01166995707899332, 0.017488347366452217, 0.02839350886642933, 0.14282412827014923, 0.08117265999317169, 0.03923480585217476, 0.07229319214820862, 0.030500592663884163, -0.007949206046760082, 0.07079318165779114, 0.001696233288384974, 0.0350322350859642, -0.004805404227226973, -0.016132403165102005, 0.06670253723859787, 0.020899919793009758, 0.004886025097221136, 0.10180772840976715, 0.05566010624170303, 0.07051609456539154, 0.06898649036884308, 0.0682174414396286, -0.02494862675666809, 0.0514661930501461, 0.05655631422996521, 0.0014425019035115838, 0.0672452300786972, 0.07861242443323135, -0.017656005918979645, 0.06216373294591904, 0.4069492220878601, 0.5680130124092102, 0.0034084508661180735, -0.18833117187023163, 0.25232577323913574, -0.49784255027770996, 0.1353778839111328, 0.4299374520778656, 0.06923586130142212, -0.03034285083413124, -0.0005241330363787711, -0.10498610138893127, -0.03957344591617584, -0.059565894305706024, -0.1021638736128807, 0.024295682087540627, -0.004548368975520134, -0.12568950653076172, -2.159091309295036e-05, 0.08395886421203613, -0.12197304517030716, -0.057409413158893585, -0.028333846479654312, -0.051609788089990616, -0.07087652385234833, -0.004675949923694134, 0.018298376351594925, -0.09863090515136719, -0.09107698500156403, -0.18332232534885406, -0.18079988658428192, -0.24781763553619385, -0.2725426256656647, -0.03208646550774574, 0.03588920086622238, -0.0991394966840744, 1.2307181123105693e-06, 1.251122967005358e-06, 1.479461730014009e-06, 4.5917832380837353e-07, 6.020641194481868e-07, 6.8620897764049e-07, 1.3673430032667966e-07, 1.758482142122375e-07, 2.7416891157372447e-07, 0.15638598799705505, 0.10931336879730225, 0.1321391463279724, 0.14743900299072266, 0.11008951812982559, 0.14722956717014313, 0.13609127700328827, 0.17954590916633606, 0.13156190514564514, -0.05832809582352638, -0.009048394858837128, -0.09112925827503204, -0.10140913724899292, -0.021250570192933083, -0.09152095764875412, 0.049280889332294464, -0.052641455084085464, 0.05795115977525711, 0.25140810012817383, -0.2357904613018036, 0.0560179129242897, -0.2084321528673172, -0.20445725321769714, -0.471274733543396, -0.08029306679964066, 0.021845916286110878, -0.33623597025871277, 0.005051733925938606, -0.09178188443183899, -0.09064605832099915, -0.08200099319219589, -0.1071624755859375, -0.16171397268772125, -0.04299292340874672, -0.13710260391235352, -0.11318352073431015, 0.2879108488559723, -0.11557736247777939, -0.08094844967126846, 0.06806378066539764, 0.3883219063282013, -0.19321417808532715, 0.3244723379611969, -0.3468315303325653, 0.09647801518440247, 0.07593896239995956, -0.010651151649653912, -0.04473212733864784, -0.17935125529766083, -0.21573150157928467, -0.19872432947158813, -0.17037442326545715, -0.10845563560724258, -0.23610498011112213, -5.122166276646504e-41, 5.099465241524442e-41, -4.936634359969898e-41, 5.075503037784487e-41, -4.939997476284278e-41, -5.065273558994916e-41, 4.994788246239378e-41, -4.955832148931148e-41, -4.987781753917754e-41, 0.011604540050029755, 0.03477565571665764, 0.09388142824172974, 0.04057764634490013, 0.03694409877061844, 0.008103746920824051, 0.10476507991552353, 0.0685357004404068, 0.10422439873218536, 0.06637243926525116, 0.07121535390615463, 0.03244640305638313, 0.020197883248329163, -0.01361396349966526, -0.04917198792099953, 0.11821594089269638, 0.07505013048648834, 0.07769985496997833, -0.004803881514817476, -0.027489611878991127, 0.04267703741788864, 0.01459467876702547, -0.06795342266559601, 0.08402969688177109, 0.08086256682872772, 0.041077692061662674, 0.039893653243780136, 0.08002500981092453, 0.05086555704474449, 0.0798470750451088, 0.03027511201798916, -0.0459337942302227, 0.09086862206459045, 0.1457875669002533, 0.00922107882797718, 0.12878689169883728, 0.3481581211090088, 0.5764064192771912, -0.08973228931427002, 0.2366723120212555, 0.4981318414211273, 0.16919493675231934, 0.13554945588111877, 0.6101757884025574, 0.08754944801330566, -0.000808129901997745, 0.0023520125541836023, -0.05901304632425308, -0.12087102979421616, -0.13651742041110992, -0.16622786223888397, -0.06943954527378082, -0.06969176232814789, -0.161635160446167, 0.07656718045473099, 0.10487842559814453, -0.04055700823664665, -0.06737753748893738, -0.06977777183055878, -0.07417504489421844, -0.03276258707046509, -0.059470947831869125, -0.03660336881875992, 0.29730796813964844, 0.3252565562725067, 0.22353476285934448, 0.2060362994670868, 0.25276267528533936, 0.14015719294548035, 0.2161497324705124, 0.21806003153324127, 0.21094579994678497, -1.4463680253484767e-10, -1.9875941170699463e-10, -1.0937074162997718e-10, -7.099774934626879e-11, -2.675491217463133e-10, -1.5795961760822763e-10, -7.530412404754827e-11, -2.8761348858097335e-10, -9.387605970356816e-11, -0.01078152097761631, 0.014437924139201641, 0.018857447430491447, 0.029784249141812325, 0.08882363885641098, 0.004233817104250193, 0.06227295845746994, 0.014767159707844257, -0.035141076892614365, 0.04469672590494156, 0.07518491894006729, 0.010507275350391865, -0.08687103539705276, -0.04087899997830391, 0.0201360322535038, -0.06167518347501755, 0.045344650745391846, 0.08618661761283875, 0.1510927528142929, 0.18241091072559357, 0.11470776796340942, 0.09188723564147949, 0.17113129794597626, 0.10467787832021713, 0.05883358046412468, 0.09101883322000504, 0.20762841403484344, -0.15393705666065216, -0.14747847616672516, -0.04665493965148926, -0.1381159871816635, -0.13600865006446838, -0.1449737697839737, -0.11247122287750244, -0.08788910508155823, -0.08680633455514908, -0.12140664458274841, -0.04604359343647957, 0.04193609580397606, -0.1745917797088623, -0.04798051714897156, 0.045982442796230316, -0.27427542209625244, -0.1582830548286438, -0.10604579746723175, -0.17546039819717407, -0.24619360268115997, -0.09328100830316544, -0.20774754881858826, -0.24783845245838165, -0.19621224701404572, -0.13000869750976562, -0.2140912264585495, -0.11465908586978912, 4.944902020909414e-41, -4.955411759391851e-41, 4.92486345286957e-41, -4.969284614188666e-41, 4.930608776573301e-41, -4.961997862174177e-41, 4.964800459102827e-41, 4.933411373501951e-41, 4.947984877530929e-41, -0.015301777981221676, 0.08962330222129822, 0.06652963161468506, -0.004931583069264889, 0.032590314745903015, 0.06814078241586685, 0.08277516067028046, 0.052099332213401794, 0.10260286182165146, 0.03247810900211334, 0.06161915138363838, 0.032106053084135056, 0.08785787224769592, 0.04797930642962456, 0.06671448051929474, 0.052657414227724075, 0.02157237008213997, 0.030479634180665016, 0.013536994345486164, 0.16037176549434662, 0.030458156019449234, 0.0028955929446965456, 0.025038307532668114, 0.05330195277929306, 0.02334677428007126, 0.07317061722278595, 0.05485859885811806, 0.08874014765024185, 0.17175760865211487, 0.10374265164136887, 0.056349340826272964, 0.07092954218387604, -0.005828555207699537, -0.0040731653571128845, 0.10797826945781708, 0.05118802934885025, -0.5229564905166626, -0.4889034330844879, -0.5139127969741821, -0.10980286449193954, -0.08130909502506256, -0.07502789050340652, -0.5041515827178955, -0.3648519515991211, -0.38370537757873535, -0.1907339245080948, -0.2044433206319809, -0.069603331387043, -0.2172626405954361, -0.22461450099945068, -0.18986855447292328, -0.15189087390899658, -0.1737242341041565, -0.19994746148586273, -0.16557733714580536, -0.17076510190963745, -0.1350909322500229, -0.222568541765213, -0.26669150590896606, -0.24940073490142822, -0.12196886539459229, -0.14619950950145721, -0.212746262550354, 0.29446691274642944, 0.4306201934814453, 0.2179596722126007, 0.04991799220442772, 0.18392233550548553, 0.03038853220641613, 0.058782290667295456, 0.1738245040178299, 0.08464612811803818, -3.571996502958753e-17, -4.7800537520508026e-17, -5.441071646643158e-17, -2.1031209349226088e-17, -1.6884169788438025e-16, -8.927043020257622e-17, -2.254045331638829e-17, -3.520299369035414e-16, -7.329929972729626e-17, 0.15384632349014282, 0.05564923584461212, 0.10669150203466415, 0.1038195788860321, 0.08176232874393463, 0.03319616988301277, 0.02968613989651203, -0.02172488532960415, 0.04265132173895836, -0.03376789763569832, 0.1921655386686325, 0.02505219541490078, -0.09387297928333282, -0.03457934036850929, 0.010858300141990185, -0.03999323397874832, 0.06888015568256378, -0.013367860578000546, 0.13407889008522034, 0.35018444061279297, 0.11543247103691101, -0.07656819373369217, 0.2091580480337143, 0.017451589927077293, -0.10064475238323212, 0.07692322134971619, 0.030928952619433403, -0.05481165274977684, -0.022662131115794182, -0.002045310102403164, -0.02978619746863842, -0.0593576543033123, -0.03692077472805977, -0.015152369625866413, -0.0856751948595047, -0.04563843458890915, -0.1381734162569046, 0.2875916361808777, 0.045591387897729874, -0.0998602882027626, -0.12540863454341888, 0.010741295292973518, -0.04606424272060394, -0.07018206268548965, -0.0642567053437233, -0.20882314443588257, -0.13124771416187286, -0.050815146416425705, -0.1383236050605774, -0.07470777630805969, -0.07488273084163666, -0.0797194093465805, -0.08027255535125732, -0.005082399118691683, -4.952889422156066e-41, 4.983437728678347e-41, -4.934392282426978e-41, -5.043413302951449e-41, -5.020992527522252e-41, 4.989463312074944e-41, 4.950927604306011e-41, 4.919958908244433e-41, -4.905945923601185e-41, 0.1586354523897171, 0.15066738426685333, 0.07391634583473206, 0.0487808883190155, 0.07349513471126556, 0.009750514291226864, -0.038159068673849106, -0.011477958410978317, -0.020917117595672607, 0.08793211728334427, 0.058163758367300034, 0.13943007588386536, 0.08903545886278152, 0.06827262789011002, 0.0038463897071778774, 0.021906157955527306, 0.05364655703306198, 0.015553210861980915, 0.1509142518043518, 0.17046873271465302, 0.10489504039287567, 0.05953036621212959, 0.03032243438065052, 0.03578387573361397, 0.005977510008960962, 0.028440169990062714, 0.029546452686190605, 0.16411535441875458, 0.15114396810531616, 0.0622054822742939, 0.01645710878074169, 0.032074008136987686, -0.03475704416632652, -0.025440113618969917, 0.027062268927693367, 0.06317920982837677, -0.41597840189933777, -0.26737135648727417, -0.3380049169063568, -0.15308773517608643, 0.4081178307533264, -0.10010538250207901, -0.4867461323738098, -0.2852393388748169, -0.3538740873336792, -0.061448294669389725, -0.08623306453227997, -0.042353980243206024, -0.06549184024333954, -0.11953552067279816, -0.07668265700340271, -0.04002939909696579, -0.14119890332221985, -0.0782264694571495, -0.13568583130836487, -0.14193876087665558, -0.06935639679431915, -0.05184972286224365, -0.1020975112915039, -0.13665977120399475, -0.003906595055013895, -0.05610594153404236, -0.046967167407274246, -0.09204016625881195, -0.08640724420547485, -0.2265903651714325, 0.06081566587090492, -0.09722933918237686, -0.30465167760849, 0.09730390459299088, -0.0017742536729201674, -0.13865669071674347, -6.0926628187019105e-09, -1.9034283482710634e-08, -2.9370337273348923e-08, -1.4812887627613236e-07, -3.6971175632061204e-07, -4.379964479994669e-07, -1.467929990894845e-07, -3.2591256626801623e-07, -3.6336248854240694e-07, 0.12815985083580017, 0.21962830424308777, 0.23260007798671722, 0.18990926444530487, 0.20978184044361115, 0.15223199129104614, 0.11988182365894318, 0.17367666959762573, 0.18567900359630585, -0.2602421045303345, -0.20446710288524628, -0.21830102801322937, -0.2161562591791153, -0.20331023633480072, -0.24523808062076569, -0.2838350236415863, -0.269180029630661, -0.24734339118003845, -0.05559816583991051, -0.1675707846879959, -0.004834986757487059, -0.010871421545743942, -0.061108142137527466, -0.1634078472852707, -0.001317350659519434, -0.09539700299501419, -0.09305660426616669, 0.08329722285270691, 0.01963632181286812, 0.09511447697877884, 0.0820840448141098, -0.024402935057878494, 0.05475316196680069, -0.037428561598062515, -0.013972792774438858, -0.022560985758900642, 0.15606704354286194, 0.10083361715078354, 0.1199486032128334, 0.11370875686407089, 0.06405196338891983, 0.10355784744024277, 0.05065957456827164, 0.018537182360887527, -0.036451272666454315, 0.055713068693876266, 0.02739950455725193, 0.07369882613420486, -0.034731458872556686, 0.06686563044786453, -0.01931830123066902, -0.01698979362845421, 0.02667248249053955, 0.010217441245913506, 4.949246046148821e-41, -4.974469418506668e-41, -5.010903178579113e-41, -4.938175788280655e-41, -4.925984491641029e-41, -5.001934868407435e-41, -4.950226955073849e-41, -4.94013760613071e-41, -4.980635131749697e-41, -0.0008604057366028428, -0.03785944730043411, 0.023780331015586853, -0.04998089373111725, 0.032503124326467514, 0.0005479018436744809, -0.036789972335100174, 0.01579533889889717, -0.02956417389214039, -0.002119847107678652, -0.011625495739281178, -0.025771839544177055, 0.0807417631149292, -0.003577030263841152, -0.02279665321111679, 0.023673154413700104, 0.032291386276483536, -0.009974811226129532, 0.07327734678983688, 0.09411640465259552, 0.07781069725751877, 0.017270220443606377, 0.06353527307510376, -0.03253985941410065, 0.1403321474790573, 0.0775761678814888, 0.09764941781759262, -0.0658307895064354, -0.040454670786857605, -0.037916962057352066, -0.06302141398191452, -0.005665223579853773, -0.08012014627456665, -0.160385400056839, 0.05247167497873306, -0.0674666315317154, -0.5663254857063293, -0.23303894698619843, -0.2970428168773651, -0.29505375027656555, -0.2445332258939743, -0.2501887083053589, 0.021174557507038116, 0.028699511662125587, -0.06023632735013962, 0.04251847788691521, 0.129169300198555, 0.11969953775405884, 0.06613321602344513, -0.001810995046980679, 0.06939460337162018, 0.11898049712181091, 0.03638673573732376, 0.11439758539199829, 0.09831319004297256, 0.10506633669137955, 0.039318036288022995, 0.11758943647146225, 0.14552980661392212, 0.08164319396018982, 0.02989431470632553, 0.06969093531370163, 0.11088591814041138, 0.10574837028980255, 0.1322256624698639, 0.0020785026717931032, 0.0294027216732502, 0.076510950922966, -0.014666462317109108, 0.0587601512670517, 0.1153881847858429, 0.09989140182733536, -2.4529265337663864e-12, -4.392198844210826e-12, -7.832715379074706e-12, -1.3488700174174584e-12, -6.492623712966994e-12, -1.5826086968706576e-11, -1.9677924654321055e-12, -1.4142086807167331e-11, -1.530080402656342e-11, 0.15162768959999084, 0.14809288084506989, 0.11721733957529068, 0.15854790806770325, 0.16451631486415863, 0.08698496222496033, 0.10578764975070953, 0.0816950649023056, 0.12528958916664124, -0.08295945078134537, -0.10850633680820465, -0.06538219749927521, -0.06844595819711685, -0.03235282376408577, -0.025790197774767876, -0.06601490825414658, -0.06254132837057114, 0.01608915440738201, -0.0076037258841097355, 0.049187272787094116, -0.06680239737033844, -0.0502769835293293, 0.0870167464017868, -0.02552538923919201, -0.0794883742928505, 0.04878681153059006, 0.09097334742546082, -0.07948319613933563, -0.0208018459379673, 0.003530132817104459, 0.03134874254465103, -0.05754239484667778, 0.02082093060016632, -0.031640902161598206, -0.07612872868776321, -0.054038047790527344, 0.05164198949933052, 0.18524351716041565, 0.1764555126428604, 0.06716646254062653, 0.0417642779648304, 0.2128271609544754, -0.09640157967805862, -0.06342928111553192, 0.01008792594075203, -0.1870984137058258, -0.12925247848033905, -0.06379909813404083, -0.1484845131635666, -0.2325712889432907, -0.12770749628543854, -0.11310677975416183, -0.20790360867977142, -0.06637240201234818, -5.15355536224738e-41, -4.957233447395473e-41, 5.117541991714232e-41, 4.980635131749697e-41, 5.093299528281413e-41, 5.986206909749186e-41, 5.124408354189424e-41, -5.078165504866705e-41, 5.027999019843876e-41, 0.05332297086715698, 0.012995341792702675, -0.025842279195785522, -0.006342635490000248, 0.02287808246910572, -0.0018172810086980462, -0.016348930075764656, 0.08603134006261826, 0.048318419605493546, 0.05970054492354393, -0.015502385795116425, 0.03925129026174545, 0.032851774245500565, -0.005477467086166143, -0.017874667420983315, 0.00563080282881856, 0.015812840312719345, 0.029962413012981415, 0.10901222378015518, 0.12640933692455292, 0.040606539696455, 0.11693143099546432, 0.05963446572422981, 0.013536510057747364, 0.03538821265101433, 0.09190605580806732, 0.02679813839495182, 0.0017616432160139084, 0.05549754947423935, -0.07293382287025452, -0.02649654634296894, 0.0300118587911129, 0.09107369929552078, 0.007447496522217989, 0.0677754282951355, 0.03576236218214035, -0.46467673778533936, -0.36143243312835693, -0.41490256786346436, -0.15339913964271545, 0.06406592577695847, -0.10978469252586365, -0.4596668779850006, -0.27682754397392273, -0.19097743928432465, -0.09605878591537476, -0.02100871503353119, 0.0537152960896492, -0.028484053909778595, -0.08493220806121826, -0.06280039250850677, -0.09969925880432129, -0.16056087613105774, -0.1070060282945633, -0.11597657948732376, -0.06437258422374725, -0.00920013152062893, -0.0549645833671093, -0.1468031257390976, -0.13350510597229004, -0.03063208796083927, -0.11962869763374329, -0.05947417393326759, -0.1817261278629303, -0.20126967132091522, -0.2697639465332031, -0.2680782079696655, -0.35014069080352783, -0.28429803252220154, -0.19745184481143951, -0.18062591552734375, -0.17240245640277863, 9.138540235653636e-08, 9.245515997235998e-08, 3.1475863693231076e-07, -4.88610396587319e-09, 1.0381382509194736e-07, 1.9184319910436898e-07, -1.0593943500225578e-09, 2.5898261313272997e-08, 8.31144149060492e-08, 0.21379098296165466, 0.18384335935115814, 0.16785606741905212, 0.18842598795890808, 0.15198415517807007, 0.20835468173027039, 0.1877809762954712, 0.20185306668281555, 0.18766538798809052, -0.14481386542320251, 0.05712832883000374, -0.10204344242811203, -0.1011059358716011, -0.04214342683553696, -0.03467142954468727, 0.012647103518247604, -0.10755305737257004, 0.060894712805747986, 0.1612538844347, -0.30062833428382874, 0.07673408091068268, -0.4597349464893341, -0.3978506028652191, -0.48939114809036255, -0.3916451632976532, -0.2767452001571655, -0.35014986991882324, 0.06775369495153427, -0.08362794667482376, -0.0945788249373436, -0.03192397952079773, -0.153675839304924, -0.137796550989151, -0.09828665107488632, -0.1295768916606903, -0.15711353719234467, 0.08851292729377747, -0.3120385706424713, -0.27149003744125366, 0.1997116506099701, 0.3222965896129608, -0.14983226358890533, 0.3792329728603363, -0.43817928433418274, 0.2417205572128296, 0.11801831424236298, -0.04373123496770859, -0.054321032017469406, -0.13832029700279236, -0.1702485978603363, -0.2133128046989441, -0.16933906078338623, -0.14844660460948944, -0.2661467492580414, 4.968583964956504e-41, 4.942239553827197e-41, -5.007540062264734e-41, 5.02085239767582e-41, 5.066254467919944e-41, 4.914073454694269e-41, 5.000813829635975e-41, 4.914493844233566e-41, -4.936634359969898e-41, 0.053305357694625854, 0.05483461171388626, 0.17169898748397827, 0.019622309133410454, 0.015301806852221489, 0.04660698398947716, 0.02669025957584381, 0.013517290353775024, 0.01577751338481903, 0.09518804401159286, 0.019141241908073425, -0.015164487063884735, 0.05111006274819374, 0.02202029339969158, -0.014595662243664265, 0.10805659741163254, 0.025049056857824326, -0.0010344791226089, 0.044086940586566925, 0.005921421106904745, 0.11149134486913681, 0.01977214403450489, -0.060999706387519836, 0.12049231678247452, 0.08335378766059875, 0.02859175205230713, 0.08407154679298401, 0.07009977102279663, -0.01117311604321003, 0.07909055054187775, 0.03691281005740166, 0.014239856041967869, 0.05748146027326584, 0.06046248599886894, -0.02688661217689514, 0.055165521800518036, 0.32648104429244995, 0.5382301807403564, -0.06739314645528793, -0.23005931079387665, 0.3807312548160553, -0.4962499439716339, 0.12895743548870087, 0.506714940071106, 0.06286252290010452, 0.020215990021824837, -0.03333207964897156, -0.11183153837919235, -0.011175127699971199, -0.09142004698514938, -0.1391211599111557, -0.009123154915869236, -0.10103080421686172, -0.15977607667446136, 0.0643509104847908, 0.0012307647848501801, -0.12648379802703857, -0.0515783466398716, 0.011575184762477875, -0.12223122268915176, -0.04633792117238045, -0.01742951013147831, -0.06657847762107849, 0.2569544017314911, 0.23837508261203766, 0.22108127176761627, 0.1975068747997284, 0.27255624532699585, 0.24135160446166992, 0.19848354160785675, 0.23392683267593384, 0.2070917785167694, 8.899812310725341e-13, 8.432060388460783e-13, 1.9230498270184082e-12, 3.321800300104538e-13, 8.831364459171986e-13, 6.669789503685464e-13, 4.101629517798411e-13, 7.112388477649445e-13, 3.7811550765431967e-13, 0.040878742933273315, 0.0034641267266124487, 0.04969324171543121, 0.12562602758407593, 0.07256347686052322, 0.06211071461439133, 0.08237000554800034, 0.02318599633872509, 0.06354087591171265, 0.08952544629573822, 0.024241046980023384, -0.03405172750353813, 0.0818786472082138, 0.10390674322843552, -0.02441798336803913, 0.10742426663637161, 0.11406677961349487, 0.025669027119874954, 0.10519321262836456, 0.2676321864128113, 0.19126442074775696, 0.22143107652664185, 0.36580875515937805, 0.34958940744400024, 0.2229958027601242, 0.3976878225803375, 0.2640269696712494, -0.039395079016685486, -0.013304301537573338, -0.09734182059764862, 0.04986908659338951, -0.026378506794571877, -0.06859038770198822, -0.06108755245804787, -0.06567882746458054, -0.01965533010661602, -0.1815619319677353, 0.16061608493328094, 0.042246073484420776, -0.03284074366092682, 0.052646905183792114, 0.1098724976181984, -0.04499894008040428, 0.37201517820358276, 0.006424127146601677, -0.09682755917310715, -0.12344389408826828, -0.1464347243309021, -0.1469707489013672, -0.10541556030511856, -0.14003466069698334, -0.19853810966014862, -0.10206068307161331, -0.06849291175603867, 4.952048643077471e-41, 4.969845133574396e-41, 4.911270857765619e-41, 4.947284228298767e-41, 4.921780596248055e-41, -4.985960065914132e-41, -4.936354100277033e-41, 4.940277735977143e-41, -4.986940974839159e-41, 0.016777224838733673, -0.023016205057501793, 0.03693549707531929, 0.1038336381316185, 0.05432802066206932, 0.07752721756696701, 0.07156328111886978, 0.060084328055381775, 0.07784153521060944, 0.11522851884365082, 0.10970266163349152, 0.07664487510919571, 0.12617206573486328, 0.17521142959594727, 0.18064522743225098, 0.1129920557141304, 0.0795401856303215, 0.17743812501430511, 0.057383615523576736, 0.09964397549629211, 0.06291350722312927, 0.10126464068889618, 0.07824116200208664, 0.04962696507573128, 0.13648194074630737, 0.11825163662433624, 0.08832959830760956, 0.13244161009788513, 0.035963136702775955, 0.055824458599090576, 0.13758808374404907, 0.12714019417762756, 0.1460740864276886, 0.15501070022583008, 0.18418531119823456, 0.11699576675891876, -0.11813045293092728, -0.24864435195922852, -0.0908038392663002, 0.04646594077348709, -0.06726249307394028, 0.03468681126832962, -0.43066468834877014, -0.18083393573760986, -0.1457928866147995, -0.04459511861205101, -0.10266885906457901, -0.1113227903842926, -0.06997068226337433, -0.061064813286066055, -0.07861588150262833, -0.0844392329454422, -0.14241556823253632, -0.13183021545410156, -0.07238277047872543, -0.0753118172287941, -0.14149071276187897, -0.1243608146905899, -0.09664161503314972, -0.1819181740283966, -0.15413251519203186, -0.14993542432785034, -0.13399143517017365, -0.0978955551981926, -0.16873328387737274, -0.26240816712379456, -0.006044894922524691, -0.12378012388944626, -0.134499192237854, 0.03358198329806328, -0.0028260189574211836, -0.034273117780685425, 8.091925567110803e-13, 5.871788515479648e-13, 1.4506653257112534e-12, 3.1124861260382886e-13, 5.722569770480468e-13, 7.832314983212407e-13, 3.6373597140986966e-14, 6.305681210473299e-14, 1.8129673652091116e-13, 0.12138901650905609, 0.0965658649802208, 0.09823956340551376, 0.17214104533195496, 0.07758180797100067, 0.12796898186206818, 0.11318503320217133, 0.15842986106872559, 0.14046165347099304, -0.12794581055641174, -0.024161307141184807, -0.19251711666584015, -0.0411791130900383, 0.030701136216521263, -0.03225807845592499, 0.07972072064876556, -0.09603413939476013, 0.11684605479240417, 0.241560697555542, -0.2680269777774811, -0.012082131579518318, -0.08235064148902893, -0.1396363228559494, -0.3211026191711426, -0.033839330077171326, -0.012878884561359882, -0.19907227158546448, 0.0024202477652579546, -0.05487019941210747, -0.04739284887909889, -0.08715520799160004, -0.11762513965368271, -0.06090804189443588, -0.10917447507381439, -0.08650534600019455, -0.08733978867530823, 0.1026967242360115, -0.13469213247299194, -0.15241877734661102, 0.14989447593688965, 0.1306755542755127, -0.09969045966863632, 0.2157590389251709, -0.34395620226860046, 0.12015320360660553, 0.02541298232972622, -0.025945428758859634, 0.052126578986644745, -0.08331911265850067, -0.08969082683324814, -0.08030565083026886, -0.04972178488969803, -0.046538472175598145, -0.1292482167482376, 5.11067562923904e-41, -4.934112022734113e-41, 5.077464855634542e-41, -4.993386947775053e-41, 5.171491982590737e-41, -4.973908899120938e-41, 5.005297984721814e-41, 5.136459520982617e-41, -5.158740166565382e-41, 0.013346424326300621, -0.06693684309720993, -0.013547586277127266, 0.028256408870220184, 0.014915610663592815, 0.10650572180747986, 0.08399389684200287, 0.07732544839382172, 0.0365787111222744, 0.06544622778892517, -0.018157383427023888, -0.02678930200636387, 0.051564086228609085, 0.018522681668400764, -0.004512090235948563, 0.15933987498283386, 0.023140370845794678, 0.01735665276646614, -0.019211051985621452, -0.056493014097213745, -0.009223157539963722, 0.11248639225959778, 0.0011063681449741125, 0.08592266589403152, 0.06677959859371185, 0.07438213378190994, 0.07334382832050323, 0.047330234199762344, -0.08388412743806839, -0.030965656042099, 0.03266172483563423, -0.007557647302746773, 0.012297212146222591, 0.021629856899380684, 0.01852663978934288, 0.150706946849823, 0.35707616806030273, 0.3815765678882599, -0.018707163631916046, 0.0017714659916236997, 0.42732128500938416, -0.2930065989494324, 0.24560965597629547, 0.46138468384742737, 0.13308881223201752, -0.05922757089138031, 0.03141744062304497, -0.025356939062476158, -0.06774800270795822, -0.07487433403730392, -0.07933568954467773, -0.050853464752435684, -0.1043601781129837, -0.1134718731045723, -0.03796013817191124, 0.018124140799045563, -0.05059481039643288, -0.022418318316340446, 0.025468168780207634, -0.1257230043411255, -0.053973373025655746, -0.020866399630904198, -0.08623748272657394, 0.26792073249816895, 0.31430739164352417, 0.18260478973388672, 0.0881287083029747, 0.17959360778331757, 0.07748404145240784, 0.04702603444457054, 0.10474831610918045, 0.12120042741298676, -8.500853016304988e-13, -1.5978051130446924e-12, -1.940193665450618e-12, -4.502046522039671e-13, -2.3400532813550035e-12, -4.6321232440027504e-12, -4.0293213644099213e-13, -3.713685175349424e-12, -3.670212571360576e-12, 0.05418737977743149, 0.1898418515920639, 0.09443575143814087, -0.01050147507339716, 0.09989741444587708, 0.03858412057161331, 0.010973108001053333, 0.06473137438297272, 0.11356163769960403, 0.012815353460609913, 0.08675358444452286, -0.015721149742603302, -0.10308551788330078, 0.012977632693946362, 0.04650043323636055, -0.11519267410039902, 0.0036530562210828066, 0.042772985994815826, 0.17928621172904968, 0.23250330984592438, 0.10918757319450378, 0.002747882390394807, 0.12239161133766174, 0.06392844766378403, -0.08197898417711258, 0.01169588416814804, 0.1340651959180832, -0.2008184790611267, -0.17624740302562714, -0.15479333698749542, -0.08504705131053925, -0.0613742470741272, -0.09827730059623718, -0.09459208697080612, -0.10144208371639252, -0.05451321229338646, -0.06417608261108398, -0.03221280500292778, 0.02801498956978321, -0.03749506548047066, 0.0009217681945301592, 0.1377323716878891, -0.14302831888198853, -0.08530189096927643, -0.015874575823545456, -0.2991926372051239, -0.29498061537742615, -0.17372392117977142, -0.1069747731089592, -0.17982077598571777, -0.11287293583154678, -0.07641282677650452, -0.1481899917125702, -0.01701636053621769, -5.012444606889871e-41, 5.004036816103922e-41, 4.974189158813803e-41, 5.069477454387891e-41, 4.927385790105354e-41, 4.917436571008648e-41, 5.054903950358913e-41, -4.964099809870664e-41, -4.94237968367363e-41, 0.13144828379154205, 0.08137724548578262, 0.08684046566486359, -0.025729311630129814, 0.04491385072469711, -0.0006920496816746891, -0.056693028658628464, -0.035135503858327866, 0.029066110029816628, 0.03253670781850815, 0.07743668556213379, 0.0643901452422142, -0.042117562144994736, 0.05703375115990639, -0.03981736674904823, -0.08408385515213013, -0.026416219770908356, -0.03080575540661812, 0.12632350623607635, 0.15154047310352325, 0.11432033777236938, 0.056106023490428925, 0.024384694173932076, 0.07925432175397873, -0.005653946194797754, 0.04766690358519554, 0.05402819812297821, 0.10638434439897537, 0.14997579157352448, 0.10535742342472076, -0.02599826268851757, 0.09647461771965027, 0.05496644601225853, -0.04864177480340004, 0.06033358722925186, 0.08960851281881332, -0.5614873766899109, -0.3231203556060791, -0.34060075879096985, -0.19720444083213806, -0.17754201591014862, -0.24317030608654022, -0.45441463589668274, -0.2986082136631012, -0.2840404808521271, -0.21556192636489868, -0.28036725521087646, -0.13407966494560242, -0.15911158919334412, -0.1398688703775406, -0.15449084341526031, -0.13542549312114716, -0.19084732234477997, -0.11731444299221039, -0.2996680438518524, -0.19780689477920532, -0.21682879328727722, -0.12687774002552032, -0.11720199137926102, -0.20332945883274078, -0.0899803563952446, -0.13254904747009277, -0.09953001141548157, 0.2861933708190918, 0.24143876135349274, 0.2146807312965393, 0.19969898462295532, 0.25814881920814514, 0.21056321263313293, 0.1774633228778839, 0.17907904088497162, 0.1612834334373474, 7.28166194008395e-09, 6.846770705948302e-09, 7.756746356335498e-09, 3.753406918605151e-09, 4.633997630065778e-09, 4.598505576325351e-09, 3.5654241781202245e-09, 3.616730470668017e-09, 3.806246429149951e-09, 0.11051855236291885, 0.011189920827746391, -0.015062006190419197, 0.08334621042013168, -0.04212088882923126, -0.00690462626516819, 0.10188055783510208, -0.011408353224396706, 0.002289414405822754, 0.2531217932701111, 0.2539387047290802, 0.1623471975326538, 0.1793355792760849, 0.2676691710948944, 0.20022600889205933, 0.29132553935050964, 0.3117370903491974, 0.22965310513973236, 0.05146883800625801, 0.30682802200317383, 0.18012142181396484, 0.21511758863925934, 0.32594576478004456, 0.3449215590953827, 0.17606353759765625, 0.34854042530059814, 0.2841717600822449, 0.07161036133766174, 0.0154495220631361, -0.00035576894879341125, 0.03944144770503044, 0.05815834179520607, 0.017473112791776657, -0.0022437444422394037, -0.08615139871835709, -0.05648173391819, -0.10942606627941132, 0.10784228891134262, 0.020851409062743187, 0.09823078662157059, 0.01658715307712555, 0.152169868350029, 0.05096769705414772, 0.2962726950645447, -0.018591083586215973, -0.03205506503582001, -0.0028760351706296206, 0.00844920426607132, 0.005727579351514578, 0.06365843117237091, -0.020461417734622955, 0.018990686163306236, 0.018007468432188034, 0.00950889103114605, -4.945602670141577e-41, -6.173420384582982e-41, 5.51719231373967e-41, 4.904684754983292e-41, -4.907487351911942e-41, -4.9418191642879e-41, 4.964800459102827e-41, -4.934112022734113e-41, 4.968443835110071e-41, 0.14688022434711456, 0.07988164573907852, 0.03054654784500599, 0.0659647136926651, 0.1453430950641632, 0.10526348650455475, 0.1275307834148407, 0.08477699756622314, 0.10421344637870789, 0.03924845904111862, 0.004692634101957083, 0.09562547504901886, 0.09177056699991226, 0.052476417273283005, 0.12549887597560883, 0.06713853776454926, 0.045709628611803055, 0.023037631064653397, 0.06969470530748367, 0.07603749632835388, -0.043730445206165314, 0.034950610250234604, 0.08763427287340164, 0.05527379363775253, 0.1169995442032814, -0.015200134366750717, 0.04500528424978256, 0.1485261619091034, 0.13112862408161163, 0.08055011928081512, 0.16940143704414368, 0.12909069657325745, 0.11824334412813187, 0.17940998077392578, 0.24581889808177948, 0.19154120981693268, -0.3014492392539978, -0.4774416387081146, -0.2786118686199188, -0.0871363952755928, -0.18150374293327332, -0.19178085029125214, -0.5566992163658142, -0.3522302508354187, -0.21505846083164215, 0.04615184664726257, -0.01637316308915615, -0.042576055973768234, 0.06044233962893486, -0.02173026278614998, -0.05441238358616829, 0.013424627482891083, -0.15253542363643646, -0.16865579783916473, 0.053117163479328156, -0.09044239670038223, -0.028817977756261826, -0.03602450713515282, -0.13461335003376007, -0.15978509187698364, -0.05865446850657463, -0.15163373947143555, -0.15305550396442413, -1.174133970273121e-40, -1.2689318113846949e-40, -1.1758015154456675e-40, -1.4903089427787295e-40, -1.3987200751504594e-40, -1.1824436701665671e-40, -8.69729904867841e-41, -1.5674644362244539e-40, -1.2266686497006584e-40, 5.555728021508602e-41, 4.950647344613146e-41, 6.111903381999122e-41, 5.263557291696878e-41, 6.244886606263547e-41, -4.954430850466823e-41, 5.002355257946732e-41, -4.912251766690646e-41, 5.917963674536567e-41, -1.0688404036637542e-40, -7.187820342907717e-41, -7.886647887066503e-41, -1.1240235371888655e-40, -8.870359409022525e-41, -8.039669679370773e-41, -1.1750308012902889e-40, -9.442509572006347e-41, -9.106057810721959e-41, -3.135965833312508e-41, -1.2596972545047943e-40, -1.1859048773734494e-40, -1.5175501849252039e-40, -5.120204458796449e-41, -1.4496572743286665e-40, -1.4764641139512003e-40, -1.260860332230184e-40, -1.110388903130985e-40, -1.3577320950689585e-40, -2.6254868157436205e-40, -4.3026729217247076e-40, -6.1452963244039825e-40, -2.4718904910689773e-40, -1.2051166793193427e-40, -5.041787796732832e-40, -5.445628001166601e-40, -2.673733521870324e-40, 1.8188854066936126e-41, -4.848492686563867e-42, 3.506048757740692e-42, -9.100032227325362e-42, -1.7562473653382932e-41, -1.619200375527326e-41, -1.2684553699068244e-41, 2.4270489402105832e-42, -8.075683049903921e-42, -1.2047103027646885e-40, -1.3217467505050972e-40, -1.6419014106493882e-40, -2.1566964274883962e-40, -2.4496658974247857e-40, -1.960234382790057e-40, -2.64748720163352e-40, -2.0701662473163388e-40, -1.5852188877674493e-40, -1.5315211306145223e-40, -2.1041897740301453e-40, -1.7112096326948936e-40, -1.8405074419981445e-40, -3.1225974459628494e-40, -2.3681803917242976e-40, -3.336071254018092e-40, -2.4154882278799034e-40, -2.201187653730709e-40, -5.022393825986577e-41, 5.918384064075865e-41, 5.735794874174341e-41, 6.113164550617014e-41, -5.293545078833429e-41, -5.03892914786561e-41, -4.943640852291522e-41, -5.28233469111883e-41, -5.214511845445509e-41, -1.1429971183958235e-40, -9.935206112062953e-42, -9.07340755650319e-42, -1.3336017355132852e-40, -1.0742774417053345e-40, -3.667198081138046e-42, -1.2318534540186602e-40, -8.909455636177187e-42, -1.1202400313351885e-40, -1.8467852591183197e-40, -1.7819191532047239e-40, -1.7879026976473909e-40, -2.0294865528969893e-40, -1.6624864850903197e-40, -8.155977451909733e-41, -1.0293377999544376e-40, -1.0820826741516237e-40, -1.8112203040937558e-40, -9.80908925027372e-43, 9.122453002754559e-43, -1.03551752618211e-40, -1.2288686882896483e-40, -1.0239007619128573e-40, 4.498168070482663e-43, -1.1881889938702989e-40, -1.053300003694392e-40, -1.1350517561031018e-41, -9.388559581129842e-41, -6.648880953528392e-41, -7.240929554705627e-41, -1.3393330462323737e-40, -9.394164774987141e-41, -7.613674946216029e-41, -1.2621775527866492e-40, -8.02369487687747e-41, -8.6001890651007e-41, -1.5310937345829033e-39, -5.5799704849414216e-40, -5.886294329242827e-41, -1.8483407004137202e-40, -3.3604258213280573e-40, -2.2453005293876544e-40, -5.113758485860555e-40, -3.441785210166756e-40, -7.674841624183807e-40, 1.2541621255707113e-42, -3.5709288766389313e-41, -2.453113091647025e-41, -3.819238964517289e-41, -5.876765499685418e-41, -5.554747112583575e-41, -4.942659943366495e-41, -4.299183688548539e-41, -1.3706240409407468e-40, -4.0664280136241867e-41, -5.134637832978995e-41, -4.644323500311741e-41, -1.1957279796083664e-41, -4.3876056216474347e-41, -5.999659375006704e-41, -6.456342544530162e-41, -6.468533841169788e-41, -5.95874145984842e-41, 1.6269185110218132e-08, -3.6416494708646496e-08, -1.1284593171012602e-07, 1.7329496415641188e-07, 3.8868982699113985e-08, 8.600495959854015e-08, 7.548529765699641e-07, -3.2426993357148604e-07, -4.920340757053054e-07, 5.082229270413247e-41, -5.081668751027517e-41, 5.386170907325299e-41, -6.018016384889359e-41, -5.175415618290847e-41, 4.931029166112599e-41, -5.281213652347371e-41, -5.034585122626203e-41, 2.2296059865872164e-41, 0.00025921070482581854, -8.576616528443992e-05, -3.05204011965543e-05, 0.0002430627791909501, -4.9001431762007996e-05, -0.00011090847692685202, 0.0003062078030779958, -8.646016067359596e-05, -0.00012070521188434213, -0.0008553045918233693, -0.0010688086040318012, -0.0011555413948372006, -0.0010789978550747037, -0.0011758803157135844, -0.0012317146174609661, -0.0008030730532482266, -0.001048547332175076, -0.0011297824094071984, -1.2459496247174684e-05, -1.300919393543154e-05, -2.2640739189228043e-05, -4.190936579107074e-06, -2.7008090910385363e-06, -7.661928975721821e-06, -8.602144589531235e-06, -2.0825355022680014e-05, -2.7457332180347294e-05, -0.0014098400715738535, -0.0017479106318205595, -0.002113706199452281, -0.0015628535766154528, -0.0020903791300952435, -0.002267001196742058, -0.0015816674567759037, -0.0020307060331106186, -0.0023087970912456512, -0.0007341130985878408, -0.0009979904862120748, -0.0012432029470801353, -0.0008228013757616282, -0.0010382465552538633, -0.0013403102057054639, -0.0005998382112011313, -0.0008194546098820865, -0.0012082167668268085, -0.0017593428492546082, -0.0016742434818297625, -0.002178986556828022, -0.0016206910368055105, -0.001880127121694386, -0.002113839378580451, -0.0016808232758194208, -0.0016951262950897217, -0.002124911407008767, 5.117962381253529e-41, 5.144867311768566e-41, -5.988448987292106e-41, 4.943080332905792e-41, -6.171738826425792e-41, 5.53078490884362e-41, 5.009081490575491e-41, -5.882791083082015e-41, -4.954010460927526e-41, -0.001209747395478189, -0.0015037937555462122, -0.0015392935601994395, -0.000982942758128047, -0.0011743049835786223, -0.0012622365029528737, -0.0010904715163633227, -0.0014372102450579405, -0.0014767155516892672, 4.420010736794211e-05, 3.303758057882078e-05, 2.171296364394948e-05, 7.738588465144858e-05, 5.9230264014331624e-05, 6.889595533721149e-05, 7.085656397975981e-05, 5.3386054787551984e-05, 2.3843922463129275e-05, 1.8040282157016918e-05, -5.150611741555622e-06, 7.14592715667095e-06, 2.799654976115562e-05, 1.2039702141919406e-06, 1.607791637070477e-05, 3.135581573587842e-05, 1.8107588175553246e-06, -7.118992925825296e-06, -0.0019052947172895074, -0.002567628864198923, -0.002410164102911949, -0.001710883341729641, -0.002283416222780943, -0.0022708186879754066, -0.0017754497239366174, -0.002357429824769497, -0.002446060534566641, -5.937852256465703e-05, -5.2332081395434216e-05, -7.393678242806345e-05, -2.950942871393636e-06, -8.573146260459907e-06, -9.084762496058829e-06, -3.9496502722613513e-05, -5.536818571272306e-05, -4.821058246307075e-05, -0.0013551464071497321, -0.0016408213414251804, -0.0020662948954850435, -0.0015174829168245196, -0.0019876016303896904, -0.0022508250549435616, -0.001577927265316248, -0.001953243976458907, -0.0024444502778351307, -0.0023089537862688303, -0.0031493890564888716, -0.003270384855568409, -0.0024585977662354708, -0.0031774891540408134, -0.0035874703899025917, -0.0024076467379927635, -0.003221425460651517, -0.003367519238963723, -0.12608475983142853, -0.12894079089164734, -0.15851490199565887, 0.026076465845108032, -0.03339468687772751, -0.06257139146327972, 0.03258790820837021, 0.003545518731698394, -0.010837895795702934, -4.714716464460089e-11, -3.017717187248081e-10, -6.437476107734597e-10, -5.377260702682518e-12, -5.0509929572228884e-11, -1.1609016525859772e-10, -1.0464966702450687e-13, -2.156039236034246e-12, -5.566894601544137e-12, 0.08258818089962006, 0.10948528349399567, 0.10814841091632843, 0.17514684796333313, 0.1608024388551712, 0.1931161731481552, 0.19029231369495392, 0.12301742285490036, 0.1744920164346695, -0.1675964742898941, -0.13000936806201935, -0.1913796216249466, -0.09199141710996628, -0.09941945225000381, -0.1217590719461441, -0.10286609083414078, -0.21450835466384888, -0.2051100879907608, 0.07108457386493683, -0.11979181319475174, -0.059655334800481796, 0.04200511425733566, -0.033605143427848816, -0.09863361716270447, 0.02833641692996025, -0.005648637190461159, -0.1306920349597931, -0.006914530415087938, -0.071747787296772, 0.007716559339314699, 0.018160518258810043, -0.004700849764049053, 0.10364853590726852, -0.009279821999371052, 0.04594026133418083, 0.047774456441402435, -0.09005025029182434, -0.09276822954416275, -0.03189803287386894, -0.006572355516254902, 0.08588829636573792, 0.0824049636721611, 0.0803978219628334, 0.10256841033697128, 0.0561877079308033, 0.003351034829393029, -0.037026919424533844, -0.004518404603004456, -0.1288413554430008, -0.053738538175821304, -0.038366205990314484, -0.013980275951325893, -0.03840988501906395, -0.014234978705644608, -4.949666435688119e-41, 4.935233061505573e-41, 4.946303319373739e-41, -4.954430850466823e-41, -4.946023059680874e-41, 4.95765383693477e-41, 4.97629110651029e-41, -5.252346903982279e-41, -4.954711110159688e-41, -0.027366146445274353, -0.016293777152895927, 0.002260874956846237, 0.07264504581689835, 0.018751339986920357, 0.055823132395744324, 0.076424740254879, -0.08028203248977661, -0.06887330859899521, 0.06299276649951935, 0.04145269840955734, 0.01300145499408245, 0.04377656802535057, 0.10237480700016022, 0.07460684329271317, 0.08907558023929596, 0.056978292763233185, 0.03991167992353439, -0.022213220596313477, 0.006196966394782066, 0.08291798084974289, 0.1279928982257843, 0.1046350970864296, 0.09908194094896317, 0.0813688412308693, 0.06764847785234451, 0.13529668748378754, -0.000768503057770431, -0.08780452609062195, -0.10857205092906952, 0.06292795389890671, -0.04086307808756828, -0.035340383648872375, -0.016281021758913994, -0.07911904901266098, -0.0702405497431755, 0.27251893281936646, 0.25990840792655945, 0.11952059715986252, -0.21528933942317963, -0.032587360590696335, -0.22089895606040955, 0.02774800918996334, 0.10124997049570084, 0.03848510980606079, -0.064405158162117, -0.06347095221281052, 0.04044833406805992, 0.009485029615461826, -0.009521926753222942, 0.11313885450363159, 0.0623299777507782, 0.1098308190703392, 0.06982433795928955, 0.003130050376057625, -0.0014461755054071546, 0.08590427786111832, -0.05695705860853195, 0.0074780285358428955, 0.013636386953294277, 0.07752972841262817, 0.14387103915214539, 0.15753647685050964, -0.09290971606969833, -0.02415289916098118, -0.04273620620369911, 0.003050306811928749, -0.022079981863498688, -0.15060465037822723, 0.021820183843374252, -0.029867570847272873, -0.0920935794711113, -4.934328600824777e-15, -2.83000554414381e-12, -1.5056907110011508e-11, -4.0468141533113455e-13, -6.586724221602225e-11, -2.2706751756640386e-10, -7.709081989307545e-14, -1.98867051298679e-11, -8.015145491757636e-11, 0.11049918830394745, 0.2625444531440735, 0.2165854573249817, 0.1329275518655777, 0.1549651175737381, 0.22276313602924347, 0.15717150270938873, 0.24555908143520355, 0.21916158497333527, -0.15294590592384338, -0.18170490860939026, -0.1779157966375351, -0.23610074818134308, -0.3095029592514038, -0.3020743429660797, -0.1871376931667328, -0.30510079860687256, -0.36399292945861816, -0.04767800122499466, 0.09787128120660782, 0.061502695083618164, -0.01501934789121151, -0.06850410252809525, -0.18963852524757385, -0.08132026344537735, -0.19238777458667755, -0.26056569814682007, -0.033889371901750565, 0.03696785867214203, 0.019686490297317505, -0.01748785935342312, -0.009191242046654224, 0.04392096772789955, 0.04866275191307068, 0.12177206575870514, 0.15965592861175537, -0.09588120132684708, 0.01916620321571827, 0.08370612561702728, -0.04766187071800232, 0.06342324614524841, 0.17578545212745667, 0.1309509426355362, 0.16866882145404816, 0.17784662544727325, -0.10947258025407791, -0.027292978018522263, 0.012502912431955338, -0.05408390238881111, 0.0033551945816725492, 0.0442359521985054, -0.040320660918951035, -0.00026711629470810294, 0.09872368723154068, 4.940417865823575e-41, -4.975029937892398e-41, 4.999272401325217e-41, 4.924162803637407e-41, -4.992686298542891e-41, 5.077604985480975e-41, -5.037667979247717e-41, -4.946863838759469e-41, 5.022253696140144e-41, 0.03692663833498955, 0.06782003492116928, 0.05693196877837181, -0.03046395443379879, 0.013501190580427647, -0.04375924915075302, -0.032392099499702454, -0.06114945560693741, -0.06591154634952545, 0.038750603795051575, 0.07592667639255524, 0.06732212007045746, 0.03237554430961609, 0.029776474460959435, 0.03682401776313782, -0.005666397511959076, 0.02439267747104168, 0.0734931081533432, 0.06633390486240387, 0.11591526865959167, 0.1496640294790268, 0.06384315341711044, 0.13598297536373138, 0.009203150868415833, 0.08847931027412415, 0.09611435234546661, 0.09715545922517776, -0.05602744594216347, 0.07807435095310211, -0.028741935268044472, -0.05515223741531372, -0.030892420560121536, -0.09645097702741623, -0.06127488613128662, -0.08268360793590546, -0.2001899778842926, -0.35694319009780884, -0.18486075103282928, -0.2572035491466522, -0.5517162084579468, -0.46968647837638855, -0.6028505563735962, -0.47138866782188416, -0.33826056122779846, -0.3282218873500824, -0.012753866612911224, 0.03413629159331322, 0.054867811501026154, -0.06320555508136749, 0.016248032450675964, 0.1604798585176468, 0.1264677494764328, 0.11484220623970032, 0.240670844912529, -0.05700565502047539, 0.05939836800098419, 0.03909092769026756, 0.033327799290418625, 0.11734694242477417, 0.1643911749124527, -0.02622540108859539, 0.15643692016601562, 0.18488110601902008, -0.1529691070318222, -0.07189462333917618, -0.08716011047363281, -0.15709149837493896, -0.08062006533145905, -0.17618148028850555, -0.0945611298084259, -0.10532759130001068, -0.1236012727022171, -6.698918042502555e-08, -2.281869058151642e-07, -3.094192777552962e-07, -1.853108244631585e-07, -5.367950279833167e-07, -7.659477319066355e-07, -7.518665512407097e-08, -2.982498870096606e-07, -4.905982109448814e-07, 0.08009741455316544, 0.1773039996623993, 0.20429596304893494, 0.14421331882476807, 0.1507434844970703, 0.14406390488147736, 0.12834222614765167, 0.16091808676719666, 0.19136899709701538, -0.1663026064634323, -0.17058007419109344, -0.1569535881280899, -0.1659146100282669, -0.10665485262870789, -0.2135336846113205, -0.2285367250442505, -0.1717914491891861, -0.16674606502056122, -0.0887228474020958, 0.007615827955305576, 0.02778976410627365, -0.11769497394561768, -0.022315405309200287, -0.11315515637397766, -0.06155181676149368, -0.0661311000585556, -0.11231739819049835, -0.021161658689379692, 0.0845082625746727, 0.024270007386803627, -0.011931806802749634, -0.005443531554192305, 0.016891121864318848, -0.07135794311761856, -0.027100563049316406, 0.05226007103919983, -0.02000392973423004, -0.029113637283444405, -0.02546626515686512, 0.024717748165130615, -0.004496985115110874, 0.008024347014725208, -0.04944675788283348, -0.0683247372508049, -0.061335355043411255, 0.0049294279888272285, 0.03640798106789589, -0.013360547833144665, -0.04780194163322449, -0.06484698504209518, -0.03900429978966713, -0.02405383810400963, -0.05757513642311096, -0.022856710478663445, -4.972927990195911e-41, -4.964099809870664e-41, -4.993527077621486e-41, 4.96269851140634e-41, -4.980354872056832e-41, 4.955131499698986e-41, 4.923602284251677e-41, -4.933691633194816e-41, -4.990304091153539e-41, -0.06006636098027229, 0.08910392224788666, 0.11492956429719925, -0.08394014090299606, -0.00689632399007678, 0.04616422951221466, -0.03288457170128822, -0.014637479558587074, -0.010469170287251472, 0.009066053666174412, 0.07141042500734329, 0.04204770550131798, 0.0028773110825568438, 0.03857620432972908, 0.06921390444040298, -0.06838706880807877, 0.06224578246474266, 0.002711754059419036, 0.01797221414744854, 0.1237378865480423, 0.12862145900726318, 0.031333621591329575, 0.08479250222444534, -0.014409173280000687, 0.053571876138448715, 0.10404222458600998, 0.11066869646310806, -0.001965567236766219, 0.049174416810274124, -0.013699923641979694, -0.10612376034259796, 0.07835328578948975, -0.005158625543117523, -0.1655072122812271, 0.03279408439993858, -0.03775922954082489, -0.44561198353767395, 0.003067950950935483, -0.21263307332992554, -0.34304964542388916, -0.24520523846149445, -0.16159270703792572, -0.048209868371486664, 0.07338966429233551, -0.07697988301515579, 0.0015754931373521686, 0.06727693974971771, -0.005080617032945156, 0.05317807197570801, -0.028772268444299698, 0.0703805610537529, 0.06636153161525726, 0.04231082275509834, 0.07991425693035126, 0.05168551951646805, 0.06317996978759766, 0.010672845877707005, 0.07349967211484909, 0.03412960469722748, 0.0491168387234211, 0.08106302469968796, 0.0033555617555975914, 0.019977807998657227, -0.09465635567903519, -0.11360390484333038, -0.11354068666696548, -0.023737914860248566, -0.14813584089279175, -0.1637740582227707, -0.031693235039711, -0.07475706934928894, -0.052521176636219025, -8.108784477212083e-11, -1.9222841374233468e-10, -3.0333247025282617e-10, -1.0025349300724073e-10, -2.2958027146025017e-10, -3.320373420656608e-10, -5.765592517303908e-11, -1.2784920344621753e-10, -1.759687395797016e-10, 0.07201666384935379, 0.11820843070745468, 0.13367487490177155, 0.1570052206516266, 0.20139215886592865, 0.20439930260181427, 0.011920834891498089, 0.1638074517250061, 0.16016407310962677, -0.20164963603019714, -0.12944965064525604, -0.09764476120471954, -0.2166176289319992, -0.19874286651611328, -0.21855570375919342, -0.1312354952096939, -0.14827345311641693, -0.20013226568698883, 0.03786935657262802, -0.07151194661855698, 0.10328315198421478, -0.037486281245946884, -0.07382964342832565, -0.04417753219604492, -0.10566287487745285, -0.11908255517482758, -0.08321449160575867, 0.10441239923238754, 0.009648110717535019, 0.05907808616757393, -0.06390243023633957, -0.006864347029477358, 0.08226623386144638, 0.006112086120992899, 0.0667194053530693, 0.16375039517879486, 0.06466823071241379, 0.16155821084976196, 0.22784073650836945, -0.03765726089477539, 0.06604994833469391, 0.08336824923753738, -0.002242492977529764, 0.07095760852098465, 0.06595952808856964, 0.025657199323177338, 0.018605472519993782, 0.04968894645571709, -0.01835949718952179, 0.04602723568677902, 0.012773753143846989, -0.041308194398880005, -0.006925532594323158, 0.018689554184675217, -4.943220462752225e-41, 4.995909285010838e-41, 4.926404881180327e-41, 4.998711881939487e-41, 4.991144870232133e-41, 4.979514092978237e-41, 4.956112408624013e-41, -4.983858118217644e-41, 4.975170067738831e-41, -0.023922458291053772, -0.0022490904666483402, 0.07569655030965805, -0.0930071622133255, 0.027417302131652832, -0.0349651575088501, -0.07130849361419678, 0.011677178554236889, 0.00467938557267189, 0.06836677342653275, -0.02003430761396885, 0.031227169558405876, 0.007687645498663187, -0.028248833492398262, 0.010456805117428303, 0.03449390083551407, -0.009241914376616478, 0.0609222948551178, 0.03277752175927162, 0.08527816832065582, 0.07328350841999054, -0.020754056051373482, -0.01129818893969059, -0.01692119613289833, 0.009490609169006348, 0.06938722729682922, 0.055721886456012726, 0.04048673436045647, 0.13452695310115814, -0.006214025896042585, -0.08130230754613876, 0.017849259078502655, -0.0255549568682909, -0.04707545414566994, -0.029984962195158005, -0.03820685297250748, -0.1489797979593277, -0.2022034227848053, -0.16178859770298004, -0.17190498113632202, 0.14591765403747559, 0.15390950441360474, -0.302921324968338, -0.1565861701965332, -0.16767936944961548, 0.06441882997751236, 0.1338837444782257, 0.08367050439119339, 0.041257407516241074, 0.08215829730033875, 0.1041206493973732, 0.0013352339155972004, 0.059849243611097336, 0.12971250712871552, 0.005982327274978161, 0.0758591964840889, 0.07864128053188324, 0.09680338948965073, 0.18506264686584473, 0.0706338956952095, 0.03005373291671276, 0.05121327564120293, 0.05807880312204361, 9.188454160424258e-41, 6.156464673164651e-41, 5.274067030179314e-41, -2.0430931609855833e-41, 6.285384131882534e-41, 1.3912091153816784e-41, 2.0894761401547347e-41, 3.2288719214972435e-41, 4.2371061665789494e-41, 6.231294011159597e-41, -5.362348833431777e-41, 5.129172768968128e-41, -5.305175856087325e-41, -4.985679806221267e-41, 6.153101556850272e-41, 5.074802388552325e-41, -4.993947467160783e-41, -5.080968101795354e-41, -3.672663145148913e-41, -7.380779141445244e-41, -7.555240800253684e-41, -2.60473358548697e-41, -4.738350627267936e-41, -7.019664527188739e-41, -2.9446885929321706e-41, -2.5929626783866415e-41, -2.113438343894689e-41, 2.2347907909052183e-41, -9.487911642250471e-41, -6.653365108614231e-41, 9.485669564707552e-41, 6.369462039742024e-41, 9.020578604398145e-41, 9.290608818473537e-43, 4.2473356453685205e-42, -6.517999676960454e-41, 8.959201731660718e-41, 8.565016473646147e-41, -5.633920475817927e-41, 8.413536109652634e-41, 6.112463901384852e-41, 2.6708748730031013e-42, 2.6324792950806013e-41, 1.152287727214297e-41, -5.902829651121859e-41, -3.6111461425650536e-42, 6.558076813040144e-43, -2.4480684171754554e-42, 5.233289244867462e-41, 6.32237841134071e-41, 5.956919771844797e-41, 5.461140375166677e-41, 5.386591296864597e-41, 4.870493072453767e-41, -1.884410122885441e-40, -2.1946996418408852e-40, -2.9992971940869087e-40, -2.9865874170154826e-41, -1.3752343128883755e-41, -6.065940792369268e-41, -7.857921268547844e-41, 5.860370307652817e-41, -4.514843522208128e-41, -1.2871627044055607e-40, -1.1491488186542095e-40, -1.3487077329587067e-40, -8.15471628329184e-41, -7.750021286794833e-41, -9.905358454772834e-41, -3.475360321371979e-41, -4.786134904901413e-41, -6.656447965235746e-41, -6.293511662975618e-41, -5.239735217803356e-41, -6.046042354175856e-41, 4.976431236356723e-41, 5.718418773216714e-41, 4.905805793754752e-41, -5.102828357838821e-41, 6.185471551376175e-41, -5.397661554732763e-41, -4.815982562191531e-41, -4.840645415163648e-41, -4.4568297657850807e-41, -3.0898631138362216e-41, -3.63973263123728e-41, -4.4606132716387577e-41, -5.295366766837051e-41, -5.892880432025153e-41, -5.133656924053967e-41, 6.098030527202306e-41, -4.258546033083119e-41, -4.792300618144442e-41, -3.5674256304781193e-41, -3.9433940084564677e-41, -6.092985852730737e-41, -4.984698897296239e-41, -4.545672088423274e-41, -4.82719294990613e-41, -3.2840830809916413e-41, -3.4857299300079825e-41, -4.4055422419907924e-41, -5.6107990511565676e-42, -2.954918071721742e-41, -3.8790744089439586e-41, 5.366272469131887e-41, -3.5319727793307014e-41, -5.09147784027779e-41, -4.3698091311505096e-41, 4.0078537378154093e-41, 6.609644596527297e-41, 7.882864381212826e-41, 6.111623122306257e-41, 6.27837763956091e-41, 1.4654779339908937e-41, 4.4174532789375533e-41, -6.371984376977808e-41, 5.539907361846375e-40, 7.871555902605725e-40, 6.947161344644573e-40, 9.753317571393592e-41, -2.084291335836733e-41, 1.0465177191270599e-40, 2.522967820093617e-40, -1.922525441115076e-40, -1.0911490752158053e-40, -7.00509102315976e-42, -1.6410606315707933e-41, -2.1009667875621982e-41, 6.161929737175518e-41, 5.33992805800258e-41, 5.043973822337179e-41, 6.152120647925244e-41, 7.02653088966393e-41, 7.040964263846476e-41, 1.0155209970961949e-41, 1.0079539853888409e-41, -6.388519698856841e-42, 2.4882856831015777e-41, 2.590160081457992e-41, 1.6381179047957112e-41, 6.227230245613055e-41, 6.841419362526622e-41, 5.814687977715828e-41, 0.3645712733268738, 0.33446288108825684, 0.30910706520080566, 0.2684229016304016, 0.30415722727775574, 0.25938859581947327, 0.2640742063522339, 0.22823645174503326, 0.23603734374046326, 5.257074349174218e-07, 6.439994422180462e-07, 7.14373015853198e-07, 3.3434122315156856e-07, 6.667563070550386e-07, 5.986138376101735e-07, 3.875310028433887e-07, 5.955785695732629e-07, 5.16562863595027e-07, 0.11559685319662094, 0.14643564820289612, 0.04646604135632515, 0.08881028741598129, 0.10989812016487122, 0.1334429830312729, 0.09865224361419678, 0.09012871980667114, 0.07795914262533188, 0.02732185274362564, 0.06975536048412323, 0.07986398041248322, 0.0028042809572070837, 0.0777200385928154, 0.07676304876804352, 0.08985235542058945, 0.117133229970932, 0.0062583875842392445, 0.1500791609287262, 0.2860289216041565, 0.26701587438583374, 0.19059902429580688, 0.2587894797325134, 0.31584054231643677, 0.2267894297838211, 0.26312050223350525, 0.2926277816295624, -0.05792294815182686, 0.01264022197574377, -0.07923947274684906, 0.0038466115947812796, -0.09903638064861298, -0.13060136139392853, -0.06074663624167442, -0.16974598169326782, -0.09482131898403168, -0.3322955071926117, -0.03485460579395294, -0.13732799887657166, -0.01766257919371128, -0.00012068598880432546, 0.16420994699001312, -0.12642069160938263, 0.18815800547599792, -0.14928853511810303, -0.19010336697101593, -0.14873450994491577, -0.16501975059509277, -0.19585518538951874, -0.1675533950328827, -0.19561494886875153, -0.19628678262233734, -0.19671985507011414, -0.06455646455287933, 4.904684754983292e-41, -4.924723323023137e-41, -4.908748520529834e-41, -4.913512935308539e-41, -5.185084577694688e-41, -4.943640852291522e-41, -4.94462176121655e-41, -4.946583579066604e-41, -4.922200985787352e-41, 0.11501695960760117, 0.11574095487594604, 0.017845282331109047, 0.12199383974075317, 0.07950317859649658, 0.15140357613563538, 0.14322400093078613, 0.08684678375720978, 0.039551857858896255, 0.165668785572052, 0.14423608779907227, 0.12134560197591782, 0.1955350935459137, 0.16768285632133484, 0.1686250865459442, 0.08589687943458557, 0.11954823136329651, 0.1590055376291275, 0.1480795443058014, 0.10798980295658112, 0.17572328448295593, 0.13892021775245667, 0.10144364088773727, 0.05747586861252785, 0.16218994557857513, 0.12971825897693634, 0.05132525786757469, 0.2082061618566513, 0.10371816903352737, 0.16427329182624817, 0.12907803058624268, 0.1949317306280136, 0.10526777058839798, 0.17555354535579681, 0.13961109519004822, 0.12220723927021027, -0.08115226775407791, -0.32858172059059143, -0.3735181391239166, -0.008130667731165886, -0.12406248599290848, -0.0012903321767225862, -0.7144655585289001, -0.24744483828544617, -0.21962407231330872, -0.07796944677829742, -0.04976895824074745, -0.06873112916946411, -0.12304607033729553, -0.0761813372373581, -0.1334754228591919, -0.14555059373378754, -0.2635658383369446, -0.12200696021318436, -0.08311837166547775, -0.15170259773731232, -0.21110475063323975, -0.12191925197839737, -0.2525501847267151, -0.18644247949123383, -0.10772646963596344, -0.24347877502441406, -0.22797343134880066, -4.946163189527307e-41, 4.945742799988009e-41, 4.906646572833347e-41, -4.93957708674498e-41, 4.913933324847836e-41, 4.945882929834442e-41, -4.919538518705135e-41, 4.908188001144104e-41, 4.916595791930053e-41, -4.982036430214022e-41, -5.239595087956924e-41, -4.975310197585263e-41, 5.332641305988091e-41, 5.170090684126413e-41, 4.906366313140482e-41, -4.904824884829725e-41, 6.10615805829539e-41, -6.292250494357726e-41, 4.911551117458484e-41, 4.938876437512818e-41, 4.932990983962654e-41, 4.933271243655518e-41, 4.906506442986914e-41, 4.939857346437845e-41, 4.935233061505573e-41, 4.920799687323028e-41, 4.915474753158593e-41, -4.941398774748602e-41, -4.932290334730491e-41, -4.930328516880436e-41, -4.927525919951787e-41, -4.922901635019515e-41, 4.915054363619296e-41, -4.931309425805464e-41, 4.912672156229944e-41, 4.942800073212927e-41, 4.936354100277033e-41, 4.918557609780108e-41, 4.929347607955409e-41, -4.933551503348383e-41, 4.933551503348383e-41, 4.952469032616768e-41, 4.932430464576924e-41, 4.941538904595035e-41, -4.910850468226321e-41, -3.7880700075284554e-26, -9.13261373375729e-26, -1.4054688548873252e-25, -2.956769741461234e-25, -7.084335284015285e-25, -8.840182379894279e-25, -1.5076482938629523e-27, -4.0901736897209705e-27, -1.0136011371054583e-26, -4.921360206708758e-41, -4.922200985787352e-41, -4.920799687323028e-41, -4.935933710737736e-41, -4.932290334730491e-41, -4.906646572833347e-41, -5.781337074264898e-41, -4.930188387034004e-41, -4.922341115633785e-41, -5.29022429271332e-24, -4.897908381759259e-24, -2.2447119099598034e-23, -2.167187521550011e-25, -1.0022438357787694e-24, -8.519135712991958e-25, -9.444266792911659e-26, -1.6295791844204406e-25, -7.858470621326149e-25, 5.157198738254624e-41, 6.076870920391002e-41, 5.559231267669414e-41, 5.068496545462863e-41, -6.241243230256303e-41, -5.325915073359332e-41, -6.013812489496385e-41, -4.951347993845309e-41, 5.34441221308842e-41, -1.4252240941748526e-38, -2.937826669770514e-36, -7.711454593514258e-36, -2.5645914291585355e-37, -6.663489613333243e-36, -7.509967658436588e-35, -6.364696369399895e-36, -8.267722885428439e-34, -6.079510304836499e-34, 4.922200985787352e-41, 4.1748885147629275e-41, 1.7039789326189776e-41, 4.930048257187571e-41, -1.4324913681406875e-40, -2.2184936897651206e-40, -6.785927943339359e-41, -3.5176691653859523e-38, -1.1239635616145924e-38, 5.885873939703529e-41, 4.934672542119843e-41, 4.928226569183949e-41, 4.928787088569679e-41, 4.911410987612051e-41, 4.928927218416112e-41, 4.917856960547946e-41, 4.940838255362873e-41, 4.943220462752225e-41, -2.405736199503097e-37, -6.281152614094231e-36, -6.368420298769102e-35, -1.3704084651849951e-36, -7.131095153290136e-34, -2.6729015030371048e-34, -1.003549833010719e-34, -3.452974982606129e-33, -8.268187022026021e-33, 5.132956274821805e-41, 5.030241097386796e-41, -5.134637832978995e-41, -5.072700440855838e-41, 5.231887946403137e-41, 5.009361750268356e-41, -5.013005126275601e-41, 6.058373780661914e-41, 5.052661872815993e-41, -4.539394075910173e-25, -3.1557473323325573e-25, -1.160602830728843e-24, -6.741775887189521e-25, -7.770060514487702e-25, -2.6032482841927123e-24, -3.777693096988097e-27, -8.082718909073041e-27, -2.3763367034221812e-26, -2.5529310979426555e-16, -4.684302368366318e-16, -4.339073179586943e-16, -7.667744579195872e-17, -1.6014922078653e-16, -1.6482342652216506e-16, -7.330628774911111e-17, -1.3908986413541997e-16, -1.88193012597352e-16, 0.2263910174369812, 0.24893304705619812, 0.11518873274326324, 0.10391386598348618, 0.17873415350914001, 0.07625143229961395, 0.11643117666244507, 0.17684392631053925, 0.1249704509973526, -3.5673246583274587e-13, -7.671198203572371e-13, -1.374743201221218e-12, -1.8190290040302065e-13, -1.9172649579068946e-12, -1.2695276687541002e-12, -2.5299583933900693e-13, -1.9798143159610593e-12, -9.537448955598826e-13, 0.12417419254779816, 0.11186035722494125, 0.020892608910799026, 0.16725631058216095, 0.1188458725810051, 0.07683353126049042, 0.09651496261358261, 0.055651094764471054, 0.10241217166185379, -0.05694803595542908, 0.047760024666786194, 0.0022949434351176023, -0.08658427000045776, 0.00856013409793377, -0.019684595987200737, -0.01987520419061184, 0.02503359131515026, 0.03403148055076599, 0.08085706830024719, 0.18625648319721222, 0.04307839646935463, -0.01060620229691267, 0.21658332645893097, 0.06966318935155869, -0.012647436931729317, 0.15471816062927246, 0.11727744340896606, -0.017195366322994232, -0.050766296684741974, -0.029775377362966537, 0.009775606915354729, -0.07710245996713638, -0.06987018883228302, -0.0752761960029602, -0.059773627668619156, -0.03145205229520798, -0.1337185800075531, 0.17090845108032227, -0.03405260294675827, 0.003192596137523651, -0.007631769869476557, 0.13314376771450043, -0.10221707075834274, 0.049904920160770416, -0.035806041210889816, -0.1643451303243637, -0.15626837313175201, -0.12250804156064987, -0.16884556412696838, -0.1211995929479599, -0.14244821667671204, -0.15255074203014374, -0.13760223984718323, -0.06034322828054428, 4.976991755742453e-41, -4.960736693556285e-41, 5.027718760151011e-41, -4.993947467160783e-41, -4.932430464576924e-41, -5.002495387793164e-41, 4.956953187702608e-41, -4.905245274369022e-41, -4.910149818994159e-41, 0.08120949566364288, 0.042248472571372986, -0.05196307227015495, 0.09319416433572769, 0.011903815902769566, 0.06971503794193268, -0.012563006021082401, 0.07253006100654602, 0.07386557757854462, 0.10474784672260284, 0.0787711963057518, 0.07549700886011124, 0.09976385533809662, 0.060786012560129166, 0.05567295104265213, 0.10309138894081116, 0.08126945048570633, 0.09341554343700409, 0.07743453979492188, 0.09478408098220825, 0.06024952605366707, 0.12225456535816193, 0.08980201184749603, 0.0961100310087204, 0.13096824288368225, 0.02826855145394802, 0.0646592378616333, 0.1289253532886505, 0.02664368785917759, 0.011850651353597641, 0.06123586744070053, 0.13638024032115936, 0.06151425838470459, 0.11619020998477936, 0.08787500113248825, 0.08039440959692001, -0.38893643021583557, -0.40830230712890625, -0.4014301002025604, -0.04039585590362549, 0.1741035133600235, -0.040207523852586746, -0.32403722405433655, -0.16313448548316956, -0.19080126285552979, -0.055897802114486694, -0.08203506469726562, 0.01359719317406416, -0.049820609390735626, -0.08656325936317444, -0.07103372365236282, -0.039940644055604935, -0.17997348308563232, -0.14956089854240417, -0.11781489849090576, -0.1513172835111618, -0.08642255514860153, -0.04274852201342583, -0.171705424785614, -0.15667018294334412, -0.04237648472189903, -0.132917121052742, -0.128596693277359, -0.15627874433994293, -0.10571853816509247, -0.20000730454921722, -0.3123627007007599, -0.33234643936157227, -0.27595406770706177, -0.27979299426078796, -0.19070816040039062, -0.19417575001716614, 1.9268236428615637e-06, 2.0218155896145618e-06, 3.0696990052092588e-06, 7.32111061552132e-07, 1.2423647604009602e-06, 1.6722033251426183e-06, 4.932808224111795e-07, 7.637896715095849e-07, 1.0853002549993107e-06, 0.20611466467380524, 0.17624934017658234, 0.20509056746959686, 0.23955857753753662, 0.20156414806842804, 0.24615727365016937, 0.25442683696746826, 0.18725012242794037, 0.24928921461105347, -0.09913767129182816, 0.07545393705368042, -0.015604411251842976, -0.1241956353187561, 0.018115736544132233, -0.07741229236125946, -0.011891455389559269, -0.13979987800121307, -0.05572289600968361, 0.18561361730098724, 